{"learner":{"attributes":{"scikit_learn":"{\"_estimator_type\": \"regressor\"}"},"feature_names":["revenues_lag_1","revenues_lag_2","revenues_lag_3","revenues_lag_4","revenues_rolling_avg_4","net_income_lag_2","net_income_lag_3","net_income_lag_4","net_income_rolling_avg_4","research_and_development_expense_lag_4","research_and_development_expense_lag_5","research_and_development_expense_lag_6","research_and_development_expense_lag_7","research_and_development_expense_lag_8","selling_general_and_administrative_expense_lag_1","selling_general_and_administrative_expense_lag_2","selling_general_and_administrative_expense_rolling_avg_4","assets_lag_2","assets_lag_3","assets_lag_4","liabilities_lag_2","liabilities_lag_3","liabilities_lag_4","shareholder_equity_lag_2","shareholder_equity_lag_3","shareholder_equity_lag_4","gdp_lag_1","gdp_lag_2","cpi_lag_1","unemployment_lag_1","unemployment_lag_2","year","quarter"],"feature_types":["float","float","float","float","float","float","float","float","float","float","float","float","float","float","float","float","float","float","float","float","float","float","float","float","float","float","float","float","float","float","float","int","c"],"gradient_booster":{"model":{"gbtree_model_param":{"num_parallel_tree":"1","num_trees":"500"},"iteration_indptr":[0,1,2,3,4,5,6,7,8,9,10,11,12,13,14,15,16,17,18,19,20,21,22,23,24,25,26,27,28,29,30,31,32,33,34,35,36,37,38,39,40,41,42,43,44,45,46,47,48,49,50,51,52,53,54,55,56,57,58,59,60,61,62,63,64,65,66,67,68,69,70,71,72,73,74,75,76,77,78,79,80,81,82,83,84,85,86,87,88,89,90,91,92,93,94,95,96,97,98,99,100,101,102,103,104,105,106,107,108,109,110,111,112,113,114,115,116,117,118,119,120,121,122,123,124,125,126,127,128,129,130,131,132,133,134,135,136,137,138,139,140,141,142,143,144,145,146,147,148,149,150,151,152,153,154,155,156,157,158,159,160,161,162,163,164,165,166,167,168,169,170,171,172,173,174,175,176,177,178,179,180,181,182,183,184,185,186,187,188,189,190,191,192,193,194,195,196,197,198,199,200,201,202,203,204,205,206,207,208,209,210,211,212,213,214,215,216,217,218,219,220,221,222,223,224,225,226,227,228,229,230,231,232,233,234,235,236,237,238,239,240,241,242,243,244,245,246,247,248,249,250,251,252,253,254,255,256,257,258,259,260,261,262,263,264,265,266,267,268,269,270,271,272,273,274,275,276,277,278,279,280,281,282,283,284,285,286,287,288,289,290,291,292,293,294,295,296,297,298,299,300,301,302,303,304,305,306,307,308,309,310,311,312,313,314,315,316,317,318,319,320,321,322,323,324,325,326,327,328,329,330,331,332,333,334,335,336,337,338,339,340,341,342,343,344,345,346,347,348,349,350,351,352,353,354,355,356,357,358,359,360,361,362,363,364,365,366,367,368,369,370,371,372,373,374,375,376,377,378,379,380,381,382,383,384,385,386,387,388,389,390,391,392,393,394,395,396,397,398,399,400,401,402,403,404,405,406,407,408,409,410,411,412,413,414,415,416,417,418,419,420,421,422,423,424,425,426,427,428,429,430,431,432,433,434,435,436,437,438,439,440,441,442,443,444,445,446,447,448,449,450,451,452,453,454,455,456,457,458,459,460,461,462,463,464,465,466,467,468,469,470,471,472,473,474,475,476,477,478,479,480,481,482,483,484,485,486,487,488,489,490,491,492,493,494,495,496,497,498,499,500],"tree_info":[0,0,0,0,0,0,0,0,0,0,0,0,0,0,0,0,0,0,0,0,0,0,0,0,0,0,0,0,0,0,0,0,0,0,0,0,0,0,0,0,0,0,0,0,0,0,0,0,0,0,0,0,0,0,0,0,0,0,0,0,0,0,0,0,0,0,0,0,0,0,0,0,0,0,0,0,0,0,0,0,0,0,0,0,0,0,0,0,0,0,0,0,0,0,0,0,0,0,0,0,0,0,0,0,0,0,0,0,0,0,0,0,0,0,0,0,0,0,0,0,0,0,0,0,0,0,0,0,0,0,0,0,0,0,0,0,0,0,0,0,0,0,0,0,0,0,0,0,0,0,0,0,0,0,0,0,0,0,0,0,0,0,0,0,0,0,0,0,0,0,0,0,0,0,0,0,0,0,0,0,0,0,0,0,0,0,0,0,0,0,0,0,0,0,0,0,0,0,0,0,0,0,0,0,0,0,0,0,0,0,0,0,0,0,0,0,0,0,0,0,0,0,0,0,0,0,0,0,0,0,0,0,0,0,0,0,0,0,0,0,0,0,0,0,0,0,0,0,0,0,0,0,0,0,0,0,0,0,0,0,0,0,0,0,0,0,0,0,0,0,0,0,0,0,0,0,0,0,0,0,0,0,0,0,0,0,0,0,0,0,0,0,0,0,0,0,0,0,0,0,0,0,0,0,0,0,0,0,0,0,0,0,0,0,0,0,0,0,0,0,0,0,0,0,0,0,0,0,0,0,0,0,0,0,0,0,0,0,0,0,0,0,0,0,0,0,0,0,0,0,0,0,0,0,0,0,0,0,0,0,0,0,0,0,0,0,0,0,0,0,0,0,0,0,0,0,0,0,0,0,0,0,0,0,0,0,0,0,0,0,0,0,0,0,0,0,0,0,0,0,0,0,0,0,0,0,0,0,0,0,0,0,0,0,0,0,0,0,0,0,0,0,0,0,0,0,0,0,0,0,0,0,0,0,0,0,0,0,0,0,0,0,0,0,0,0,0,0,0,0,0,0,0,0,0,0,0,0,0,0,0,0,0,0,0,0,0,0,0,0,0,0,0,0,0,0,0,0,0,0,0,0,0,0,0,0,0,0,0,0,0,0,0,0,0,0,0,0,0,0],"trees":[{"base_weights":[1.0759497E-2,-8.4E-2,9.930556E-3],"categories":[],"categories_nodes":[],"categories_segments":[],"categories_sizes":[],"default_left":[0,0,0],"id":0,"left_children":[1,-1,-1],"loss_changes":[1.1985778E1,0E0,0E0],"parents":[2147483647,0,0],"right_children":[2,-1,-1],"split_conditions":[7.115E9,-4.444457E8,5.7538003E8],"split_indices":[2,0,0],"split_type":[0,0,0],"sum_hessian":[1.57E2,1.4E1,1.43E2],"tree_param":{"num_deleted":"0","num_feature":"33","num_nodes":"3","size_leaf_vector":"1"}},{"base_weights":[-3.2051245E-3,-7.9444444E-1,9.928058E-3,-8.470588E-2,5.0000004E-3],"categories":[],"categories_nodes":[],"categories_segments":[],"categories_sizes":[],"default_left":[0,0,0,0,0],"id":1,"left_children":[1,3,-1,-1,-1],"loss_changes":[1.2729025E1,8.4209156E-1,0E0,0E0,0E0],"parents":[2147483647,0,0,1,1],"right_children":[2,4,-1,-1,-1],"split_conditions":[7.512E9,7.58E8,4.4027197E8,-4.358254E8,1.964544E6],"split_indices":[2,11,0,0,0],"split_type":[0,0,0,0,0],"sum_hessian":[1.55E2,1.7E1,1.38E2,1.6E1,1E0],"tree_param":{"num_deleted":"0","num_feature":"33","num_nodes":"5","size_leaf_vector":"1"}},{"base_weights":[-4.861107E-3,-7.3888886E-1,9.92126E-3,-7.8823525E-1,5.0000004E-3,5.0000004E-3,-8.4375E-2],"categories":[],"categories_nodes":[],"categories_segments":[],"categories_sizes":[],"default_left":[0,0,0,0,0,0,0],"id":2,"left_children":[1,3,-1,5,-1,-1,-1],"loss_changes":[1.1073897E1,7.4013233E-1,0E0,8.33271E-1,0E0,0E0,0E0],"parents":[2147483647,0,0,1,1,3,3],"right_children":[2,4,-1,6,-1,-1,-1],"split_conditions":[2.087E9,9.72E9,4.4561482E8,8.18E8,1.4364467E7,1.7644544E6,-3.981957E8],"split_indices":[8,0,0,5,0,0,0],"split_type":[0,0,0,0,0,0,0],"sum_hessian":[1.43E2,1.7E1,1.26E2,1.6E1,1E0,1E0,1.5E1],"tree_param":{"num_deleted":"0","num_feature":"33","num_nodes":"7","size_leaf_vector":"1"}},{"base_weights":[6.5789843E-4,-6.9473684E-1,9.925374E-3,-2.4999999E-1,-8.357143E-2,7.5000003E-3,-6E-2],"categories":[0,1,2],"categories_nodes":[1],"categories_segments":[0],"categories_sizes":[3],"default_left":[0,1,0,0,0,0,0],"id":3,"left_children":[1,3,-1,5,-1,-1,-1],"loss_changes":[1.0490535E1,9.823313E-1,0E0,7.2749996E-1,0E0,0E0,0E0],"parents":[2147483647,0,0,1,1,3,3],"right_children":[2,4,-1,6,-1,-1,-1],"split_conditions":[9.734E9,1E-45,4.6199328E8,6.45E8,-2.913853E8,1.5880192E6,-1.4984699E8],"split_indices":[0,32,0,11,0,0,0],"split_type":[0,1,0,0,0,0,0],"sum_hessian":[1.51E2,1.8E1,1.33E2,5E0,1.3E1,3E0,2E0],"tree_param":{"num_deleted":"0","num_feature":"33","num_nodes":"7","size_leaf_vector":"1"}},{"base_weights":[-7.1005877E-3,-7.2272724E-1,9.932432E-3,-1.75E-1,-7.9999995E-1,-4.4999998E-2,6.6666673E-3,-8.470588E-2,-2.6666665E-2],"categories":[],"categories_nodes":[],"categories_segments":[],"categories_sizes":[],"default_left":[0,0,0,0,0,0,0,0,0],"id":4,"left_children":[1,3,-1,5,7,-1,-1,-1,-1],"loss_changes":[1.2942909E1,7.911377E-1,0E0,2.958333E-1,2.5097942E-1,0E0,0E0,0E0,0E0],"parents":[2147483647,0,0,1,1,3,3,4,4],"right_children":[2,4,-1,6,8,-1,-1,-1,-1],"split_conditions":[9.026E9,2.08E8,4.1981395E8,5.3672E9,9.833333E0,-1.6639478E8,1.4291969E6,-3.437929E8,-5.949476E7],"split_indices":[1,9,0,0,30,0,0,0,0],"split_type":[0,0,0,0,0,0,0,0,0],"sum_hessian":[1.68E2,2.1E1,1.47E2,3E0,1.8E1,1E0,2E0,1.6E1,2E0],"tree_param":{"num_deleted":"0","num_feature":"33","num_nodes":"9","size_leaf_vector":"1"}},{"base_weights":[5.03145E-3,-8.357143E-2,8.561644E-2,-1.625E-1,9.928058E-3,8.333334E-3,-6E-2],"categories":[],"categories_nodes":[],"categories_segments":[],"categories_sizes":[],"default_left":[0,0,0,0,0,0,0],"id":5,"left_children":[1,-1,3,5,-1,-1,-1],"loss_changes":[1.0844037E1,0E0,5.111165E-1,9.104166E-1,0E0,0E0,0E0],"parents":[2147483647,0,0,2,2,3,3],"right_children":[2,-1,4,6,-1,-1,-1],"split_conditions":[6.217E9,-2.7425277E8,9.734E9,7.115E9,3.8781248E8,1.2862464E6,-3.9549644E7],"split_indices":[2,0,0,3,0,0,0],"split_type":[0,0,0,0,0,0,0],"sum_hessian":[1.58E2,1.3E1,1.45E2,7E0,1.38E2,5E0,2E0],"tree_param":{"num_deleted":"0","num_feature":"33","num_nodes":"7","size_leaf_vector":"1"}},{"base_weights":[3.2051317E-3,-6.55E-1,9.927007E-3,-7.8125E-1,-1.2E-1,5.0000004E-3,-8.4E-2,7.5000003E-3,-4.4999998E-2],"categories":[],"categories_nodes":[],"categories_segments":[],"categories_sizes":[],"default_left":[0,0,0,0,0,0,0,0,0],"id":6,"left_children":[1,3,-1,5,7,-1,-1,-1,-1],"loss_changes":[9.92897E0,1.257124E0,0E0,8.233757E-1,3.5549998E-1,0E0,0E0,0E0,0E0],"parents":[2147483647,0,0,1,1,3,3,4,4],"right_children":[2,4,-1,6,8,-1,-1,-1,-1],"split_conditions":[9.084E9,1.828E9,2.711913E8,8.18E8,9.084E9,1.157632E6,-2.3124462E8,2.0412212E7,-3.7468776E7],"split_indices":[2,6,0,5,0,0,0,0,0],"split_type":[0,0,0,0,0,0,0,0,0],"sum_hessian":[1.55E2,1.9E1,1.36E2,1.5E1,4E0,1E0,1.4E1,3E0,1E0],"tree_param":{"num_deleted":"0","num_feature":"33","num_nodes":"9","size_leaf_vector":"1"}},{"base_weights":[2.0915035E-2,-7.642857E-1,9.928572E-3,5.0000004E-3,-8.307692E-2],"categories":[],"categories_nodes":[],"categories_segments":[],"categories_sizes":[],"default_left":[0,0,0,0,0],"id":7,"left_children":[1,3,-1,-1,-1],"loss_changes":[9.491E0,7.994509E-1,0E0,0E0,0E0],"parents":[2147483647,0,0,1,1],"right_children":[2,4,-1,-1,-1],"split_conditions":[1.842E9,1.76E8,3.6613725E8,1.0418176E6,-2.7095638E8],"split_indices":[8,10,0,0,0],"split_type":[0,0,0,0,0],"sum_hessian":[1.52E2,1.3E1,1.39E2,1E0,1.2E1],"tree_param":{"num_deleted":"0","num_feature":"33","num_nodes":"5","size_leaf_vector":"1"}},{"base_weights":[1.3071932E-3,-7.3888886E-1,9.926471E-3,-8.4E-2,-1.75E-1,6.6666673E-3,-4.4999998E-2],"categories":[],"categories_nodes":[],"categories_segments":[],"categories_sizes":[],"default_left":[0,0,0,0,0,0,0],"id":8,"left_children":[1,3,-1,-1,5,-1,-1],"loss_changes":[1.1167033E1,8.7927914E-1,0E0,0E0,2.958333E-1,0E0,0E0],"parents":[2147483647,0,0,1,1,4,4],"right_children":[2,4,-1,-1,6,-1,-1],"split_conditions":[7.4075E8,9.633333E0,1.6643843E8,-1.9614011E8,6.775E9,1.4299136E6,-3.9609244E7],"split_indices":[16,29,0,0,0,0,0],"split_type":[0,0,0,0,0,0,0],"sum_hessian":[1.52E2,1.7E1,1.35E2,1.4E1,3E0,2E0,1E0],"tree_param":{"num_deleted":"0","num_feature":"33","num_nodes":"7","size_leaf_vector":"1"}},{"base_weights":[9.036148E-3,-6.9285715E-1,7.320262E-2,-8.1818186E-2,-1.75E-1,-1.8181817E-1,9.2307694E-2,6.6666673E-3,-4.4999998E-2,-2.222222E-3,-6E-2,-1.2E-2,9.928058E-3],"categories":[],"categories_nodes":[],"categories_segments":[],"categories_sizes":[],"default_left":[0,0,0,0,0,0,0,0,0,0,0,0,0],"id":9,"left_children":[1,3,5,-1,7,9,11,-1,-1,-1,-1,-1,-1],"loss_changes":[7.5270295E0,7.654214E-1,7.6222867E-1,0E0,2.958333E-1,7.20808E-1,2.236104E-1,0E0,0E0,0E0,0E0,0E0,0E0],"parents":[2147483647,0,0,1,1,2,2,4,4,5,5,6,6],"right_children":[2,4,6,-1,8,10,12,-1,-1,-1,-1,-1,-1],"split_conditions":[7.286E9,6.45E8,1.7709E10,-2.3029298E8,6.775E9,1.188E10,1.4448882E4,1.286912E6,-2.2652928E6,-5.0721588E7,-4.097024E6,-6.545408E6,3.4036458E8],"split_indices":[0,10,21,0,0,0,26,0,0,0,0,0,0],"split_type":[0,0,0,0,0,0,0,0,0,0,0,0,0],"sum_hessian":[1.65E2,1.3E1,1.52E2,1E1,3E0,1E1,1.42E2,2E0,1E0,8E0,2E0,4E0,1.38E2],"tree_param":{"num_deleted":"0","num_feature":"33","num_nodes":"13","size_leaf_vector":"1"}},{"base_weights":[9.580842E-3,-8E-2,5.5345915E-2,-1.6521738E-1,9.19708E-2,8.888889E-3,-3.0666664E-2,-2.6666665E-2,9.925926E-3],"categories":[],"categories_nodes":[],"categories_segments":[],"categories_sizes":[],"default_left":[0,0,0,0,0,0,0,0,0],"id":10,"left_children":[1,-1,3,5,7,-1,-1,-1,-1],"loss_changes":[6.2317142E0,0E0,1.2996142E0,8.5395163E-1,3.8457537E-1,0E0,0E0,0E0,0E0],"parents":[2147483647,0,0,2,2,3,3,4,4],"right_children":[2,-1,4,6,8,-1,-1,-1,-1],"split_conditions":[5.6694876E9,-2.102868E8,1.02125E9,1.955E9,2.1276967E2,1.1582464E6,-3.416566E7,-5.8908675E6,3.7321814E8],"split_indices":[4,0,16,5,28,0,0,0,0],"split_type":[0,0,0,0,0,0,0,0,0],"sum_hessian":[1.66E2,8E0,1.58E2,2.2E1,1.36E2,8E0,1.4E1,2E0,1.34E2],"tree_param":{"num_deleted":"0","num_feature":"33","num_nodes":"9","size_leaf_vector":"1"}},{"base_weights":[7.8431405E-3,-4.4583333E-1,9.153847E-2,-7.875E-2,-2.588235E-1,-1.75E-1,9.92126E-3,8.3333364E-4,-7.5E-2,6.6666673E-3,-4.4999998E-2],"categories":[],"categories_nodes":[],"categories_segments":[],"categories_sizes":[],"default_left":[0,0,0,0,0,0,0,0,0,0,0],"id":11,"left_children":[1,3,5,-1,7,9,-1,-1,-1,-1,-1],"loss_changes":[5.850312E0,1.3296571E0,2.8327107E-1,0E0,2.2370095E0,2.958333E-1,0E0,0E0,0E0,0E0,0E0],"parents":[2147483647,0,0,1,1,2,2,4,4,5,5],"right_children":[2,4,6,-1,8,10,-1,-1,-1,-1,-1],"split_conditions":[9.87E9,5.912716E9,3.4973E10,-1.0429235E8,1.287E10,1.3499E10,3.1521786E8,-7.0863875E6,-4.223283E7,6.106317E6,-5.30176E6],"split_indices":[1,4,23,0,20,1,0,0,0,0,0],"split_type":[0,0,0,0,0,0,0,0,0,0,0],"sum_hessian":[1.52E2,2.3E1,1.29E2,7E0,1.6E1,3E0,1.26E2,1.1E1,5E0,2E0,1E0],"tree_param":{"num_deleted":"0","num_feature":"33","num_nodes":"11","size_leaf_vector":"1"}},{"base_weights":[1.3245037E-2,-6.8888885E-1,5.734266E-2,-7.875E-2,5.0000004E-3,-1.17857136E-1,9.913794E-3,9.375E-3,-3.6923077E-2],"categories":[],"categories_nodes":[],"categories_segments":[],"categories_sizes":[],"default_left":[0,0,0,0,0,0,0,0,0],"id":12,"left_children":[1,3,5,-1,-1,7,-1,-1,-1],"loss_changes":[4.7148304E0,6.9513893E-1,1.0588049E0,0E0,0E0,1.5240041E0,0E0,0E0,0E0],"parents":[2147483647,0,0,1,1,2,2,5,5],"right_children":[2,4,6,-1,-1,8,-1,-1,-1],"split_conditions":[3.664934E9,5.5414E9,1.038E9,-1.4859766E8,1.7510912E6,6.4725E10,5.9159456E8,1.3628519E6,-4.6393816E7],"split_indices":[22,3,15,0,0,17,0,0,0],"split_type":[0,0,0,0,0,0,0,0,0],"sum_hessian":[1.5E2,8E0,1.42E2,7E0,1E0,2.7E1,1.15E2,1.5E1,1.2E1],"tree_param":{"num_deleted":"0","num_feature":"33","num_nodes":"9","size_leaf_vector":"1"}},{"base_weights":[-5.228754E-3,-4.033333E-1,9.1129035E-2,-2.2222219E-2,-5.4090905E-1,-2.6666665E-1,9.918033E-3,-4.4999998E-2,8.75E-3,7.5000003E-3,-6.421053E-2,-4.4999998E-2,5.0000004E-3],"categories":[0,1,2],"categories_nodes":[1],"categories_segments":[0],"categories_sizes":[3],"default_left":[0,1,0,0,0,0,0,0,0,0,0,0,0],"id":13,"left_children":[1,3,5,7,9,11,-1,-1,-1,-1,-1,-1,-1],"loss_changes":[5.905908E0,1.5609293E0,3.8365722E-1,4.6180552E-1,1.4193664E0,1.9666664E-1,0E0,0E0,0E0,0E0,0E0,0E0,0E0],"parents":[2147483647,0,0,1,1,2,2,3,3,4,4,5,5],"right_children":[2,4,6,8,10,12,-1,-1,-1,-1,-1,-1,-1],"split_conditions":[1.3754E10,1E-45,7.82E8,4.2314E9,2.73E8,1.542E10,5.68035E8,-1.3373788E8,4.5607935E6,1.8550272E6,-9.306334E7,-3.1986176E7,2.0711384E8],"split_indices":[0,32,15,0,9,0,0,0,0,0,0,0,0],"split_type":[0,1,0,0,0,0,0,0,0,0,0,0,0],"sum_hessian":[1.52E2,2.9E1,1.23E2,8E0,2.1E1,2E0,1.21E2,1E0,7E0,3E0,1.8E1,1E0,1E0],"tree_param":{"num_deleted":"0","num_feature":"33","num_nodes":"13","size_leaf_vector":"1"}},{"base_weights":[-1.3999996E-2,-3.75E-1,9.913044E-3,-8E-2,-2.25E-1,9.166667E-3,-4.352941E-2],"categories":[],"categories_nodes":[],"categories_segments":[],"categories_sizes":[],"default_left":[0,0,0,0,0,0,0],"id":14,"left_children":[1,3,-1,-1,5,-1,-1],"loss_changes":[6.1631866E0,2.1150002E0,0E0,0E0,1.9045099E0,0E0,0E0],"parents":[2147483647,0,0,1,1,4,4],"right_children":[2,4,-1,-1,6,-1,-1],"split_conditions":[1.084E9,3.563904E9,2.860609E8,-1.2036409E8,8.44E9,1.5291598E6,-7.2393096E7],"split_indices":[14,20,0,0,3,0,0],"split_type":[0,0,0,0,0,0,0],"sum_hessian":[1.49E2,3.5E1,1.14E2,8E0,2.7E1,1.1E1,1.6E1],"tree_param":{"num_deleted":"0","num_feature":"33","num_nodes":"7","size_leaf_vector":"1"}},{"base_weights":[-1.4765097E-2,-4.64E-1,7.52E-2,8.333334E-3,-6.0499996E-1,-1.3846153E-1,9.911505E-3,-2.4444444E-2,-8.25E-2,8.75E-3,-4.1666668E-2],"categories":[],"categories_nodes":[],"categories_segments":[],"categories_sizes":[],"default_left":[0,0,0,0,0,0,0,0,0,0,0],"id":15,"left_children":[1,3,5,-1,7,9,-1,-1,-1,-1,-1],"loss_changes":[6.056797E0,1.9797659E0,6.524391E-1,0E0,1.384778E0,8.5368586E-1,0E0,0E0,0E0,0E0,0E0],"parents":[2147483647,0,0,1,1,2,2,4,4,5,5],"right_children":[2,4,6,-1,8,10,-1,-1,-1,-1,-1],"split_conditions":[2.01E3,2.46E8,1.3304E10,1.5165952E6,1.4448882E4,2.68425E9,4.9047728E8,-1.4262642E8,-5.983009E7,6.2883844E5,-6.8639336E7],"split_indices":[31,9,0,0,27,8,0,0,0,0,0],"split_type":[0,0,0,0,0,0,0,0,0,0,0],"sum_hessian":[1.48E2,2.4E1,1.24E2,5E0,1.9E1,1.2E1,1.12E2,8E0,1.1E1,7E0,5E0],"tree_param":{"num_deleted":"0","num_feature":"33","num_nodes":"11","size_leaf_vector":"1"}},{"base_weights":[2.2377625E-2,-7.5E-2,5.5797104E-2,-9.677419E-2,9.907408E-3,1.9230772E-3,-5.8333334E-2],"categories":[],"categories_nodes":[],"categories_segments":[],"categories_sizes":[],"default_left":[0,0,0,0,0,0,0],"id":16,"left_children":[1,-1,3,5,-1,-1,-1],"loss_changes":[3.7330291E0,0E0,9.207775E-1,1.7609594E0,0E0,0E0,0E0],"parents":[2147483647,0,0,2,2,3,3],"right_children":[2,-1,4,6,-1,-1,-1],"split_conditions":[3.563904E9,-1.2836378E8,1.542975E10,6.9088E10,3.6721776E8,-4.042137E5,-6.177536E7],"split_indices":[20,0,4,19,0,0,0],"split_type":[0,0,0,0,0,0,0],"sum_hessian":[1.42E2,5E0,1.37E2,3E1,1.07E2,2.5E1,5E0],"tree_param":{"num_deleted":"0","num_feature":"33","num_nodes":"7","size_leaf_vector":"1"}},{"base_weights":[2.8873242E-2,-2.681818E-1,8.264463E-2,8.333334E-3,-3.7647057E-1,-1.6666662E-2,9.903846E-3,-7.5E-2,-1.5833333E-2,9.333334E-3,-4.25E-2],"categories":[],"categories_nodes":[],"categories_segments":[],"categories_sizes":[],"default_left":[0,0,0,0,0,0,0,0,0,0,0],"id":17,"left_children":[1,3,5,-1,7,9,-1,-1,-1,-1,-1],"loss_changes":[2.2903388E0,8.6880577E-1,1.9864982E-1,0E0,1.2664213E0,8.4816664E-1,0E0,0E0,0E0,0E0,0E0],"parents":[2147483647,0,0,1,1,2,2,4,4,5,5],"right_children":[2,4,6,-1,8,10,-1,-1,-1,-1,-1],"split_conditions":[3.6634E10,2.46E8,1.121E9,1.4053376E6,1.206449E9,1.097E9,3.9611405E8,-1.1552742E8,-4.952703E7,3.7935872E6,-4.6864796E7],"split_indices":[23,9,15,0,5,15,0,0,0,0,0],"split_type":[0,0,0,0,0,0,0,0,0,0,0],"sum_hessian":[1.41E2,2.1E1,1.2E2,5E0,1.6E1,1.7E1,1.03E2,5E0,1.1E1,1.4E1,3E0],"tree_param":{"num_deleted":"0","num_feature":"33","num_nodes":"11","size_leaf_vector":"1"}},{"base_weights":[-2.7210847E-3,-2.7105263E-1,9E-2,-1.03333324E-1,-8E-2,3.3866276E-9,9.9E-3,-5.1999997E-2,-1.9230765E-3,9.000001E-3,-4.4999998E-2],"categories":[],"categories_nodes":[],"categories_segments":[],"categories_sizes":[],"default_left":[0,0,0,0,0,0,0,0,0,0,0],"id":18,"left_children":[1,3,5,7,-1,9,-1,-1,-1,-1,-1],"loss_changes":[3.6817534E0,3.2884915E0,8.91E-2,1.0412822E0,0E0,4.8599997E-1,0E0,0E0,0E0,0E0,0E0],"parents":[2147483647,0,0,1,1,2,2,3,3,5,5],"right_children":[2,4,6,8,-1,10,-1,-1,-1,-1,-1],"split_conditions":[1.6189E10,6.9597E10,1.7727E10,3.267447E9,-5.5977164E7,1.7407E10,4.7862458E8,-2.7288474E7,-4.9836235E6,5.4424576E7,-2.6277684E7],"split_indices":[4,19,0,22,0,0,0,0,0,0,0],"split_type":[0,0,0,0,0,0,0,0,0,0,0],"sum_hessian":[1.46E2,3.7E1,1.09E2,2.9E1,8E0,1E1,9.9E1,4E0,2.5E1,9E0,1E0],"tree_param":{"num_deleted":"0","num_feature":"33","num_nodes":"11","size_leaf_vector":"1"}},{"base_weights":[3.4838714E-2,-6.7499995E-2,5.3289477E-2,-1.17857136E-1,9.12E-2,5.0000004E-3,-6.285714E-2,1.5384619E-3,9.911505E-3],"categories":[],"categories_nodes":[],"categories_segments":[],"categories_sizes":[],"default_left":[0,0,0,0,0,0,0,0,0],"id":19,"left_children":[1,-1,3,5,7,-1,-1,-1,-1],"loss_changes":[2.0660157E0,0E0,9.9696374E-1,2.4317858E0,7.3485374E-2,0E0,0E0,0E0,0E0],"parents":[2147483647,0,0,2,2,3,3,4,4],"right_children":[2,-1,4,6,8,-1,-1,-1,-1],"split_conditions":[4.826686E9,-1.012458E8,1.5683E10,7.2793E10,1.7727E10,1.775145E6,-5.0379468E7,-1.3146818E7,5.0689213E8],"split_indices":[0,0,0,17,0,0,0,0,0],"split_type":[0,0,0,0,0,0,0,0,0],"sum_hessian":[1.54E2,3E0,1.51E2,2.7E1,1.24E2,2.1E1,6E0,1.2E1,1.12E2],"tree_param":{"num_deleted":"0","num_feature":"33","num_nodes":"9","size_leaf_vector":"1"}},{"base_weights":[4.4303834E-3,-2.3571427E-1,9.059829E-2,-6.451613E-2,-6.583333E-1,-9.999996E-3,9.907408E-3,-2.4166666E-2,4.5000003E-3,6.6666673E-3,-8.1E-2,8.888889E-3,-4.4999998E-2],"categories":[],"categories_nodes":[],"categories_segments":[],"categories_sizes":[],"default_left":[0,0,0,0,0,0,0,0,0,0,0,0,0],"id":20,"left_children":[1,3,5,7,9,11,-1,-1,-1,-1,-1,-1,-1],"loss_changes":[3.2908118E0,2.9962938E0,1.0075086E-1,6.1230105E-1,1.3734999E0,4.751111E-1,0E0,0E0,0E0,0E0,0E0,0E0,0E0],"parents":[2147483647,0,0,1,1,2,2,3,3,4,4,5,5],"right_children":[2,4,6,8,10,12,-1,-1,-1,-1,-1,-1,-1],"split_conditions":[1.6189E10,6.8853E10,1.7727E10,1.307086E9,2.133E10,1.7407E10,5.7972915E8,-3.1518096E7,1.2601858E6,2.2615654E7,-4.5341492E7,5.029683E7,-2.2335182E7],"split_indices":[4,18,0,6,20,0,0,0,0,0,0,0,0],"split_type":[0,0,0,0,0,0,0,0,0,0,0,0,0],"sum_hessian":[1.57E2,4.1E1,1.16E2,3E1,1.1E1,9E0,1.07E2,1.1E1,1.9E1,2E0,9E0,8E0,1E0],"tree_param":{"num_deleted":"0","num_feature":"33","num_nodes":"13","size_leaf_vector":"1"}},{"base_weights":[-1.4388452E-3,-1.877551E-1,9.89011E-3,-4.571428E-2,-5.0666666E-1,-2E-2,9.473684E-3,-6E-2,6.6666673E-3],"categories":[],"categories_nodes":[],"categories_segments":[],"categories_sizes":[],"default_left":[0,0,0,0,0,0,0,0,0],"id":21,"left_children":[1,3,-1,5,7,-1,-1,-1,-1],"loss_changes":[2.617169E0,2.1964626E0,0E0,7.7738345E-1,8.426666E-1,0E0,0E0,0E0,0E0],"parents":[2147483647,0,0,1,1,3,3,4,4],"right_children":[2,4,-1,6,8,-1,-1,-1,-1],"split_conditions":[1.7407E10,4.8851E10,6.248908E8,9.16E8,1.373E9,-4.2185892E7,2.8810958E6,-5.088216E7,4.5267148E7],"split_indices":[2,25,0,14,15,0,0,0,0],"split_type":[0,0,0,0,0,0,0,0,0],"sum_hessian":[1.38E2,4.8E1,9E1,3.4E1,1.4E1,1.6E1,1.8E1,1.2E1,2E0],"tree_param":{"num_deleted":"0","num_feature":"33","num_nodes":"9","size_leaf_vector":"1"}},{"base_weights":[2.4375003E-2,-1.5208332E-1,9.911505E-3,-2.580645E-1,3.888889E-2,-3.1249996E-3,-4.6875E-2,9.411765E-3,-4.4999998E-2],"categories":[],"categories_nodes":[],"categories_segments":[],"categories_sizes":[],"default_left":[0,0,0,0,0,0,0,0,0],"id":22,"left_children":[1,3,-1,5,7,-1,-1,-1,-1],"loss_changes":[2.1252341E0,9.815301E-1,0E0,1.4667337E0,5.28366E-1,0E0,0E0,0E0,0E0],"parents":[2147483647,0,0,1,1,3,3,4,4],"right_children":[2,4,-1,6,8,-1,-1,-1,-1],"split_conditions":[1.874725E10,8.8E0,4.407946E8,5.7E0,2.371E9,-2.0403198E7,-4.1476116E7,7.0304055E6,-1.2157235E7],"split_indices":[4,29,0,29,11,0,0,0,0],"split_type":[0,0,0,0,0,0,0,0,0],"sum_hessian":[1.59E2,4.7E1,1.12E2,3E1,1.7E1,1.5E1,1.5E1,1.6E1,1E0],"tree_param":{"num_deleted":"0","num_feature":"33","num_nodes":"9","size_leaf_vector":"1"}},{"base_weights":[3.221477E-2,-9.423076E-2,9.897959E-3,-5.1282016E-3,-3.3571428E-1,-1.4117646E-2,9.565218E-3,-4.5454543E-2,7.5000003E-3],"categories":[],"categories_nodes":[],"categories_segments":[],"categories_sizes":[],"default_left":[0,0,0,0,0,0,0,0,0],"id":23,"left_children":[1,3,-1,5,7,-1,-1,-1,-1],"loss_changes":[1.2672019E0,1.117152E0,0E0,5.482327E-1,7.1737003E-1,0E0,0E0,0E0,0E0],"parents":[2147483647,0,0,1,1,3,3,4,4],"right_children":[2,4,-1,6,8,-1,-1,-1,-1],"split_conditions":[1.7407E10,4.8851E10,2.9553475E8,1.4651249E4,1.16E9,-4.3226932E7,3.5240298E6,-3.1294302E7,1.2938793E8],"split_indices":[2,25,0,26,15,0,0,0,0],"split_type":[0,0,0,0,0,0,0,0,0],"sum_hessian":[1.48E2,5.1E1,9.7E1,3.8E1,1.3E1,1.6E1,2.2E1,1E1,3E0],"tree_param":{"num_deleted":"0","num_feature":"33","num_nodes":"9","size_leaf_vector":"1"}},{"base_weights":[3.129252E-2,-8.363636E-2,9.892474E-3,-2.708333E-2,-4.125E-1,-1.1785714E-2,9.52381E-3,-7.2E-2,7.5000003E-3],"categories":[],"categories_nodes":[],"categories_segments":[],"categories_sizes":[],"default_left":[0,0,0,0,0,0,0,0,0],"id":24,"left_children":[1,3,-1,5,7,-1,-1,-1,-1],"loss_changes":[1.1508892E0,1.011731E0,0E0,5.4419637E-1,1.2532499E0,0E0,0E0,0E0,0E0],"parents":[2147483647,0,0,1,1,3,3,4,4],"right_children":[2,4,-1,6,8,-1,-1,-1,-1],"split_conditions":[1.7407E10,1.6008E10,2.821734E8,8.033334E0,1.7372E10,-2.3617414E7,4.605901E6,-2.9250048E7,5.882358E7],"split_indices":[2,3,0,30,3,0,0,0,0],"split_type":[0,0,0,0,0,0,0,0,0],"sum_hessian":[1.46E2,5.4E1,9.2E1,4.7E1,7E0,2.7E1,2E1,4E0,3E0],"tree_param":{"num_deleted":"0","num_feature":"33","num_nodes":"9","size_leaf_vector":"1"}},{"base_weights":[5.2027028E-2,-7.317073E-2,9.907408E-3,1.3888892E-2,-5.833333E-1,4E-3,-4.4999998E-2,-7.2E-2,5.0000004E-3],"categories":[],"categories_nodes":[],"categories_segments":[],"categories_sizes":[],"default_left":[0,0,0,0,0,0,0,0,0],"id":25,"left_children":[1,3,-1,5,7,-1,-1,-1,-1],"loss_changes":[8.7899673E-1,1.8290987E0,0E0,4.5405552E-1,5.553334E-1,0E0,0E0,0E0,0E0],"parents":[2147483647,0,0,1,1,3,3,4,4],"right_children":[2,4,-1,6,8,-1,-1,-1,-1],"split_conditions":[1.6039E10,2.3229933E2,1.842051E8,1.542E10,1.373E9,2.0142592E6,-2.004951E7,-5.6541184E7,3.487437E7],"split_indices":[2,28,0,2,15,0,0,0,0],"split_type":[0,0,0,0,0,0,0,0,0],"sum_hessian":[1.47E2,4E1,1.07E2,3.5E1,5E0,3.4E1,1E0,4E0,1E0],"tree_param":{"num_deleted":"0","num_feature":"33","num_nodes":"9","size_leaf_vector":"1"}},{"base_weights":[2.550336E-2,-1.3125E-1,9.901961E-3,-3.421052E-2,-4.5454544E-1,-6E-2,1.3888892E-3,-6.625E-2,7.5000003E-3],"categories":[],"categories_nodes":[],"categories_segments":[],"categories_sizes":[],"default_left":[0,0,0,0,0,0,0,0,0],"id":26,"left_children":[1,3,-1,5,7,-1,-1,-1,-1],"loss_changes":[1.7300602E0,1.4903257E0,0E0,1.0424707E0,1.2610228E0,0E0,0E0,0E0,0E0],"parents":[2147483647,0,0,1,1,3,3,4,4],"right_children":[2,4,-1,6,8,-1,-1,-1,-1],"split_conditions":[1.8103E10,9.3798E10,3.9852835E8,4.2314E9,1.373E9,-7.522745E7,-5.9899875E5,-5.0887068E7,3.1386932E7],"split_indices":[2,19,0,0,15,0,0,0,0],"split_type":[0,0,0,0,0,0,0,0,0],"sum_hessian":[1.48E2,4.7E1,1.01E2,3.7E1,1E1,2E0,3.5E1,7E0,3E0],"tree_param":{"num_deleted":"0","num_feature":"33","num_nodes":"9","size_leaf_vector":"1"}},{"base_weights":[2.9746838E-2,-1.21999994E-1,9.908257E-3,3.0000003E-2,-3.333333E-1,-4.25E-2,9.62963E-3,-5.230769E-2,-2.222222E-3],"categories":[],"categories_nodes":[],"categories_segments":[],"categories_sizes":[],"default_left":[0,0,0,0,0,0,0,0,0],"id":27,"left_children":[1,3,-1,5,7,-1,-1,-1,-1],"loss_changes":[1.6744816E0,1.6161332E0,0E0,9.4587034E-1,1.228034E0,0E0,0E0,0E0,0E0],"parents":[2147483647,0,0,1,1,3,3,4,4],"right_children":[2,4,-1,6,8,-1,-1,-1,-1],"split_conditions":[1.8103E10,6.8853E10,3.0283805E8,3.267447E9,1.16E9,-3.3405902E7,5.8552835E6,-3.3216932E7,-4.57984E7],"split_indices":[2,18,0,22,14,0,0,0,0],"split_type":[0,0,0,0,0,0,0,0,0],"sum_hessian":[1.57E2,4.9E1,1.08E2,2.9E1,2E1,3E0,2.6E1,1.2E1,8E0],"tree_param":{"num_deleted":"0","num_feature":"33","num_nodes":"9","size_leaf_vector":"1"}},{"base_weights":[3.6075953E-2,-2.9230767E-1,6.50685E-2,-6.7499995E-2,-1.0999999E-1,9.910715E-3,-4.571428E-2,8.75E-3,-6E-2,9.473684E-3,-2E-2],"categories":[],"categories_nodes":[],"categories_segments":[],"categories_sizes":[],"default_left":[0,0,0,0,0,0,0,0,0,0,0],"id":28,"left_children":[1,3,5,-1,7,-1,9,-1,-1,-1,-1],"loss_changes":[1.5232869E0,8.3273065E-1,5.550815E-1,0E0,1.0202498E0,0E0,7.7738345E-1,0E0,0E0,0E0,0E0],"parents":[2147483647,0,0,1,1,2,2,4,4,6,6],"right_children":[2,4,6,-1,8,-1,10,-1,-1,-1,-1],"split_conditions":[1.4564117E4,3.563904E9,7.8E0,-6.4364084E7,9.99E8,2.8344832E7,1.33E9,1.2792218E7,-2.0244686E7,5.886925E6,-2.590212E7],"split_indices":[26,20,30,0,15,0,10,0,0,0,0],"split_type":[0,0,0,0,0,0,0,0,0,0,0],"sum_hessian":[1.57E2,1.2E1,1.45E2,3E0,9E0,1.11E2,3.4E1,7E0,2E0,1.8E1,1.6E1],"tree_param":{"num_deleted":"0","num_feature":"33","num_nodes":"11","size_leaf_vector":"1"}},{"base_weights":[2.108434E-2,-1.046875E-1,9.902913E-3,-1.7307688E-2,-4.4615382E-1,-6E-2,1.8000003E-3,-5.454545E-2,6.6666673E-3],"categories":[],"categories_nodes":[],"categories_segments":[],"categories_sizes":[],"default_left":[0,0,0,0,0,0,0,0,0],"id":29,"left_children":[1,3,-1,5,7,-1,-1,-1,-1],"loss_changes":[1.6377081E0,1.9018629E0,0E0,1.080623E0,6.983681E-1,0E0,0E0,0E0,0E0],"parents":[2147483647,0,0,1,1,3,3,4,4],"right_children":[2,4,-1,6,8,-1,-1,-1,-1],"split_conditions":[2.15E10,4.388E9,5.454191E8,4.2314E9,6.513E9,-5.792768E7,4.8414725E5,-3.049767E7,1.4042603E8],"split_indices":[0,7,0,0,7,0,0,0,0],"split_type":[0,0,0,0,0,0,0,0,0],"sum_hessian":[1.65E2,6.3E1,1.02E2,5.1E1,1.2E1,2E0,4.9E1,1E1,2E0],"tree_param":{"num_deleted":"0","num_feature":"33","num_nodes":"9","size_leaf_vector":"1"}},{"base_weights":[4.6357617E-2,-3.9655168E-2,9.893618E-3,9.696971E-3,-2.1153845E-1,-5.1E-2,-2.3529408E-3],"categories":[],"categories_nodes":[],"categories_segments":[],"categories_sizes":[],"default_left":[0,0,0,0,0,0,0],"id":30,"left_children":[1,3,-1,-1,5,-1,-1],"loss_changes":[6.8681E-1,1.3825576E0,0E0,0E0,1.4469502E0,0E0,0E0],"parents":[2147483647,0,0,1,1,4,4],"right_children":[2,4,-1,-1,6,-1,-1],"split_conditions":[4.32175E9,7.0747E10,1.7848726E8,3.1352268E6,6.8659E10,-2.2929614E7,-3.246727E7],"split_indices":[8,18,0,0,24,0,0],"split_type":[0,0,0,0,0,0,0],"sum_hessian":[1.5E2,5.7E1,9.3E1,3.2E1,2.5E1,9E0,1.6E1],"tree_param":{"num_deleted":"0","num_feature":"33","num_nodes":"7","size_leaf_vector":"1"}},{"base_weights":[1.6025644E-2,-1.0153846E-1,9.891304E-3,1.0869568E-2,-3.55E-1,-6E-2,5.227273E-3,-6.363636E-2,-9.999996E-4],"categories":[],"categories_nodes":[],"categories_segments":[],"categories_sizes":[],"default_left":[0,0,0,0,0,0,0,0,0],"id":31,"left_children":[1,3,-1,5,7,-1,-1,-1,-1],"loss_changes":[1.5301983E0,1.8557807E0,0E0,1.1947925E0,1.9350452E0,0E0,0E0,0E0,0E0],"parents":[2147483647,0,0,1,1,3,3,4,4],"right_children":[2,4,-1,6,8,-1,-1,-1,-1],"split_conditions":[2.1928E10,3.3193E10,6.3158765E8,4.2314E9,5.018E9,-5.2448412E7,2.3909888E6,-4.9878856E7,-4.499702E7],"split_indices":[0,21,0,0,6,0,0,0,0],"split_type":[0,0,0,0,0,0,0,0,0],"sum_hessian":[1.55E2,6.4E1,9.1E1,4.5E1,1.9E1,2E0,4.3E1,1E1,9E0],"tree_param":{"num_deleted":"0","num_feature":"33","num_nodes":"9","size_leaf_vector":"1"}},{"base_weights":[6.000004E-3,-1.3392857E-1,8.8421054E-2,-7.894733E-3,-3.7894735E-1,-2.6666665E-1,9.892474E-3,-6E-2,4.166667E-3,-6E-2,8.571429E-3,-4.4999998E-2,5.0000004E-3],"categories":[],"categories_nodes":[],"categories_segments":[],"categories_sizes":[],"default_left":[0,0,0,0,0,0,0,0,0,0,0,0,0],"id":32,"left_children":[1,3,5,7,9,11,-1,-1,-1,-1,-1,-1,-1],"loss_changes":[1.7418011E0,1.7263252E0,3.80704E-1,1.1401315E0,2.0030077E0,1.9666664E-1,0E0,0E0,0E0,0E0,0E0,0E0,0E0],"parents":[2147483647,0,0,1,1,2,2,3,3,4,4,5,5],"right_children":[2,4,6,8,10,12,-1,-1,-1,-1,-1,-1,-1],"split_conditions":[1.156E9,1.063E9,3.82442E8,4.2314E9,6.267E9,2.0531E10,1.9974078E8,-4.7203584E7,2.2678528E6,-4.7302308E7,1.3028516E8,-1.1740365E7,1.4147197E9],"split_indices":[14,15,7,0,6,0,0,0,0,0,0,0,0],"split_type":[0,0,0,0,0,0,0,0,0,0,0,0,0],"sum_hessian":[1.49E2,5.5E1,9.4E1,3.7E1,1.8E1,2E0,9.2E1,2E0,3.5E1,1.2E1,6E0,1E0,1E0],"tree_param":{"num_deleted":"0","num_feature":"33","num_nodes":"13","size_leaf_vector":"1"}},{"base_weights":[-2.3225803E-2,-1.6164383E-1,9.879518E-3,-9.836065E-2,-4.4615382E-1,-6E-2,-7.1186437E-3,7.5000003E-3,-6.0999997E-2],"categories":[0,1],"categories_nodes":[4],"categories_segments":[0],"categories_sizes":[2],"default_left":[0,0,0,0,1,0,0,0,0],"id":33,"left_children":[1,3,-1,5,7,-1,-1,-1,-1],"loss_changes":[2.6339047E0,1.270459E0,0E0,7.88819E-1,1.1558077E0,0E0,0E0,0E0,0E0],"parents":[2147483647,0,0,1,1,3,3,4,4],"right_children":[2,4,-1,6,8,-1,-1,-1,-1],"split_conditions":[2.4519E10,4.985E9,1.0932243E9,4.2314E9,1E-45,-4.2483252E7,-1.1440538E7,2.3412738E6,-5.687726E7],"split_indices":[0,7,0,0,32,0,0,0,0],"split_type":[0,0,0,0,1,0,0,0,0],"sum_hessian":[1.54E2,7.2E1,8.2E1,6E1,1.2E1,2E0,5.8E1,3E0,9E0],"tree_param":{"num_deleted":"0","num_feature":"33","num_nodes":"9","size_leaf_vector":"1"}},{"base_weights":[-1.1038957E-2,-1.7288135E-1,8.854167E-2,-5.7777774E-2,-5.0666666E-1,-4.4999998E-2,9.894737E-3,-6E-2,-1.8604648E-3,-6.583333E-2,7.5000003E-3],"categories":[],"categories_nodes":[],"categories_segments":[],"categories_sizes":[],"default_left":[0,0,0,0,0,0,0,0,0,0,0],"id":34,"left_children":[1,3,5,7,9,-1,-1,-1,-1,-1,-1],"loss_changes":[2.4972277E0,2.2374992E0,5.82501E-1,9.446615E-1,1.3726664E0,0E0,0E0,0E0,0E0,0E0,0E0],"parents":[2147483647,0,0,1,1,2,2,3,3,4,4],"right_children":[2,4,6,8,10,-1,-1,-1,-1,-1,-1],"split_conditions":[4.923E9,3.191E10,1.7407E10,4.2314E9,5.667E9,-3.0079386E7,2.2722008E8,-3.8234932E7,-8.013097E6,-9.4855864E7,1.18400616E8],"split_indices":[5,22,1,0,6,0,0,0,0,0,0],"split_type":[0,0,0,0,0,0,0,0,0,0,0],"sum_hessian":[1.53E2,5.8E1,9.5E1,4.4E1,1.4E1,1E0,9.4E1,2E0,4.2E1,1.1E1,3E0],"tree_param":{"num_deleted":"0","num_feature":"33","num_nodes":"11","size_leaf_vector":"1"}},{"base_weights":[1.7687079E-2,-1.0555555E-1,8.8297874E-2,3.636364E-2,-3.1363636E-1,3.3866276E-9,9.880953E-3,-4.4999998E-2,6.5625007E-3,-7.1E-2,1.5384619E-3,9.000001E-3,-4.4999998E-2],"categories":[],"categories_nodes":[],"categories_segments":[],"categories_sizes":[],"default_left":[0,0,0,0,0,0,0,0,0,0,0,0,0],"id":35,"left_children":[1,3,5,7,9,11,-1,-1,-1,-1,-1,-1,-1],"loss_changes":[1.2885525E0,1.6060605E0,8.7246716E-2,4.9917608E-1,2.8799856E0,4.8599997E-1,0E0,0E0,0E0,0E0,0E0,0E0,0E0],"parents":[2147483647,0,0,1,1,2,2,3,3,4,4,5,5],"right_children":[2,4,6,8,10,12,-1,-1,-1,-1,-1,-1,-1],"split_conditions":[4.612E9,1.038E9,1.152E9,4.2314E9,1.16E9,1.149E9,3.2256928E8,-1.1264E5,3.487662E6,-6.458798E7,-3.2042085E6,6.567946E5,-2.6376806E7],"split_indices":[6,15,14,0,15,14,0,0,0,0,0,0,0],"split_type":[0,0,0,0,0,0,0,0,0,0,0,0,0],"sum_hessian":[1.46E2,5.3E1,9.3E1,3.2E1,2.1E1,1E1,8.3E1,1E0,3.1E1,9E0,1.2E1,9E0,1E0],"tree_param":{"num_deleted":"0","num_feature":"33","num_nodes":"13","size_leaf_vector":"1"}},{"base_weights":[1.3245037E-2,-8.450703E-2,9.876544E-3,-2.6562495E-2,-5.3749996E-1,2.115385E-3,-2.153846E-2,-7.5E-2,6.6666673E-3],"categories":[],"categories_nodes":[],"categories_segments":[],"categories_sizes":[],"default_left":[0,0,0,0,0,0,0,0,0],"id":36,"left_children":[1,3,-1,5,7,-1,-1,-1,-1],"loss_changes":[1.2706755E0,1.849364E0,0E0,5.811899E-1,1.0770831E0,0E0,0E0,0E0,0E0],"parents":[2147483647,0,0,1,1,3,3,4,4],"right_children":[2,4,-1,6,8,-1,-1,-1,-1],"split_conditions":[2.4519E10,5.667E9,7.246437E8,7.6615E10,2.35621E2,7.9884294E5,-5.1734812E7,-5.8129204E7,1.5236056E8],"split_indices":[0,5,0,23,28,0,0,0,0],"split_type":[0,0,0,0,0,0,0,0,0],"sum_hessian":[1.5E2,7E1,8E1,6.3E1,7E0,5.1E1,1.2E1,5E0,2E0],"tree_param":{"num_deleted":"0","num_feature":"33","num_nodes":"9","size_leaf_vector":"1"}},{"base_weights":[-1.3999996E-2,-1.5147059E-1,9.879518E-3,3.4375004E-2,-3.081081E-1,-4.4999998E-2,6.4516137E-3,-5.565217E-2,9.333334E-3],"categories":[],"categories_nodes":[],"categories_segments":[],"categories_sizes":[],"default_left":[0,0,0,0,0,0,0,0,0],"id":37,"left_children":[1,3,-1,5,7,-1,-1,-1,-1],"loss_changes":[2.3408675E0,1.9900976E0,0E0,4.9621972E-1,3.7417126E0,0E0,0E0,0E0,0E0],"parents":[2147483647,0,0,1,1,3,3,4,4],"right_children":[2,4,-1,6,8,-1,-1,-1,-1],"split_conditions":[1.384E9,1.09125E9,1.7414549E8,3.872E9,2.937E9,-3.4480028E7,1.3363304E6,-5.3234732E7,7.282739E7],"split_indices":[15,16,0,0,10,0,0,0,0],"split_type":[0,0,0,0,0,0,0,0,0],"sum_hessian":[1.49E2,6.7E1,8.2E1,3.1E1,3.6E1,1E0,3E1,2.2E1,1.4E1],"tree_param":{"num_deleted":"0","num_feature":"33","num_nodes":"9","size_leaf_vector":"1"}},{"base_weights":[2.3417724E-2,-1.1346153E-1,8.971963E-2,1.621622E-2,-4.0625E-1,-2.6666665E-1,9.904763E-3,-4.4999998E-2,4.166667E-3,-7.1E-2,8.571429E-3,-4.4999998E-2,5.0000004E-3],"categories":[],"categories_nodes":[],"categories_segments":[],"categories_sizes":[],"default_left":[0,0,0,0,0,0,0,0,0,0,0,0,0],"id":38,"left_children":[1,3,5,7,9,11,-1,-1,-1,-1,-1,-1,-1],"loss_changes":[1.4440858E0,1.9809313E0,3.8212013E-1,4.5777023E-1,2.4518034E0,1.9666664E-1,0E0,0E0,0E0,0E0,0E0,0E0,0E0],"parents":[2147483647,0,0,1,1,2,2,3,3,4,4,5,5],"right_children":[2,4,6,8,10,12,-1,-1,-1,-1,-1,-1,-1],"split_conditions":[1.166E9,1.131E9,3.82442E8,3.872E9,5.987E9,2.0531E10,1.3477387E8,-3.1032014E7,1.7929422E6,-1.6349349E8,9.465651E7,-1.4548992E7,1.02994925E9],"split_indices":[14,16,7,0,6,0,0,0,0,0,0,0,0],"split_type":[0,0,0,0,0,0,0,0,0,0,0,0,0],"sum_hessian":[1.57E2,5.1E1,1.06E2,3.6E1,1.5E1,2E0,1.04E2,1E0,3.5E1,9E0,6E0,1E0,1E0],"tree_param":{"num_deleted":"0","num_feature":"33","num_nodes":"13","size_leaf_vector":"1"}},{"base_weights":[-8.633089E-3,-1.6034482E-1,9.87805E-3,9.52381E-3,-2.973684E-1,-4.2068966E-2,9.000001E-3],"categories":[],"categories_nodes":[],"categories_segments":[],"categories_sizes":[],"default_left":[0,0,0,0,0,0,0],"id":39,"left_children":[1,3,-1,-1,5,-1,-1],"loss_changes":[2.280969E0,2.0595326E0,0E0,0E0,1.8531506E0,0E0,0E0],"parents":[2147483647,0,0,1,1,4,4],"right_children":[2,4,-1,-1,6,-1,-1],"split_conditions":[2.422325E10,9.6E8,8.3241E8,2.9549825E6,1.425E9,-4.4737228E7,2.2343886E7],"split_indices":[4,14,0,0,15,0,0],"split_type":[0,0,0,0,0,0,0],"sum_hessian":[1.38E2,5.7E1,8.1E1,2E1,3.7E1,2.8E1,9E0],"tree_param":{"num_deleted":"0","num_feature":"33","num_nodes":"7","size_leaf_vector":"1"}},{"base_weights":[1.148649E-2,-1.0508474E-1,8.777778E-2,-2.708333E-2,-4.0833333E-1,-2.6666665E-1,9.886364E-3,8.888892E-4,-4.25E-2,-7.714286E-2,8.333334E-3,5.0000004E-3,-4.4999998E-2],"categories":[],"categories_nodes":[],"categories_segments":[],"categories_sizes":[],"default_left":[0,0,0,0,0,0,0,0,0,0,0,0,0],"id":40,"left_children":[1,3,5,7,9,11,-1,-1,-1,-1,-1,-1,-1],"loss_changes":[1.3254427E0,1.3845162E0,3.800025E-1,6.9084716E-1,2.206547E0,1.9666664E-1,0E0,0E0,0E0,0E0,0E0,0E0,0E0],"parents":[2147483647,0,0,1,1,2,2,3,3,4,4,5,5],"right_children":[2,4,6,8,10,12,-1,-1,-1,-1,-1,-1,-1],"split_conditions":[4.707E9,7.8425E10,9.83E8,9.833333E0,1.513E9,1.4398E10,1.1685E8,-1.1261431E5,-1.1463885E7,-1.4267045E8,7.4148456E7,9.5119256E7,-2.4649728E7],"split_indices":[6,24,14,29,14,0,0,0,0,0,0,0,0],"split_type":[0,0,0,0,0,0,0,0,0,0,0,0,0],"sum_hessian":[1.47E2,5.8E1,8.9E1,4.7E1,1.1E1,2E0,8.7E1,4.4E1,3E0,6E0,5E0,1E0,1E0],"tree_param":{"num_deleted":"0","num_feature":"33","num_nodes":"13","size_leaf_vector":"1"}},{"base_weights":[1.4379089E-2,-8.7142855E-2,9.880953E-3,1.8000003E-2,-3.333333E-1,-6E-2,5.625E-3,-6.0999997E-2,-7.5E-3],"categories":[],"categories_nodes":[],"categories_segments":[],"categories_sizes":[],"default_left":[0,0,0,0,0,0,0,0,0],"id":41,"left_children":[1,3,-1,5,7,-1,-1,-1,-1],"loss_changes":[1.3200564E0,1.8179619E0,0E0,1.2156749E0,1.4551666E0,0E0,0E0,0E0,0E0],"parents":[2147483647,0,0,1,1,3,3,4,4],"right_children":[2,4,-1,6,8,-1,-1,-1,-1],"split_conditions":[2.422325E10,3.2074E10,7.5989523E8,4.2314E9,5.018E9,-2.8213044E7,4.4605855E6,-1.2840346E8,-7.9426355E6],"split_indices":[4,22,0,0,6,0,0,0,0],"split_type":[0,0,0,0,0,0,0,0,0],"sum_hessian":[1.52E2,6.9E1,8.3E1,4.9E1,2E1,2E0,4.7E1,9E0,1.1E1],"tree_param":{"num_deleted":"0","num_feature":"33","num_nodes":"9","size_leaf_vector":"1"}},{"base_weights":[4.013158E-2,-3.3823524E-2,9.882353E-3,6.15385E-3,-6.7499995E-2,-4.4999998E-2,2.0312504E-3],"categories":[],"categories_nodes":[],"categories_segments":[],"categories_sizes":[],"default_left":[0,0,0,0,0,0,0],"id":42,"left_children":[1,3,-1,5,-1,-1,-1],"loss_changes":[6.631091E-1,1.7471673E0,0E0,4.2894468E-1,0E0,0E0,0E0],"parents":[2147483647,0,0,1,1,3,3],"right_children":[2,4,-1,6,-1,-1,-1],"split_conditions":[2.3796E10,6.377E9,5.1803158E8,3.872E9,-2.1390542E7,-2.5391718E7,2.6123265E6],"split_indices":[1,7,0,0,0,0,0],"split_type":[0,0,0,0,0,0,0],"sum_hessian":[1.51E2,6.7E1,8.4E1,6.4E1,3E0,1E0,6.3E1],"tree_param":{"num_deleted":"0","num_feature":"33","num_nodes":"7","size_leaf_vector":"1"}},{"base_weights":[2.44898E-2,-8.1967205E-2,9.885058E-3,2.380956E-3,-2.55E-1,-4.4999998E-2,2.4390246E-3,9.000001E-3,-5.454545E-2],"categories":[],"categories_nodes":[],"categories_segments":[],"categories_sizes":[],"default_left":[0,0,0,0,0,0,0,0,0],"id":43,"left_children":[1,3,-1,5,7,-1,-1,-1,-1],"loss_changes":[1.1717876E0,8.90902E-1,0E0,4.2915213E-1,2.0532272E0,0E0,0E0,0E0,0E0],"parents":[2147483647,0,0,1,1,3,3,4,4],"right_children":[2,4,-1,6,8,-1,-1,-1,-1],"split_conditions":[1.26875E9,1.14525E9,8.634038E7,3.872E9,4.9E0,-2.2852558E7,1.94112E6,2.6527602E8,-1.0932855E8],"split_indices":[16,16,0,0,29,0,0,0,0],"split_type":[0,0,0,0,0,0,0,0,0],"sum_hessian":[1.46E2,6E1,8.6E1,4.1E1,1.9E1,1E0,4E1,9E0,1E1],"tree_param":{"num_deleted":"0","num_feature":"33","num_nodes":"9","size_leaf_vector":"1"}},{"base_weights":[2.8368797E-2,-5.7812493E-2,9.871795E-3,6.857143E-2,-2.0333332E-1,-4.4999998E-2,9.7058825E-3,-3.55E-2,9.09091E-3],"categories":[],"categories_nodes":[],"categories_segments":[],"categories_sizes":[],"default_left":[0,0,0,0,0,0,0,0,0],"id":44,"left_children":[1,3,-1,5,7,-1,-1,-1,-1],"loss_changes":[8.605592E-1,1.1909984E0,0E0,5.607227E-1,1.3710755E0,0E0,0E0,0E0,0E0],"parents":[2147483647,0,0,1,1,3,3,4,4],"right_children":[2,4,-1,6,8,-1,-1,-1,-1],"split_conditions":[2.3796E10,4.8851E10,5.4648576E8,3.872E9,2.3747833E2,-2.0567296E7,2.156974E6,-7.4064696E7,1.1058463E7],"split_indices":[2,25,0,0,28,0,0,0,0],"split_type":[0,0,0,0,0,0,0,0,0],"sum_hessian":[1.4E2,6.3E1,7.7E1,3.4E1,2.9E1,1E0,3.3E1,1.9E1,1E1],"tree_param":{"num_deleted":"0","num_feature":"33","num_nodes":"9","size_leaf_vector":"1"}},{"base_weights":[5.673759E-2,-1.2962959E-2,9.886364E-3,3.6734696E-2,-4.1666666E-1,-3.4782605E-3,9.62963E-3,6.6666673E-3,-6.7499995E-2],"categories":[],"categories_nodes":[],"categories_segments":[],"categories_sizes":[],"default_left":[0,0,0,0,0,0,0,0,0],"id":45,"left_children":[1,3,-1,5,7,-1,-1,-1,-1],"loss_changes":[4.1528702E-1,1.098715E0,0E0,2.12074E-1,7.9416656E-1,0E0,0E0,0E0,0E0],"parents":[2147483647,0,0,1,1,3,3,4,4],"right_children":[2,4,-1,6,8,-1,-1,-1,-1],"split_conditions":[4.985E9,5.4908E10,2.3641902E8,2.886E9,3.931E9,-5.285386E6,6.030162E6,5.4593535E6,-9.748521E7],"split_indices":[6,20,0,5,7,0,0,0,0],"split_type":[0,0,0,0,0,0,0,0,0],"sum_hessian":[1.4E2,5.3E1,8.7E1,4.8E1,5E0,2.2E1,2.6E1,2E0,3E0],"tree_param":{"num_deleted":"0","num_feature":"33","num_nodes":"9","size_leaf_vector":"1"}},{"base_weights":[4.1666668E-2,-2.9999996E-2,9.885058E-3,4.8333336E-2,-4.5454544E-1,-4.4999998E-2,6.440678E-3,7.5000003E-3,-6.625E-2],"categories":[],"categories_nodes":[],"categories_segments":[],"categories_sizes":[],"default_left":[0,0,0,0,0,0,0,0,0],"id":46,"left_children":[1,3,-1,5,7,-1,-1,-1,-1],"loss_changes":[6.4228153E-1,2.3498938E0,0E0,5.0957906E-1,1.2610228E0,0E0,0E0,0E0,0E0],"parents":[2147483647,0,0,1,1,3,3,4,4],"right_children":[2,4,-1,6,8,-1,-1,-1,-1],"split_conditions":[2.3796E10,5.232E9,5.7251014E8,3.872E9,1.7372E10,-1.7982054E7,2.5633025E6,1.0231665E8,-8.773673E7],"split_indices":[2,7,0,0,0,0,0,0,0],"split_type":[0,0,0,0,0,0,0,0,0],"sum_hessian":[1.55E2,6.9E1,8.6E1,5.9E1,1E1,1E0,5.8E1,3E0,7E0],"tree_param":{"num_deleted":"0","num_feature":"33","num_nodes":"9","size_leaf_vector":"1"}},{"base_weights":[6.6225203E-3,-8.799999E-2,9.87013E-3,-7.01754E-3,-3.263158E-1,4.25926E-3,-6.7499995E-2,-6.363636E-2,8.888889E-3],"categories":[],"categories_nodes":[],"categories_segments":[],"categories_sizes":[],"default_left":[0,0,0,0,0,0,0,0,0],"id":47,"left_children":[1,3,-1,5,7,-1,-1,-1,-1],"loss_changes":[1.3243072E0,1.4451648E0,0E0,1.9176558E0,2.5024984E0,0E0,0E0,0E0,0E0],"parents":[2147483647,0,0,1,1,3,3,4,4],"right_children":[2,4,-1,6,8,-1,-1,-1,-1],"split_conditions":[1.425E9,5.232E9,9.3782264E7,8.7424E10,6.267E9,1.762427E6,-6.6386124E7,-7.264483E7,7.0856296E7],"split_indices":[15,7,0,23,6,0,0,0,0],"split_type":[0,0,0,0,0,0,0,0,0],"sum_hessian":[1.5E2,7.4E1,7.6E1,5.6E1,1.8E1,5.3E1,3E0,1E1,8E0],"tree_param":{"num_deleted":"0","num_feature":"33","num_nodes":"9","size_leaf_vector":"1"}},{"base_weights":[3.175676E-2,-6.0317457E-2,9.883721E-3,1.6326534E-2,-3.0666664E-1,-4.4999998E-2,3.541667E-3,-5.7777774E-2,8.571429E-3],"categories":[],"categories_nodes":[],"categories_segments":[],"categories_sizes":[],"default_left":[0,0,0,0,0,0,0,0,0],"id":48,"left_children":[1,3,-1,5,7,-1,-1,-1,-1],"loss_changes":[9.200658E-1,1.1945215E0,0E0,4.521471E-1,1.6452063E0,0E0,0E0,0E0,0E0],"parents":[2147483647,0,0,1,1,3,3,4,4],"right_children":[2,4,-1,6,8,-1,-1,-1,-1],"split_conditions":[1.202E9,5.66E9,6.6102108E7,3.872E9,2.3382E10,-1.636009E7,1.3375694E6,-7.169864E7,1.0522624E6],"split_indices":[14,7,0,0,1,0,0,0,0],"split_type":[0,0,0,0,0,0,0,0,0],"sum_hessian":[1.47E2,6.2E1,8.5E1,4.8E1,1.4E1,1E0,4.7E1,8E0,6E0],"tree_param":{"num_deleted":"0","num_feature":"33","num_nodes":"9","size_leaf_vector":"1"}},{"base_weights":[2.4375003E-2,-1.4666666E-1,9.0517245E-2,-3.7837833E-2,-5.7777774E-1,-2.6666665E-1,9.912281E-3,5.2173915E-3,-1.7333334E-2,-6.625E-2,5.0000004E-3,5.0000004E-3,-4.4999998E-2],"categories":[],"categories_nodes":[],"categories_segments":[],"categories_sizes":[],"default_left":[0,0,0,0,0,0,0,0,0,0,0,0,0],"id":49,"left_children":[1,3,5,7,9,11,-1,-1,-1,-1,-1,-1,-1],"loss_changes":[1.8233685E0,2.0894175E0,3.8299E-1,4.6030235E-1,5.1180553E-1,1.9666664E-1,0E0,0E0,0E0,0E0,0E0,0E0,0E0],"parents":[2147483647,0,0,1,1,2,2,3,3,4,4,5,5],"right_children":[2,4,6,8,10,12,-1,-1,-1,-1,-1,-1,-1],"split_conditions":[4.0645E9,8.51E10,2.6633E10,1.9878E10,2.2451E10,2.0379E10,5.9602452E7,1.6319232E6,-4.9447935E6,-6.635766E7,7.07072E6,5.1439472E8,-1.9574784E6],"split_indices":[8,23,22,20,0,0,0,0,0,0,0,0,0],"split_type":[0,0,0,0,0,0,0,0,0,0,0,0,0],"sum_hessian":[1.59E2,4.4E1,1.15E2,3.6E1,8E0,2E0,1.13E2,2.2E1,1.4E1,7E0,1E0,1E0,1E0],"tree_param":{"num_deleted":"0","num_feature":"33","num_nodes":"13","size_leaf_vector":"1"}},{"base_weights":[2.0915035E-2,-7.536231E-2,9.882353E-3,-1.0909087E-2,-3.0666664E-1,-2.153846E-2,5.1162797E-3,8E-3,-4.5454543E-2],"categories":[],"categories_nodes":[],"categories_segments":[],"categories_sizes":[],"default_left":[0,0,0,0,0,0,0,0,0],"id":50,"left_children":[1,3,-1,5,7,-1,-1,-1,-1],"loss_changes":[1.1550736E0,1.0253279E0,0E0,7.0908964E-1,8.940605E-1,0E0,0E0,0E0,0E0],"parents":[2147483647,0,0,1,1,3,3,4,4],"right_children":[2,4,-1,6,8,-1,-1,-1,-1],"split_conditions":[2.4538E10,4.926E9,5.637545E8,1.4564117E4,2.371E9,-1.1311815E7,2.7887002E6,3.648512E6,-1.0715567E7],"split_indices":[0,5,0,26,13,0,0,0,0],"split_type":[0,0,0,0,0,0,0,0,0],"sum_hessian":[1.52E2,6.8E1,8.4E1,5.4E1,1.4E1,1.2E1,4.2E1,4E0,1E1],"tree_param":{"num_deleted":"0","num_feature":"33","num_nodes":"9","size_leaf_vector":"1"}},{"base_weights":[-2.0125782E-2,-1.6527776E-1,9.886364E-3,2.4390247E-2,-4.03125E-1,9.6E-3,-8.235293E-3,-4.551724E-2,7.5000003E-3],"categories":[],"categories_nodes":[],"categories_segments":[],"categories_sizes":[],"default_left":[0,0,0,0,0,0,0,0,0],"id":51,"left_children":[1,3,-1,5,7,-1,-1,-1,-1],"loss_changes":[2.7625165E0,3.257897E0,0E0,3.2130387E-1,8.304634E-1,0E0,0E0,0E0,0E0],"parents":[2147483647,0,0,1,1,3,3,4,4],"right_children":[2,4,-1,6,8,-1,-1,-1,-1],"split_conditions":[2.3796E10,1.6367E10,4.7815946E8,9.6E8,6.267E9,2.6539778E6,-3.0140722E6,-5.832356E7,7.854039E7],"split_indices":[2,1,0,14,6,0,0,0,0],"split_type":[0,0,0,0,0,0,0,0,0],"sum_hessian":[1.58E2,7.1E1,8.7E1,4E1,3.1E1,2.4E1,1.6E1,2.8E1,3E0],"tree_param":{"num_deleted":"0","num_feature":"33","num_nodes":"9","size_leaf_vector":"1"}},{"base_weights":[3.809524E-2,-3.582089E-2,9.876544E-3,4.3636367E-2,-3.6923075E-1,7.6086964E-3,-1.0999999E-2,-6.625E-2,8.333334E-3],"categories":[],"categories_nodes":[],"categories_segments":[],"categories_sizes":[],"default_left":[0,0,0,0,0,0,0,0,0],"id":52,"left_children":[1,3,-1,5,7,-1,-1,-1,-1],"loss_changes":[6.6276026E-1,1.7910647E0,0E0,2.825771E-1,1.7806089E0,0E0,0E0,0E0,0E0],"parents":[2147483647,0,0,1,1,3,3,4,4],"right_children":[2,4,-1,6,8,-1,-1,-1,-1],"split_conditions":[5.5185E9,2.1456E10,3.1941232E8,9.633333E0,2.3796E10,2.458921E6,-1.3428736E6,-5.2304896E7,5.400576E5],"split_indices":[8,1,0,29,3,0,0,0,0],"split_type":[0,0,0,0,0,0,0,0,0],"sum_hessian":[1.46E2,6.6E1,8E1,5.4E1,1.2E1,4.5E1,9E0,7E0,5E0],"tree_param":{"num_deleted":"0","num_feature":"33","num_nodes":"9","size_leaf_vector":"1"}},{"base_weights":[1.879195E-2,-8.615384E-2,9.882353E-3,1.9230805E-3,-4.0714285E-1,-2.1E-2,5.1162797E-3,-2.1E-2,-7.2E-2],"categories":[],"categories_nodes":[],"categories_segments":[],"categories_sizes":[],"default_left":[0,0,0,0,0,0,0,0,0],"id":53,"left_children":[1,3,-1,5,7,-1,-1,-1,-1],"loss_changes":[1.2599617E0,1.8384452E0,0E0,5.533658E-1,7.122855E-1,0E0,0E0,0E0,0E0],"parents":[2147483647,0,0,1,1,3,3,4,4],"right_children":[2,4,-1,6,8,-1,-1,-1,-1],"split_conditions":[6.558E9,4.8024E10,5.2033782E8,3.41E8,2.4519E10,-1.4267443E7,1.8578022E6,-4.591268E7,-1.15801704E8],"split_indices":[5,20,0,9,0,0,0,0,0],"split_type":[0,0,0,0,0,0,0,0,0],"sum_hessian":[1.48E2,6.4E1,8.4E1,5.1E1,1.3E1,9E0,4.2E1,9E0,4E0],"tree_param":{"num_deleted":"0","num_feature":"33","num_nodes":"9","size_leaf_vector":"1"}},{"base_weights":[3.3552635E-2,-4.428571E-2,9.879518E-3,7.575761E-3,-7.2E-2,4.8333337E-3,-3.4285713E-2],"categories":[],"categories_nodes":[],"categories_segments":[],"categories_sizes":[],"default_left":[0,0,0,0,0,0,0],"id":54,"left_children":[1,3,-1,5,-1,-1,-1],"loss_changes":[7.7628773E-1,2.458502E0,0E0,9.592359E-1,0E0,0E0,0E0],"parents":[2147483647,0,0,1,1,3,3],"right_children":[2,4,-1,6,-1,-1,-1],"split_conditions":[2.3212E10,5.667E9,1.8816619E8,2.0403E10,-5.0273384E7,1.1747329E6,-1.04221496E8],"split_indices":[1,5,0,3,0,0,0],"split_type":[0,0,0,0,0,0,0],"sum_hessian":[1.51E2,6.9E1,8.2E1,6.5E1,4E0,5.9E1,6E0],"tree_param":{"num_deleted":"0","num_feature":"33","num_nodes":"7","size_leaf_vector":"1"}},{"base_weights":[-2.0270234E-3,-1.3499999E-1,8.764045E-2,4.3243244E-2,-4.0416667E-1,-3.7499994E-2,9.87805E-3,-4.4999998E-2,6.944445E-3,-7.5E-3,-6.76923E-2,8.571429E-3,-4.4999998E-2],"categories":[1,2],"categories_nodes":[4],"categories_segments":[0],"categories_sizes":[2],"default_left":[0,0,0,0,1,0,0,0,0,0,0,0,0],"id":55,"left_children":[1,3,5,7,9,11,-1,-1,-1,-1,-1,-1,-1],"loss_changes":[1.7764874E0,2.896106E0,1.2777644E-1,5.094219E-1,2.104006E0,4.4517857E-1,0E0,0E0,0E0,0E0,0E0,0E0,0E0],"parents":[2147483647,0,0,1,1,2,2,3,3,4,4,5,5],"right_children":[2,4,6,8,10,12,-1,-1,-1,-1,-1,-1,-1],"split_conditions":[1.26875E9,1.6367E10,2.5859E10,3.872E9,1E-45,2.0379E10,2.0759336E8,-1.2958157E7,8.6697994E5,-1.6612352E7,-7.9233416E7,3.0976E6,-6.607667E7],"split_indices":[16,1,21,0,32,1,0,0,0,0,0,0,0],"split_type":[0,0,0,0,1,0,0,0,0,0,0,0,0],"sum_hessian":[1.47E2,5.9E1,8.8E1,3.6E1,2.3E1,7E0,8.1E1,1E0,3.5E1,1.1E1,1.2E1,6E0,1E0],"tree_param":{"num_deleted":"0","num_feature":"33","num_nodes":"13","size_leaf_vector":"1"}},{"base_weights":[-3.2116786E-2,-1.479452E-1,9.846154E-3,5E-2,-4.03125E-1,-4.4999998E-2,7.3170736E-3,-2.8846154E-2,-7.714286E-2],"categories":[],"categories_nodes":[],"categories_segments":[],"categories_sizes":[],"default_left":[0,0,0,0,0,0,0,0,0],"id":56,"left_children":[1,3,-1,5,7,-1,-1,-1,-1],"loss_changes":[2.0866482E0,3.707504E0,0E0,5.195122E-1,1.1288629E0,0E0,0E0,0E0,0E0],"parents":[2147483647,0,0,1,1,3,3,4,4],"right_children":[2,4,-1,6,8,-1,-1,-1,-1],"split_conditions":[2.7772E10,1.6428E10,5.298012E8,3.872E9,2.4519E10,-1.1662336E7,1.1523124E6,-3.3056852E7,-8.587612E7],"split_indices":[0,1,0,0,0,0,0,0,0],"split_type":[0,0,0,0,0,0,0,0,0],"sum_hessian":[1.36E2,7.2E1,6.4E1,4.1E1,3.1E1,1E0,4E1,2.5E1,6E0],"tree_param":{"num_deleted":"0","num_feature":"33","num_nodes":"9","size_leaf_vector":"1"}},{"base_weights":[-2.1084333E-2,-1.4216867E-1,9.880953E-3,3.9215688E-2,-4.181818E-1,5.8000004E-3,-4.4999998E-2,-5.8947366E-2,-1.7333334E-2],"categories":[],"categories_nodes":[],"categories_segments":[],"categories_sizes":[],"default_left":[0,0,0,0,0,0,0,0,0],"id":57,"left_children":[1,3,-1,5,7,-1,-1,-1,-1],"loss_changes":[2.4239142E0,4.17175E0,0E0,4.9476862E-1,1.2818627E0,0E0,0E0,0E0,0E0],"parents":[2147483647,0,0,1,1,3,3,4,4],"right_children":[2,4,-1,6,8,-1,-1,-1,-1],"split_conditions":[3.0085E10,1.6428E10,4.6191862E8,2.3688834E2,1.273E9,1.9892736E6,-7.217152E7,-4.1407836E7,-3.3526682E7],"split_indices":[0,3,0,28,14,0,0,0,0],"split_type":[0,0,0,0,0,0,0,0,0],"sum_hessian":[1.65E2,8.2E1,8.3E1,5E1,3.2E1,4.9E1,1E0,1.8E1,1.4E1],"tree_param":{"num_deleted":"0","num_feature":"33","num_nodes":"9","size_leaf_vector":"1"}},{"base_weights":[-8.633089E-3,-1.22058816E-1,9.861111E-3,7.1794875E-2,-3.6999997E-1,9.687501E-3,-3.7499995E-3,-7.5E-2,-2.64E-2],"categories":[],"categories_nodes":[],"categories_segments":[],"categories_sizes":[],"default_left":[0,0,0,0,0,0,0,0,0],"id":58,"left_children":[1,3,-1,5,7,-1,-1,-1,-1],"loss_changes":[1.7028674E0,3.2949371E0,0E0,1.1053686E-1,1.0103998E0,0E0,0E0,0E0,0E0],"parents":[2147483647,0,0,1,1,3,3,4,4],"right_children":[2,4,-1,6,8,-1,-1,-1,-1],"split_conditions":[3.055275E10,1.6858E10,4.890366E8,5.6727E10,1.8675E10,3.2422912E6,-6.858957E6,-6.495437E7,-4.3238092E7],"split_indices":[4,0,0,23,0,0,0,0,0],"split_type":[0,0,0,0,0,0,0,0,0],"sum_hessian":[1.38E2,6.7E1,7.1E1,3.8E1,2.9E1,3.1E1,7E0,5E0,2.4E1],"tree_param":{"num_deleted":"0","num_feature":"33","num_nodes":"9","size_leaf_vector":"1"}},{"base_weights":[3.702152E-9,-1.517857E-1,8.0188684E-2,-4.7916662E-2,-6.8888885E-1,-1.0999999E-1,9.896907E-3,3.6344297E-10,-2.875E-2,5.0000004E-3,-7.875E-2,8.571429E-3,-4.25E-2],"categories":[],"categories_nodes":[],"categories_segments":[],"categories_sizes":[],"default_left":[0,0,0,0,0,0,0,0,0,0,0,0,0],"id":59,"left_children":[1,3,5,7,9,11,-1,-1,-1,-1,-1,-1,-1],"loss_changes":[1.9717822E0,3.0911412E0,3.894993E-1,5.510416E-1,6.9513893E-1,6.5292853E-1,0E0,0E0,0E0,0E0,0E0,0E0,0E0],"parents":[2147483647,0,0,1,1,2,2,3,3,4,4,5,5],"right_children":[2,4,6,8,10,12,-1,-1,-1,-1,-1,-1,-1],"split_conditions":[1.179E9,1.132E9,3.64225E9,4.70475E9,1.6039E10,1.7258E10,4.6281076E7,1.7402979E4,-6.8823864E7,2.406912E7,-3.4623692E7,6.7108865E6,-5.8458932E7],"split_indices":[14,14,8,8,1,0,0,0,0,0,0,0,0],"split_type":[0,0,0,0,0,0,0,0,0,0,0,0,0],"sum_hessian":[1.6E2,5.5E1,1.05E2,4.7E1,8E0,9E0,9.6E1,4E1,7E0,1E0,7E0,6E0,3E0],"tree_param":{"num_deleted":"0","num_feature":"33","num_nodes":"13","size_leaf_vector":"1"}},{"base_weights":[1.1320759E-2,-6.785714E-2,9.868422E-3,-6.5789437E-3,-5.7777774E-1,6.612904E-3,-3.0666664E-2,-6.625E-2,5.0000004E-3],"categories":[],"categories_nodes":[],"categories_segments":[],"categories_sizes":[],"default_left":[0,0,0,0,0,0,0,0,0],"id":60,"left_children":[1,3,-1,5,7,-1,-1,-1,-1],"loss_changes":[1.1065398E0,2.620948E0,0E0,1.6785061E0,5.1180553E-1,0E0,0E0,0E0,0E0],"parents":[2147483647,0,0,1,1,3,3,4,4],"right_children":[2,4,-1,6,8,-1,-1,-1,-1],"split_conditions":[3.0085E10,6.377E9,4.112736E8,8.7711E10,3.055275E10,1.7060762E6,-5.727734E7,-3.1161344E7,6.942894E8],"split_indices":[0,5,0,24,4,0,0,0,0],"split_type":[0,0,0,0,0,0,0,0,0],"sum_hessian":[1.58E2,8.3E1,7.5E1,7.5E1,8E0,6.1E1,1.4E1,7E0,1E0],"tree_param":{"num_deleted":"0","num_feature":"33","num_nodes":"9","size_leaf_vector":"1"}},{"base_weights":[2.039474E-2,-6.575342E-2,9.875E-3,3.66422E-9,-3.6923075E-1,-4.4999998E-2,1.5000004E-3,-5.7777774E-2,8E-3],"categories":[],"categories_nodes":[],"categories_segments":[],"categories_sizes":[],"default_left":[0,0,0,0,0,0,0,0,0],"id":61,"left_children":[1,3,-1,5,7,-1,-1,-1,-1],"loss_changes":[1.0325177E0,1.4566913E0,0E0,4.1849998E-1,1.2641368E0,0E0,0E0,0E0,0E0],"parents":[2147483647,0,0,1,1,3,3,4,4],"right_children":[2,4,-1,6,8,-1,-1,-1,-1],"split_conditions":[5.60675E9,4.965E9,1.8731746E8,3.872E9,2.903E9,-1.1191603E7,1.5984648E5,-4.210545E7,1.3686784E6],"split_indices":[8,5,0,0,13,0,0,0,0],"split_type":[0,0,0,0,0,0,0,0,0],"sum_hessian":[1.51E2,7.2E1,7.9E1,6E1,1.2E1,1E0,5.9E1,8E0,4E0],"tree_param":{"num_deleted":"0","num_feature":"33","num_nodes":"9","size_leaf_vector":"1"}},{"base_weights":[-5.5944016E-3,-1.2537313E-1,9.87013E-3,-3.4999996E-2,-7.875E-2,-5.17241E-4,-6E-2],"categories":[],"categories_nodes":[],"categories_segments":[],"categories_sizes":[],"default_left":[0,0,0,0,0,0,0],"id":62,"left_children":[1,3,-1,5,-1,-1,-1],"loss_changes":[1.7987887E0,3.9816158E0,0E0,1.0080516E0,0E0,0E0,0E0],"parents":[2147483647,0,0,1,1,3,3],"right_children":[2,4,-1,6,-1,-1,-1],"split_conditions":[3.0085E10,5.874E9,4.0262723E8,5.874E9,-4.677714E7,-8.343961E5,-1.3747405E7],"split_indices":[0,5,0,7,0,0,0],"split_type":[0,0,0,0,0,0,0],"sum_hessian":[1.42E2,6.6E1,7.6E1,5.9E1,7E0,5.7E1,2E0],"tree_param":{"num_deleted":"0","num_feature":"33","num_nodes":"7","size_leaf_vector":"1"}},{"base_weights":[-1.3380278E-2,-1.11842096E-1,9.850747E-3,-3.582089E-2,-6.0999995E-1,2.115385E-3,-2.1875E-2,-7.714286E-2,-1.75E-2],"categories":[],"categories_nodes":[],"categories_segments":[],"categories_sizes":[],"default_left":[0,0,0,0,0,0,0,0,0],"id":63,"left_children":[1,3,-1,5,7,-1,-1,-1,-1],"loss_changes":[1.5753845E0,2.8563123E0,0E0,7.02924E-1,5.672138E-1,0E0,0E0,0E0,0E0],"parents":[2147483647,0,0,1,1,3,3,4,4],"right_children":[2,4,-1,6,8,-1,-1,-1,-1],"split_conditions":[3.1146E10,5.738E9,5.736911E8,7.8944E10,1.183E9,1.2496896E6,-5.054947E7,-4.2099508E7,-9.899213E6],"split_indices":[0,5,0,23,14,0,0,0,0],"split_type":[0,0,0,0,0,0,0,0,0],"sum_hessian":[1.41E2,7.5E1,6.6E1,6.6E1,9E0,5.1E1,1.5E1,6E0,3E0],"tree_param":{"num_deleted":"0","num_feature":"33","num_nodes":"9","size_leaf_vector":"1"}},{"base_weights":[8.391612E-3,-7.4666664E-2,9.855073E-3,-7.5757536E-3,-5.1E-1,-4.4999998E-2,6.15385E-4,-7.5E-2,-1.2E-2],"categories":[],"categories_nodes":[],"categories_segments":[],"categories_sizes":[],"default_left":[0,0,0,0,0,0,0,0,0],"id":64,"left_children":[1,3,-1,5,7,-1,-1,-1,-1],"loss_changes":[1.0782083E0,2.1866543E0,0E0,4.0367365E-1,8.4599996E-1,0E0,0E0,0E0,0E0],"parents":[2147483647,0,0,1,1,3,3,4,4],"right_children":[2,4,-1,6,8,-1,-1,-1,-1],"split_conditions":[3.1146E10,5.66025E9,3.1522944E8,3.872E9,1.183E9,-1.0113946E7,7.681982E1,-3.788964E7,-8.90921E6],"split_indices":[0,8,0,0,14,0,0,0,0],"split_type":[0,0,0,0,0,0,0,0,0],"sum_hessian":[1.42E2,7.4E1,6.8E1,6.5E1,9E0,1E0,6.4E1,5E0,4E0],"tree_param":{"num_deleted":"0","num_feature":"33","num_nodes":"9","size_leaf_vector":"1"}},{"base_weights":[-1.9867545E-2,-1.2345678E-1,9.859155E-3,-6.351351E-2,-6.6249996E-1,-1.8333329E-3,-2.4E-2,5.0000004E-3,-7.714286E-2],"categories":[],"categories_nodes":[],"categories_segments":[],"categories_sizes":[],"default_left":[0,0,0,0,0,0,0,0,0],"id":65,"left_children":[1,3,-1,5,7,-1,-1,-1,-1],"loss_changes":[1.865106E0,2.5751953E0,0E0,5.856531E-1,6.594641E-1,0E0,0E0,0E0,0E0],"parents":[2147483647,0,0,1,1,3,3,4,4],"right_children":[2,4,-1,6,8,-1,-1,-1,-1],"split_conditions":[3.196025E10,6.634E9,4.760535E8,8.7711E10,-3.195E9,-7.1393275E5,-4.6427444E7,8.4542264E7,-3.4100636E7],"split_indices":[4,5,0,23,6,0,0,0,0],"split_type":[0,0,0,0,0,0,0,0,0],"sum_hessian":[1.5E2,8E1,7E1,7.3E1,7E0,5.9E1,1.4E1,1E0,6E0],"tree_param":{"num_deleted":"0","num_feature":"33","num_nodes":"9","size_leaf_vector":"1"}},{"base_weights":[3.7006196E-9,-7.97619E-2,9.852941E-3,2.7397296E-3,-5.75E-1,-4.4999998E-2,1.5277782E-3,7.5000003E-3,-8E-2],"categories":[0,1,2],"categories_nodes":[4],"categories_segments":[0],"categories_sizes":[3],"default_left":[0,0,0,0,1,0,0,0,0],"id":66,"left_children":[1,3,-1,5,7,-1,-1,-1,-1],"loss_changes":[1.1945518E0,3.4336429E0,0E0,4.212576E-1,1.815E0,0E0,0E0,0E0,0E0],"parents":[2147483647,0,0,1,1,3,3,4,4],"right_children":[2,4,-1,6,8,-1,-1,-1,-1],"split_conditions":[3.3055E10,5.7055E9,4.049885E8,3.872E9,1E-45,-9.031168E6,3.7492747E5,2.999378E7,-3.069051E7],"split_indices":[1,8,0,0,32,0,0,0,0],"split_type":[0,0,0,0,1,0,0,0,0],"sum_hessian":[1.5E2,8.3E1,6.7E1,7.2E1,1.1E1,1E0,7.1E1,3E0,8E0],"tree_param":{"num_deleted":"0","num_feature":"33","num_nodes":"9","size_leaf_vector":"1"}},{"base_weights":[-1.1764701E-2,-9.655172E-2,9.850747E-3,-2.0895518E-2,-3.333333E-1,1.3559326E-3,-2.4444444E-2,8.333334E-3,-4.6875E-2],"categories":[0,1,2],"categories_nodes":[4],"categories_segments":[0],"categories_sizes":[3],"default_left":[0,0,0,0,1,0,0,0,0],"id":67,"left_children":[1,3,-1,5,7,-1,-1,-1,-1],"loss_changes":[1.4400072E0,1.5515525E0,0E0,5.1937145E-1,1.2239583E0,0E0,0E0,0E0,0E0],"parents":[2147483647,0,0,1,1,3,3,4,4],"right_children":[2,4,-1,6,8,-1,-1,-1,-1],"split_conditions":[3.6339E10,5.66025E9,9.4318746E8,9.633333E0,1E-45,5.4615113E4,-1.1490919E7,2.6994484E7,-2.6964336E7],"split_indices":[1,8,0,29,32,0,0,0,0],"split_type":[0,0,0,0,1,0,0,0,0],"sum_hessian":[1.52E2,8.6E1,6.6E1,6.6E1,2E1,5.8E1,8E0,5E0,1.5E1],"tree_param":{"num_deleted":"0","num_feature":"33","num_nodes":"9","size_leaf_vector":"1"}},{"base_weights":[-8.917194E-3,-8.387096E-2,9.846154E-3,1.1594206E-2,-3.4399998E-1,3.8805974E-3,-6E-2,8.333334E-3,-4.55E-2],"categories":[0,1,2],"categories_nodes":[4],"categories_segments":[0],"categories_sizes":[3],"default_left":[0,0,0,0,1,0,0,0,0],"id":68,"left_children":[1,3,-1,5,7,-1,-1,-1,-1],"loss_changes":[1.2718632E0,2.3134818E0,0E0,1.1716201E0,1.2237668E0,0E0,0E0,0E0,0E0],"parents":[2147483647,0,0,1,1,3,3,4,4],"right_children":[2,4,-1,6,8,-1,-1,-1,-1],"split_conditions":[3.5323E10,2.36955E10,9.331747E8,6.634E9,1E-45,8.484455E5,-1.885143E7,7.604511E7,-4.6491852E7],"split_indices":[2,4,0,5,32,0,0,0,0],"split_type":[0,0,0,0,1,0,0,0,0],"sum_hessian":[1.56E2,9.2E1,6.4E1,6.8E1,2.4E1,6.6E1,2E0,5E0,1.9E1],"tree_param":{"num_deleted":"0","num_feature":"33","num_nodes":"9","size_leaf_vector":"1"}},{"base_weights":[4.452055E-2,-3.396226E-2,8.8297874E-2,1.6326534E-2,-5.2E-1,-8.333333E-2,9.887641E-3,-4.4999998E-2,3.541667E-3,5.0000004E-3,-6.7499995E-2,8E-3,-4.4999998E-2],"categories":[],"categories_nodes":[],"categories_segments":[],"categories_sizes":[],"default_left":[0,0,0,0,0,0,0,0,0,0,0,0,0],"id":69,"left_children":[1,3,5,7,9,11,-1,-1,-1,-1,-1,-1,-1],"loss_changes":[5.046208E-1,1.3039292E0,1.7890674E-1,4.521471E-1,4.7549987E-1,3.9533332E-1,0E0,0E0,0E0,0E0,0E0,0E0,0E0],"parents":[2147483647,0,0,1,1,2,2,3,3,4,4,5,5],"right_children":[2,4,6,8,10,12,-1,-1,-1,-1,-1,-1,-1],"split_conditions":[4.6275E10,3.7813E10,4.612E9,3.872E9,1.6523E10,4.518E9,8.528774E6,-8.218368E6,5.889742E5,2.4210228E7,-4.404224E7,9.340314E6,-4.184269E7],"split_indices":[21,21,5,0,1,5,0,0,0,0,0,0,0],"split_type":[0,0,0,0,0,0,0,0,0,0,0,0,0],"sum_hessian":[1.45E2,5.2E1,9.3E1,4.8E1,4E0,5E0,8.8E1,1E0,4.7E1,1E0,3E0,4E0,1E0],"tree_param":{"num_deleted":"0","num_feature":"33","num_nodes":"13","size_leaf_vector":"1"}},{"base_weights":[7.236846E-3,-5.494505E-2,9.838711E-3,-2.5316419E-3,-3.6923075E-1,1.9736846E-3,-4.25E-2,-7.714286E-2,8.571429E-3],"categories":[],"categories_nodes":[],"categories_segments":[],"categories_sizes":[],"default_left":[0,0,0,0,0,0,0,0,0],"id":70,"left_children":[1,3,-1,5,7,-1,-1,-1,-1],"loss_changes":[8.6692595E-1,1.4980887E0,0E0,7.515989E-1,2.444835E0,0E0,0E0,0E0,0E0],"parents":[2147483647,0,0,1,1,3,3,4,4],"right_children":[2,4,-1,6,8,-1,-1,-1,-1],"split_conditions":[3.5323E10,6.634E9,8.150917E8,3.378E9,3.367E9,6.6477056E5,-2.3566746E7,-3.9637812E7,5.144576E5],"split_indices":[2,5,0,11,12,0,0,0,0],"split_type":[0,0,0,0,0,0,0,0,0],"sum_hessian":[1.51E2,9E1,6.1E1,7.8E1,1.2E1,7.5E1,3E0,6E0,6E0],"tree_param":{"num_deleted":"0","num_feature":"33","num_nodes":"9","size_leaf_vector":"1"}},{"base_weights":[1.208054E-2,-5.057471E-2,9.84127E-3,7.792211E-3,-4.5454544E-1,-1.7333334E-2,5.0793653E-3,-6.625E-2,7.5000003E-3],"categories":[],"categories_nodes":[],"categories_segments":[],"categories_sizes":[],"default_left":[0,0,0,0,0,0,0,0,0],"id":71,"left_children":[1,3,-1,5,7,-1,-1,-1,-1],"loss_changes":[8.109425E-1,2.0548737E0,0E0,6.0853094E-1,1.2610228E0,0E0,0E0,0E0,0E0],"parents":[2147483647,0,0,1,1,3,3,4,4],"right_children":[2,4,-1,6,8,-1,-1,-1,-1],"split_conditions":[2.25184E11,6.634E9,3.2275805E8,2.5913014E10,8.873E9,-4.179328E6,1.1663975E6,-8.0017E7,4.0610736E8],"split_indices":[18,5,0,24,6,0,0,0,0],"split_type":[0,0,0,0,0,0,0,0,0],"sum_hessian":[1.48E2,8.6E1,6.2E1,7.6E1,1E1,1.4E1,6.2E1,7E0,3E0],"tree_param":{"num_deleted":"0","num_feature":"33","num_nodes":"9","size_leaf_vector":"1"}},{"base_weights":[1.3815793E-2,-4.555555E-2,9.84127E-3,1.2345683E-2,-5.1E-1,-4.4999998E-2,2.3750004E-3,-7.714286E-2,7.5000003E-3],"categories":[],"categories_nodes":[],"categories_segments":[],"categories_sizes":[],"default_left":[0,0,0,0,0,0,0,0,0],"id":72,"left_children":[1,3,-1,5,7,-1,-1,-1,-1],"loss_changes":[7.679233E-1,2.4265678E0,0E0,4.377793E-1,1.587214E0,0E0,0E0,0E0,0E0],"parents":[2147483647,0,0,1,1,3,3,4,4],"right_children":[2,4,-1,6,8,-1,-1,-1,-1],"split_conditions":[3.5966E10,8.38525E9,6.863048E8,3.872E9,1.006725E10,-7.0450175E6,4.798464E5,-7.2015464E7,2.4582964E7],"split_indices":[2,8,0,0,8,0,0,0,0],"split_type":[0,0,0,0,0,0,0,0,0],"sum_hessian":[1.51E2,8.9E1,6.2E1,8E1,9E0,1E0,7.9E1,6E0,3E0],"tree_param":{"num_deleted":"0","num_feature":"33","num_nodes":"9","size_leaf_vector":"1"}},{"base_weights":[4.0909093E-2,-1.5189869E-2,9.868422E-3,3.2E-2,-7.2E-2,6.769231E-3,-1.8181818E-2],"categories":[],"categories_nodes":[],"categories_segments":[],"categories_sizes":[],"default_left":[0,0,0,0,0,0,0],"id":73,"left_children":[1,3,-1,5,-1,-1,-1],"loss_changes":[5.0063205E-1,2.650572E0,0E0,5.8468246E-1,0E0,0E0,0E0],"parents":[2147483647,0,0,1,1,3,3],"right_children":[2,4,-1,6,-1,-1,-1],"split_conditions":[3.0571E10,6.634E9,3.925569E8,2.369125E10,-4.515922E7,1.0147072E6,-3.623815E7],"split_indices":[2,7,0,4,0,0,0],"split_type":[0,0,0,0,0,0,0],"sum_hessian":[1.53E2,7.8E1,7.5E1,7.4E1,4E0,6.4E1,1E1],"tree_param":{"num_deleted":"0","num_feature":"33","num_nodes":"7","size_leaf_vector":"1"}},{"base_weights":[2.1428574E-2,-2.6041662E-2,9.830508E-3,4.810127E-2,-3.5E-1,6.0256417E-3,-4.4999998E-2,8E-3,-4.7857143E-2],"categories":[0,1,2],"categories_nodes":[4],"categories_segments":[0],"categories_sizes":[3],"default_left":[0,0,0,0,1,0,0,0,0],"id":74,"left_children":[1,3,-1,5,7,-1,-1,-1,-1],"loss_changes":[5.6455934E-1,2.3226805E0,0E0,5.054203E-1,1.0334284E0,0E0,0E0,0E0,0E0],"parents":[2147483647,0,0,1,1,3,3,4,4],"right_children":[2,4,-1,6,8,-1,-1,-1,-1],"split_conditions":[1.006725E10,2.07E11,7.077137E8,3.7472E10,1E-45,1.1367629E6,-1.5955149E7,4.2851532E7,-1.2183503E8],"split_indices":[8,17,0,0,32,0,0,0,0],"split_type":[0,0,0,0,1,0,0,0,0],"sum_hessian":[1.53E2,9.5E1,5.8E1,7.8E1,1.7E1,7.7E1,1E0,4E0,1.3E1],"tree_param":{"num_deleted":"0","num_feature":"33","num_nodes":"9","size_leaf_vector":"1"}},{"base_weights":[1.2962966E-2,-4.3877546E-2,9.846154E-3,4.0000003E-2,-5.5E-1,7.0833336E-3,-1.2142857E-2,-7.272727E-2,7.5000003E-3],"categories":[],"categories_nodes":[],"categories_segments":[],"categories_sizes":[],"default_left":[0,0,0,0,0,0,0,0,0],"id":75,"left_children":[1,3,-1,5,7,-1,-1,-1,-1],"loss_changes":[7.916051E-1,4.1823263E0,0E0,4.3167853E-1,1.6056819E0,0E0,0E0,0E0,0E0],"parents":[2147483647,0,0,1,1,3,3,4,4],"right_children":[2,4,-1,6,8,-1,-1,-1,-1],"split_conditions":[3.6339E10,2.8918E10,6.4544275E8,9.017E10,1.571E11,7.247053E5,-3.64039E7,-1.636445E8,3.456262E8],"split_indices":[2,1,0,23,25,0,0,0,0],"split_type":[0,0,0,0,0,0,0,0,0],"sum_hessian":[1.61E2,9.7E1,6.4E1,8.4E1,1.3E1,7.1E1,1.3E1,1E1,3E0],"tree_param":{"num_deleted":"0","num_feature":"33","num_nodes":"9","size_leaf_vector":"1"}},{"base_weights":[2.0915035E-2,-3.9080456E-2,9.850747E-3,2.1794874E-2,-5.1E-1,-4.4999998E-2,3.3766236E-3,-6.625E-2,6.6666673E-3],"categories":[],"categories_nodes":[],"categories_segments":[],"categories_sizes":[],"default_left":[0,0,0,0,0,0,0,0,0],"id":76,"left_children":[1,3,-1,5,7,-1,-1,-1,-1],"loss_changes":[7.160947E-1,2.5051775E0,0E0,4.557409E-1,9.2358327E-1,0E0,0E0,0E0,0E0],"parents":[2147483647,0,0,1,1,3,3,4,4],"right_children":[2,4,-1,6,8,-1,-1,-1,-1],"split_conditions":[3.5966E10,3.2471E10,5.363329E8,3.872E9,3.8033E10,-6.628096E6,3.761818E5,-7.552164E7,3.1106378E8],"split_indices":[2,1,0,0,1,0,0,0,0],"split_type":[0,0,0,0,0,0,0,0,0],"sum_hessian":[1.52E2,8.6E1,6.6E1,7.7E1,9E0,1E0,7.6E1,7E0,2E0],"tree_param":{"num_deleted":"0","num_feature":"33","num_nodes":"9","size_leaf_vector":"1"}},{"base_weights":[9.032262E-3,-6E-2,2.0915035E-2,8.493151E-2,-3.7037034E-2,1.5384619E-3,9.836066E-3,-1.0181817E-2,9.62963E-3],"categories":[1,2],"categories_nodes":[2],"categories_segments":[0],"categories_sizes":[2],"default_left":[0,0,1,0,0,0,0,0,0],"id":77,"left_children":[1,-1,3,5,7,-1,-1,-1,-1],"loss_changes":[1.134283E0,0E0,5.7075834E-1,6.666547E-2,7.0944107E-1,0E0,0E0,0E0,0E0],"parents":[2147483647,0,0,2,2,3,3,4,4],"right_children":[2,-1,4,6,8,-1,-1,-1,-1],"split_conditions":[-4.92E8,-1.0105037E7,1E-45,1.7709E10,1.108075E10,-4.9192855E6,1.2959243E7,-2.1681868E7,3.9079904E8],"split_indices":[7,0,32,21,8,0,0,0,0],"split_type":[0,0,1,0,0,0,0,0,0],"sum_hessian":[1.54E2,2E0,1.52E2,7.2E1,8E1,1.2E1,6E1,5.4E1,2.6E1],"tree_param":{"num_deleted":"0","num_feature":"33","num_nodes":"9","size_leaf_vector":"1"}},{"base_weights":[4.9645394E-2,-4.4999998E-2,5.6428574E-2,-4.4999998E-2,6.330936E-2,3.8554221E-3,9.824562E-3],"categories":[],"categories_nodes":[],"categories_segments":[],"categories_sizes":[],"default_left":[0,0,0,0,0,0,0],"id":78,"left_children":[1,-1,3,-1,5,-1,-1],"loss_changes":[5.03268E-1,0E0,5.1633656E-1,0E0,1.1642665E-1,0E0,0E0],"parents":[2147483647,0,0,2,2,4,4],"right_children":[2,-1,4,-1,6,-1,-1],"split_conditions":[3.872E9,-3.7970945E6,-4.92E8,-4.7390722E5,3.3717E10,1.3715149E6,4.0863254E8],"split_indices":[0,0,7,0,2,0,0],"split_type":[0,0,0,0,0,0,0],"sum_hessian":[1.4E2,1E0,1.39E2,1E0,1.38E2,8.2E1,5.6E1],"tree_param":{"num_deleted":"0","num_feature":"33","num_nodes":"7","size_leaf_vector":"1"}},{"base_weights":[6.6225203E-3,-5.494505E-2,9.836066E-3,1.7567571E-2,-3.5E-1,-4.4999998E-2,3.013699E-3,-6.0999997E-2,-2.222222E-3],"categories":[],"categories_nodes":[],"categories_segments":[],"categories_sizes":[],"default_left":[0,0,0,0,0,0,0,0,0],"id":79,"left_children":[1,3,-1,5,7,-1,-1,-1,-1],"loss_changes":[8.582666E-1,1.9531126E0,0E0,4.484635E-1,1.5204444E0,0E0,0E0,0E0,0E0],"parents":[2147483647,0,0,1,1,3,3,4,4],"right_children":[2,4,-1,6,8,-1,-1,-1,-1],"split_conditions":[3.9186E10,2.827E10,8.668743E8,3.872E9,4.316E9,-3.4173952E6,6.790503E5,-2.4802469E8,-2.7836826E8],"split_indices":[2,3,0,0,9,0,0,0,0],"split_type":[0,0,0,0,0,0,0,0,0],"sum_hessian":[1.5E2,9E1,6E1,7.3E1,1.7E1,1E0,7.2E1,9E0,8E0],"tree_param":{"num_deleted":"0","num_feature":"33","num_nodes":"9","size_leaf_vector":"1"}},{"base_weights":[3.3552635E-2,-4.4999998E-2,3.97351E-2,-2.2471873E-3,9.84127E-3,6.2650605E-3,-7.714286E-2],"categories":[],"categories_nodes":[],"categories_segments":[],"categories_sizes":[],"default_left":[0,0,0,0,0,0,0],"id":80,"left_children":[1,-1,3,5,-1,-1,-1],"loss_changes":[4.7229213E-1,0E0,3.7219754E-1,4.4910474E0,0E0,0E0,0E0],"parents":[2147483647,0,0,2,2,3,3],"right_children":[2,-1,4,6,-1,-1,-1],"split_conditions":[3.872E9,-3.0756608E6,3.6339E10,3.3717E10,4.0173117E8,1.8425036E6,-2.2322218E8],"split_indices":[0,0,2,1,0,0,0],"split_type":[0,0,0,0,0,0,0],"sum_hessian":[1.51E2,1E0,1.5E2,8.8E1,6.2E1,8.2E1,6E0],"tree_param":{"num_deleted":"0","num_feature":"33","num_nodes":"7","size_leaf_vector":"1"}},{"base_weights":[6.089744E-2,2.3750003E-2,9.87013E-3,7.083333E-2,-3.5555553E-1,2.5000002E-3,9.777778E-3,6.6666673E-3,-4.8571426E-2],"categories":[],"categories_nodes":[],"categories_segments":[],"categories_sizes":[],"default_left":[0,0,0,0,0,0,0,0,0],"id":81,"left_children":[1,3,-1,5,7,-1,-1,-1,-1],"loss_changes":[2.1672922E-1,1.4539028E0,0E0,8.647221E-2,5.26984E-1,0E0,0E0,0E0,0E0],"parents":[2147483647,0,0,1,1,3,3,4,4],"right_children":[2,4,-1,6,8,-1,-1,-1,-1],"split_conditions":[8.26E10,6.3487E10,3.4900132E7,2.886E9,2.3796E10,-1.3400061E6,2.7746305E6,2.7162625E6,-2.907046E8],"split_indices":[20,20,0,5,0,0,0,0,0],"split_type":[0,0,0,0,0,0,0,0,0],"sum_hessian":[1.55E2,7.9E1,7.6E1,7.1E1,8E0,2.7E1,4.4E1,2E0,6E0],"tree_param":{"num_deleted":"0","num_feature":"33","num_nodes":"9","size_leaf_vector":"1"}},{"base_weights":[6.50685E-2,-4.4999998E-2,7.172414E-2,1.8421056E-2,8.981482E-2,6.944445E-3,-6E-2,1.5384619E-3,9.895834E-3],"categories":[],"categories_nodes":[],"categories_segments":[],"categories_sizes":[],"default_left":[0,0,0,0,0,0,0,0,0],"id":82,"left_children":[1,-1,3,5,7,-1,-1,-1,-1],"loss_changes":[5.327804E-1,0E0,1.3816738E-1,1.2407163E0,7.197738E-2,0E0,0E0,0E0,0E0],"parents":[2147483647,0,0,2,2,3,3,4,4],"right_children":[2,-1,4,6,8,-1,-1,-1,-1],"split_conditions":[3.872E9,-2.634112E6,2.6019E10,1.572E9,1.441E9,1.2689204E6,-3.2238182E7,-8.835686E7,4.704953E6],"split_indices":[0,0,21,14,13,0,0,0,0],"split_type":[0,0,0,0,0,0,0,0,0],"sum_hessian":[1.45E2,1E0,1.44E2,3.7E1,1.07E2,3.5E1,2E0,1.2E1,9.5E1],"tree_param":{"num_deleted":"0","num_feature":"33","num_nodes":"9","size_leaf_vector":"1"}},{"base_weights":[4.74026E-2,-4.4999998E-2,5.3594775E-2,8.1739135E-2,-3.0769227E-2,5.5319155E-3,9.855073E-3,9.5E-3,-1.5499999E-2],"categories":[1],"categories_nodes":[2],"categories_segments":[0],"categories_sizes":[1],"default_left":[0,0,1,0,0,0,0,0,0],"id":83,"left_children":[1,-1,3,5,7,-1,-1,-1,-1],"loss_changes":[4.9843812E-1,0E0,3.6579376E-1,4.562694E-2,6.2407684E-1,0E0,0E0,0E0,0E0],"parents":[2147483647,0,0,2,2,3,3,4,4],"right_children":[2,-1,4,6,8,-1,-1,-1,-1],"split_conditions":[3.872E9,-2.3707138E6,1E-45,5.41E9,8.9784E10,7.4813444E5,1.1184723E7,1.28E6,-1.1798651E8],"split_indices":[0,0,32,5,23,0,0,0,0],"split_type":[0,0,1,0,0,0,0,0,0],"sum_hessian":[1.53E2,1E0,1.52E2,1.14E2,3.8E1,4.6E1,6.8E1,1.9E1,1.9E1],"tree_param":{"num_deleted":"0","num_feature":"33","num_nodes":"9","size_leaf_vector":"1"}},{"base_weights":[3.9333336E-2,-4.4999998E-2,4.5637585E-2,2.409642E-3,9.850747E-3,4.74359E-3,-5.8333334E-2],"categories":[],"categories_nodes":[],"categories_segments":[],"categories_sizes":[],"default_left":[0,0,0,0,0,0,0],"id":84,"left_children":[1,-1,3,5,-1,-1,-1],"loss_changes":[4.8326892E-1,0E0,3.4029558E-1,2.2166975E0,0E0,0E0,0E0],"parents":[2147483647,0,0,2,2,3,3],"right_children":[2,-1,4,6,-1,-1,-1],"split_conditions":[3.872E9,-2.133632E6,6.3487E10,6.3487E10,1.5066727E7,9.7961994E5,-2.5030616E8],"split_indices":[0,0,22,20,0,0,0],"split_type":[0,0,0,0,0,0,0],"sum_hessian":[1.49E2,1E0,1.48E2,8.2E1,6.6E1,7.7E1,5E0],"tree_param":{"num_deleted":"0","num_feature":"33","num_nodes":"7","size_leaf_vector":"1"}},{"base_weights":[3.3088237E-2,-4.4999998E-2,4.0000003E-2,8.3333336E-2,-1.4285677E-3,3.3866276E-10,9.821429E-3,-1.8181818E-2,3.166667E-3],"categories":[],"categories_nodes":[],"categories_segments":[],"categories_sizes":[],"default_left":[0,0,0,0,0,0,0,0,0],"id":85,"left_children":[1,-1,3,5,7,-1,-1,-1,-1],"loss_changes":[4.721029E-1,0E0,2.424762E-1,8.1845224E-2,4.236602E-1,0E0,0E0,0E0,0E0],"parents":[2147483647,0,0,2,2,3,3,4,4],"right_children":[2,-1,4,6,8,-1,-1,-1,-1],"split_conditions":[3.872E9,-1.920256E6,5.1E0,3.6333334E0,5.9333334E0,7.338432E7,1.6347485E7,-9.86564E7,1.0540034E6],"split_indices":[0,0,30,29,29,0,0,0,0],"split_type":[0,0,0,0,0,0,0,0,0],"sum_hessian":[1.35E2,1E0,1.34E2,6.5E1,6.9E1,1E1,5.5E1,1E1,5.9E1],"tree_param":{"num_deleted":"0","num_feature":"33","num_nodes":"9","size_leaf_vector":"1"}},{"base_weights":[3.1901844E-2,-1.0999996E-2,9.843751E-3,7.1428604E-3,-6E-2,1.6494849E-3,-4.4999998E-2],"categories":[],"categories_nodes":[],"categories_segments":[],"categories_sizes":[],"default_left":[0,0,0,0,0,0,0],"id":86,"left_children":[1,3,-1,5,-1,-1,-1],"loss_changes":[4.6636665E-1,1.0728999E0,0E0,4.2639175E-1,0E0,0E0,0E0],"parents":[2147483647,0,0,1,1,3,3],"right_children":[2,4,-1,6,-1,-1,-1],"split_conditions":[2.61894E11,2.78492E11,4.5980426E8,6.034E9,-9.782886E7,2.4211461E5,-2.3261389E8],"split_indices":[19,17,0,10,0,0,0],"split_type":[0,0,0,0,0,0,0],"sum_hessian":[1.62E2,9.9E1,6.3E1,9.7E1,2E0,9.6E1,1E0],"tree_param":{"num_deleted":"0","num_feature":"33","num_nodes":"7","size_leaf_vector":"1"}},{"base_weights":[2.83871E-2,6.3716814E-2,-6.511627E-2,1.3888892E-2,8.589744E-2,-1.5357143E-1,9.375E-3,6.764706E-3,-6E-2,-2.222222E-3,9.857143E-3,3.5478956E-10,-5.3749997E-2],"categories":[2],"categories_nodes":[0],"categories_segments":[0],"categories_sizes":[1],"default_left":[1,0,0,0,0,0,0,0,0,0,0,0,0],"id":87,"left_children":[1,3,5,7,9,11,-1,-1,-1,-1,-1,-1,-1],"loss_changes":[5.161834E-1,1.2369621E-1,6.186565E-1,1.2286438E0,1.09074414E-1,1.650893E0,0E0,0E0,0E0,0E0,0E0,0E0,0E0],"parents":[2147483647,0,0,1,1,2,2,3,3,4,4,5,5],"right_children":[2,4,6,8,10,12,-1,-1,-1,-1,-1,-1,-1],"split_conditions":[1E-45,1.441E9,3.6339E10,5.5314E10,1.063E9,4.308E9,2.0079878E8,1.1418829E6,-8.8045976E7,-2.243584E7,9.174017E6,-2.643558E5,-1.3921117E8],"split_indices":[32,13,2,0,14,7,0,0,0,0,0,0,0],"split_type":[1,0,0,0,0,0,0,0,0,0,0,0,0],"sum_hessian":[1.54E2,1.12E2,4.2E1,3.5E1,7.7E1,2.7E1,1.5E1,3.3E1,2E0,8E0,6.9E1,2E1,7E0],"tree_param":{"num_deleted":"0","num_feature":"33","num_nodes":"13","size_leaf_vector":"1"}},{"base_weights":[4.0909093E-2,-2.4444443E-1,5.821918E-2,-5.7142854E-2,-6E-2,8.073395E-2,-7.894733E-3,-4.4999998E-2,8.333334E-3,1.9230772E-3,9.880953E-3,-1.4117646E-2,9.545455E-3],"categories":[1],"categories_nodes":[2],"categories_segments":[0],"categories_sizes":[1],"default_left":[0,0,1,0,0,0,0,0,0,0,0,0,0],"id":88,"left_children":[1,3,5,7,-1,9,11,-1,-1,-1,-1,-1,-1],"loss_changes":[7.749135E-1,5.650794E-1,2.1796408E-1,4.238095E-1,0E0,1.1927563E-1,5.3690964E-1,0E0,0E0,0E0,0E0,0E0,0E0],"parents":[2147483647,0,0,1,1,2,2,3,3,5,5,6,6],"right_children":[2,4,6,8,-1,10,12,-1,-1,-1,-1,-1,-1],"split_conditions":[5.07064E8,4.61E8,1E-45,3.872E9,-1.870848E6,1.127E9,6.3487E10,-1.7260032E6,1.719808E5,-2.5569892E6,1.957888E7,-6.9163704E7,1.0795746E7],"split_indices":[14,14,32,0,0,15,22,0,0,0,0,0,0],"split_type":[0,0,1,0,0,0,0,0,0,0,0,0,0],"sum_hessian":[1.53E2,8E0,1.45E2,6E0,2E0,1.08E2,3.7E1,1E0,5E0,2.5E1,8.3E1,1.6E1,2.1E1],"tree_param":{"num_deleted":"0","num_feature":"33","num_nodes":"13","size_leaf_vector":"1"}},{"base_weights":[5.3896107E-2,-3.2E-1,6.6E-2,6.6666673E-3,-6E-2,8.9E-2,1.9607846E-2,9.882353E-3,3.1250005E-3,-4.8571426E-2,9.777778E-3],"categories":[],"categories_nodes":[],"categories_segments":[],"categories_sizes":[],"default_left":[0,0,0,0,0,0,0,0,0,0,0],"id":89,"left_children":[1,3,5,-1,-1,7,9,-1,-1,-1,-1],"loss_changes":[7.180623E-1,5.813333E-1,1.5830785E-1,0E0,0E0,5.364263E-2,2.062043E0,0E0,0E0,0E0,0E0],"parents":[2147483647,0,0,1,1,2,2,5,5,6,6],"right_children":[2,4,6,-1,-1,8,10,-1,-1,-1,-1],"split_conditions":[5.264E9,3.64E8,1.5945E11,1.5477761E5,-1.6837632E6,9.066667E0,2.82794E11,1.0408448E7,-3.76709E5,-8.032092E7,2.3731835E8],"split_indices":[1,15,20,0,0,30,18,0,0,0,0],"split_type":[0,0,0,0,0,0,0,0,0,0,0],"sum_hessian":[1.53E2,4E0,1.49E2,2E0,2E0,9.9E1,5E1,8.4E1,1.5E1,6E0,4.4E1],"tree_param":{"num_deleted":"0","num_feature":"33","num_nodes":"11","size_leaf_vector":"1"}},{"base_weights":[3.724138E-2,-2.678571E-2,7.666667E-2,3.541667E-2,-3.5555553E-1,-3.9999995E-2,9.868422E-3,5.5319155E-3,-4.4999998E-2,7.5000003E-3,-5.8333334E-2,-6E-2,9.230769E-3],"categories":[],"categories_nodes":[],"categories_segments":[],"categories_sizes":[],"default_left":[0,0,0,0,0,0,0,0,0,0,0,0,0],"id":90,"left_children":[1,3,5,7,9,11,-1,-1,-1,-1,-1,-1,-1],"loss_changes":[3.6807504E-1,1.1578076E0,2.3513156E-1,4.8862144E-1,9.2638874E-1,1.1667691E0,0E0,0E0,0E0,0E0,0E0,0E0,0E0],"parents":[2147483647,0,0,1,1,2,2,3,3,4,4,5,5],"right_children":[2,4,6,8,10,12,-1,-1,-1,-1,-1,-1,-1],"split_conditions":[2.196E9,1.895E9,3.6333334E0,1.30236E11,1.6195E10,8.467E9,1.5850906E7,7.534337E5,-2.813952E6,1.8194432E7,-7.2288664E7,-2.043941E8,6.740935E7],"split_indices":[9,9,29,25,1,7,0,0,0,0,0,0,0],"split_type":[0,0,0,0,0,0,0,0,0,0,0,0,0],"sum_hessian":[1.44E2,5.5E1,8.9E1,4.7E1,8E0,1.4E1,7.5E1,4.6E1,1E0,3E0,5E0,2E0,1.2E1],"tree_param":{"num_deleted":"0","num_feature":"33","num_nodes":"13","size_leaf_vector":"1"}},{"base_weights":[3.3112586E-2,-4.4999998E-2,3.9333336E-2,9.000003E-3,9.803922E-3,3.5789476E-3,-4.1666668E-2],"categories":[],"categories_nodes":[],"categories_segments":[],"categories_sizes":[],"default_left":[0,0,0,0,0,0,0],"id":91,"left_children":[1,-1,3,5,-1,-1,-1],"loss_changes":[4.7150373E-1,0E0,2.662294E-1,1.1552508E0,0E0,0E0,0E0],"parents":[2147483647,0,0,2,2,3,3],"right_children":[2,-1,4,6,-1,-1,-1],"split_conditions":[3.872E9,-1.4603776E6,1.0714E10,9.947E9,5.5989024E8,2.3841795E6,-1.8395464E8],"split_indices":[0,0,6,6,0,0,0],"split_type":[0,0,0,0,0,0,0],"sum_hessian":[1.5E2,1E0,1.49E2,9.9E1,5E1,9.4E1,5E0],"tree_param":{"num_deleted":"0","num_feature":"33","num_nodes":"7","size_leaf_vector":"1"}},{"base_weights":[3.8926177E-2,-3.2E-1,5.1034484E-2,6.6666673E-3,-6E-2,-4.4117607E-3,9.871795E-3,2.1538464E-3,-4.25E-2],"categories":[],"categories_nodes":[],"categories_segments":[],"categories_sizes":[],"default_left":[0,0,0,0,0,0,0,0,0],"id":92,"left_children":[1,3,5,-1,-1,7,-1,-1,-1],"loss_changes":[6.638833E-1,5.813333E-1,3.837965E-1,0E0,0E0,7.513303E-1,0E0,0E0,0E0],"parents":[2147483647,0,0,1,1,2,2,5,5],"right_children":[2,4,6,-1,-1,8,-1,-1,-1],"split_conditions":[5.264E9,3.89E8,2.753E9,1.1690547E7,-1.8291712E6,5.5314E10,2.5650872E7,3.4372608E6,-4.6664092E7],"split_indices":[1,15,9,0,0,0,0,0,0],"split_type":[0,0,0,0,0,0,0,0,0],"sum_hessian":[1.48E2,4E0,1.44E2,2E0,2E0,6.7E1,7.7E1,6.4E1,3E0],"tree_param":{"num_deleted":"0","num_feature":"33","num_nodes":"9","size_leaf_vector":"1"}},{"base_weights":[4.4137932E-2,-6E-2,5.734266E-2,-7.4999996E-2,6.8939395E-2,-4.25E-2,8.888889E-3,1.8421056E-3,8.842106E-3],"categories":[],"categories_nodes":[],"categories_segments":[],"categories_sizes":[],"default_left":[0,0,0,0,0,0,0,0,0],"id":93,"left_children":[1,-1,3,5,7,-1,-1,-1,-1],"loss_changes":[1.2677269E0,0E0,2.246387E-1,7.2611105E-1,1.2828308E-1,0E0,0E0,0E0,0E0],"parents":[2147483647,0,0,2,2,3,3,4,4],"right_children":[2,-1,4,6,8,-1,-1,-1,-1],"split_conditions":[4.2314E9,-1.3435392E6,3.6333334E0,4.1159E10,1.441E9,-1.6812402E8,3.7921997E8,1.3060102E5,5.638605E6],"split_indices":[0,0,30,1,13,0,0,0,0],"split_type":[0,0,0,0,0,0,0,0,0],"sum_hessian":[1.44E2,2E0,1.42E2,1.1E1,1.31E2,3E0,8E0,3.7E1,9.4E1],"tree_param":{"num_deleted":"0","num_feature":"33","num_nodes":"9","size_leaf_vector":"1"}},{"base_weights":[4.8076924E-2,-6E-2,6.0389612E-2,-1.0999999E-1,7.172414E-2,8.75E-3,-6E-2,-1.2E-2,7.8014187E-3],"categories":[],"categories_nodes":[],"categories_segments":[],"categories_sizes":[],"default_left":[0,0,0,0,0,0,0,0,0],"id":94,"left_children":[1,-1,3,5,7,-1,-1,-1,-1],"loss_changes":[1.2810463E0,0E0,3.053077E-1,1.0202498E0,1.8422496E-1,0E0,0E0,0E0,0E0],"parents":[2147483647,0,0,2,2,3,3,4,4],"right_children":[2,-1,4,6,8,-1,-1,-1,-1],"split_conditions":[4.2314E9,-1.2091904E6,2.2909E10,1.247391E9,1.4402082E4,1.0508442E7,-1.6592896E6,-2.3489538E6,4.5975965E6],"split_indices":[0,0,24,5,27,0,0,0,0],"split_type":[0,0,0,0,0,0,0,0,0],"sum_hessian":[1.55E2,2E0,1.53E2,9E0,1.44E2,7E0,2E0,4E0,1.4E2],"tree_param":{"num_deleted":"0","num_feature":"33","num_nodes":"9","size_leaf_vector":"1"}},{"base_weights":[1.879195E-2,-4.8571426E-1,4.3356646E-2,-5.833333E-1,5.0000004E-3,-9.523809E-2,6.666667E-2,5.0000004E-3,-7.2E-2,-1.0526312E-3,-6E-2,9.863014E-3,1.9607847E-3],"categories":[2,3],"categories_nodes":[3],"categories_segments":[0],"categories_sizes":[2],"default_left":[0,0,0,1,0,0,0,0,0,0,0,0,0],"id":95,"left_children":[1,3,5,7,-1,9,11,-1,-1,-1,-1,-1,-1],"loss_changes":[1.8676223E0,3.9523816E-1,4.6833163E-1,5.553334E-1,0E0,8.91629E-1,1.8307817E-1,0E0,0E0,0E0,0E0,0E0,0E0],"parents":[2147483647,0,0,1,1,2,2,3,3,5,5,6,6],"right_children":[2,4,6,8,-1,10,12,-1,-1,-1,-1,-1,-1],"split_conditions":[3.563904E9,1.4715058E4,1.3371E10,1E-45,2.0655206E7,2.89E9,1.19355E11,9.457613E6,-1.4933504E6,-6.7789825E5,-9.296691E6,2.5111552E6,2.5090468E6],"split_indices":[20,27,0,32,0,6,23,0,0,0,0,0,0],"split_type":[0,0,0,1,0,0,0,0,0,0,0,0,0],"sum_hessian":[1.48E2,6E0,1.42E2,5E0,1E0,2E1,1.22E2,1E0,4E0,1.8E1,2E0,7.2E1,5E1],"tree_param":{"num_deleted":"0","num_feature":"33","num_nodes":"13","size_leaf_vector":"1"}},{"base_weights":[3.3928573E-2,-4.1666666E-1,5.0306752E-2,6.6666673E-3,-6.7499995E-2,-6.3999996E-2,7.05036E-2,9.2857145E-3,-2.4166666E-2,8.695656E-4,8.205129E-3],"categories":[2,3],"categories_nodes":[1],"categories_segments":[0],"categories_sizes":[2],"default_left":[0,1,0,0,0,0,0,0,0,0,0],"id":96,"left_children":[1,3,5,-1,-1,7,9,-1,-1,-1,-1],"loss_changes":[1.2607892E0,7.9416656E-1,3.8081995E-1,0E0,0E0,7.191476E-1,9.84962E-2,0E0,0E0,0E0,0E0],"parents":[2147483647,0,0,1,1,2,2,5,5,6,6],"right_children":[2,4,6,-1,-1,8,10,-1,-1,-1,-1],"split_conditions":[5.264E9,1E-45,1.3371E10,8.511847E6,-1.344E6,1.955E9,1.441E9,8.30762E6,-6.930473E6,-2.9553334E7,4.0983658E6],"split_indices":[1,32,0,0,0,5,13,0,0,0,0],"split_type":[0,1,0,0,0,0,0,0,0,0,0],"sum_hessian":[1.67E2,5E0,1.62E2,2E0,3E0,2.4E1,1.38E2,1.3E1,1.1E1,2.2E1,1.16E2],"tree_param":{"num_deleted":"0","num_feature":"33","num_nodes":"11","size_leaf_vector":"1"}},{"base_weights":[3.8036812E-2,-3.5555553E-1,6.0645163E-2,7.5000003E-3,-5.833333E-1,8.2051285E-2,-5.1282016E-3,-7.2E-2,5.0000004E-3,9.871795E-3,4.7500003E-3,-1.7333334E-2,9.6E-3],"categories":[2,3,0],"categories_nodes":[1,2],"categories_segments":[0,2],"categories_sizes":[2,1],"default_left":[0,1,1,0,0,0,0,0,0,0,0,0,0],"id":97,"left_children":[1,3,5,-1,7,9,11,-1,-1,-1,-1,-1,-1],"loss_changes":[1.4720141E0,9.2638874E-1,2.1865344E-1,0E0,5.553334E-1,6.268585E-2,6.80041E-1,0E0,0E0,0E0,0E0,0E0,0E0],"parents":[2147483647,0,0,1,1,2,2,4,4,5,5,6,6],"right_children":[2,4,6,-1,8,10,12,-1,-1,-1,-1,-1,-1],"split_conditions":[3.267447E9,1E-45,1E-45,7.6606465E6,1.4715058E4,1.27346E11,1.2095E9,-1.2096E6,1.8724096E7,3.9222888E6,3.480126E7,-5.1476995E6,2.2073958E7],"split_indices":[22,32,32,0,27,23,16,0,0,0,0,0,0],"split_type":[0,1,1,0,0,0,0,0,0,0,0,0,0],"sum_hessian":[1.62E2,8E0,1.54E2,3E0,5E0,1.16E2,3.8E1,4E0,1E0,7.7E1,3.9E1,1.4E1,2.4E1],"tree_param":{"num_deleted":"0","num_feature":"33","num_nodes":"13","size_leaf_vector":"1"}},{"base_weights":[5.734266E-2,2.906977E-2,9.827587E-3,7.162163E-2,-2.153846E-1,8.382353E-3,-5.7142857E-3,8E-3,-3.5555553E-2],"categories":[],"categories_nodes":[],"categories_segments":[],"categories_sizes":[],"default_left":[0,0,0,0,0,0,0,0,0],"id":98,"left_children":[1,3,-1,5,7,-1,-1,-1,-1],"loss_changes":[1.6263705E-1,9.0999705E-1,0E0,1.21056676E-1,5.667009E-1,0E0,0E0,0E0,0E0],"parents":[2147483647,0,0,1,1,3,3,4,4],"right_children":[2,4,-1,6,8,-1,-1,-1,-1],"split_conditions":[2.61894E11,2.024E9,1.6461776E8,6.558E9,1.11746E11,1.7331406E6,-2.1065728E6,3.1234048E7,-1.559122E8],"split_indices":[19,15,0,7,24,0,0,0,0],"split_type":[0,0,0,0,0,0,0,0,0],"sum_hessian":[1.42E2,8.5E1,5.7E1,7.3E1,1.2E1,6.7E1,6E0,4E0,8E0],"tree_param":{"num_deleted":"0","num_feature":"33","num_nodes":"9","size_leaf_vector":"1"}},{"base_weights":[4.1290324E-2,-1.8333332E-1,7.028986E-2,-4.9999997E-2,-5.2E-1,-6.1538458E-2,8.3333336E-2,-3.2E-2,9.000001E-3,-6.7499995E-2,5.0000004E-3,-6E-2,9.09091E-3,-3.7499995E-3,9.07563E-3],"categories":[],"categories_nodes":[],"categories_segments":[],"categories_sizes":[],"default_left":[0,0,0,0,0,0,0,0,0,0,0,0,0,0,0],"id":99,"left_children":[1,3,5,7,9,11,13,-1,-1,-1,-1,-1,-1,-1,-1],"loss_changes":[1.0225534E0,7.82E-1,2.4241918E-1,5.5799997E-1,4.7549987E-1,1.1216782E0,1.1641806E-1,0E0,0E0,0E0,0E0,0E0,0E0,0E0,0E0],"parents":[2147483647,0,0,1,1,2,2,3,3,4,4,5,5,6,6],"right_children":[2,4,6,8,10,12,14,-1,-1,-1,-1,-1,-1,-1,-1],"split_conditions":[7.46E8,1.9741E9,3.6333334E0,1.045E9,1.2951E10,1.108075E10,9.73E8,-8.475136E5,1.6190465E6,-9.075712E5,6.9833624E7,-1.4032077E8,1.7882274E8,-7.332557E6,8.3024895E6],"split_indices":[14,6,30,5,0,8,16,0,0,0,0,0,0,0,0],"split_type":[0,0,0,0,0,0,0,0,0,0,0,0,0,0,0],"sum_hessian":[1.54E2,1.7E1,1.37E2,1.3E1,4E0,1.2E1,1.25E2,4E0,9E0,3E0,1E0,2E0,1E1,7E0,1.18E2],"tree_param":{"num_deleted":"0","num_feature":"33","num_nodes":"15","size_leaf_vector":"1"}},{"base_weights":[4.6000004E-2,-5.2E-1,6.50685E-2,5.0000004E-3,-6.7499995E-2,-1.3333333E-1,7.753623E-2,8.333334E-3,-4.25E-2,-1.2E-2,8.432836E-3],"categories":[],"categories_nodes":[],"categories_segments":[],"categories_sizes":[],"default_left":[0,0,0,0,0,0,0,0,0,0,0],"id":100,"left_children":[1,3,5,-1,-1,7,9,-1,-1,-1,-1],"loss_changes":[1.6527507E0,4.7549987E-1,3.7148696E-1,0E0,0E0,6.041667E-1,1.9527274E-1,0E0,0E0,0E0,0E0],"parents":[2147483647,0,0,1,1,2,2,5,5,6,6],"right_children":[2,4,6,-1,-1,8,10,-1,-1,-1,-1],"split_conditions":[3.267447E9,3.89E8,1.4564117E4,1.6516506E7,-1.4238209E6,9.85E8,3.82442E8,3.34592E6,-1.265664E6,-4.6571522E5,3.836642E6],"split_indices":[22,15,26,0,0,15,7,0,0,0,0],"split_type":[0,0,0,0,0,0,0,0,0,0,0],"sum_hessian":[1.49E2,4E0,1.45E2,1E0,3E0,8E0,1.37E2,5E0,3E0,4E0,1.33E2],"tree_param":{"num_deleted":"0","num_feature":"33","num_nodes":"11","size_leaf_vector":"1"}},{"base_weights":[8.441562E-3,-3.25E-1,3.636364E-2,8E-3,-5.3749996E-1,-9.638551E-3,9.836066E-3,-6.285714E-2,5.0000004E-3,3.289474E-3,-4.125E-2],"categories":[2,3],"categories_nodes":[1],"categories_segments":[0],"categories_sizes":[2],"default_left":[0,1,0,0,0,0,0,0,0,0,0],"id":101,"left_children":[1,3,5,-1,7,9,-1,-1,-1,-1,-1],"loss_changes":[1.4456168E0,1.0757501E0,4.0878382E-1,0E0,4.594643E-1,1.435776E0,0E0,0E0,0E0,0E0,0E0],"parents":[2147483647,0,0,1,1,2,2,4,4,5,5],"right_children":[2,4,6,-1,8,10,-1,-1,-1,-1,-1],"split_conditions":[6.76E8,1E-45,3.094E9,8.668109E6,1.9741E9,2.64E9,1.8240718E7,-2.423808E6,2.0804814E7,1.3636404E6,-3.1096832E6],"split_indices":[14,32,9,0,5,12,0,0,0,0,0],"split_type":[0,1,0,0,0,0,0,0,0,0,0],"sum_hessian":[1.53E2,1.1E1,1.42E2,4E0,7E0,8.2E1,6E1,6E0,1E0,7.5E1,7E0],"tree_param":{"num_deleted":"0","num_feature":"33","num_nodes":"11","size_leaf_vector":"1"}},{"base_weights":[-6.8749962E-3,-1.14754096E-1,5.9000004E-2,-7.4137926E-2,-6.7499995E-2,-2.6666665E-1,6.836735E-2,-4.25E-2,-4.7272723E-3,-4.4999998E-2,5.0000004E-3,-1.6666662E-3,8.641976E-3],"categories":[],"categories_nodes":[],"categories_segments":[],"categories_sizes":[],"default_left":[0,0,0,0,0,0,0,0,0,0,0,0,0],"id":102,"left_children":[1,3,5,7,-1,9,11,-1,-1,-1,-1,-1,-1],"loss_changes":[1.1438161E0,1.3380144E0,3.2329458E-1,5.26616E-1,0E0,1.9666664E-1,1.5187708E-1,0E0,0E0,0E0,0E0,0E0,0E0],"parents":[2147483647,0,0,1,1,2,2,3,3,5,5,6,6],"right_children":[2,4,6,8,-1,10,12,-1,-1,-1,-1,-1,-1],"split_conditions":[1.2095E9,1.327E9,3.82442E8,3.267447E9,-2.7987968E6,2.0531E10,1.441E9,-3.780096E5,-1.9742717E5,-5.5562244E5,6.634701E6,-4.3925092E7,2.8421348E7],"split_indices":[16,15,7,22,0,0,13,0,0,0,0,0,0],"split_type":[0,0,0,0,0,0,0,0,0,0,0,0,0],"sum_hessian":[1.59E2,6E1,9.9E1,5.7E1,3E0,2E0,9.7E1,3E0,5.4E1,1E0,1E0,1.7E1,8E1],"tree_param":{"num_deleted":"0","num_feature":"33","num_nodes":"13","size_leaf_vector":"1"}},{"base_weights":[-1.3999996E-2,-4.8571426E-1,9.027781E-3,5.0000004E-3,-5.833333E-1,-5.5952378E-2,9.836066E-3,5.0000004E-3,-7.2E-2,-6.7499995E-2,-2.4691354E-3],"categories":[],"categories_nodes":[],"categories_segments":[],"categories_sizes":[],"default_left":[0,0,0,0,0,0,0,0,0,0,0],"id":103,"left_children":[1,3,5,-1,7,9,-1,-1,-1,-1,-1],"loss_changes":[1.6337646E0,3.9523816E-1,8.41404E-1,0E0,5.553334E-1,1.6089064E0,0E0,0E0,0E0,0E0,0E0],"parents":[2147483647,0,0,1,1,2,2,4,4,5,5],"right_children":[2,4,6,-1,8,10,-1,-1,-1,-1,-1],"split_conditions":[5.07064E8,5.42E8,8.467E9,2.768251E7,3.21398E8,3.8E0,7.8928984E7,7.8390785E6,-1.0012672E6,-1.3133865E8,-2.6524672E5],"split_indices":[14,6,7,0,15,30,0,0,0,0,0],"split_type":[0,0,0,0,0,0,0,0,0,0,0],"sum_hessian":[1.49E2,6E0,1.43E2,1E0,5E0,8.3E1,6E1,1E0,4E0,3E0,8E1],"tree_param":{"num_deleted":"0","num_feature":"33","num_nodes":"11","size_leaf_vector":"1"}},{"base_weights":[1.3986051E-3,-1.5357143E-1,3.8793106E-2,-4.0909085E-2,-4.8571426E-1,9.824562E-3,-1.8333329E-2,-3.2E-2,3.888889E-3,-5.8333334E-2,5.0000004E-3,-1.0285714E-2,9.615385E-3],"categories":[1,2],"categories_nodes":[2],"categories_segments":[0],"categories_sizes":[2],"default_left":[0,0,1,0,0,0,0,0,0,0,0,0,0],"id":104,"left_children":[1,3,5,7,9,-1,11,-1,-1,-1,-1,-1,-1],"loss_changes":[8.3464634E-1,1.0278895E0,3.9577305E-1,5.0240403E-1,3.9523816E-1,0E0,5.9050363E-1,0E0,0E0,0E0,0E0,0E0,0E0],"parents":[2147483647,0,0,1,1,2,2,3,3,4,4,6,6],"right_children":[2,4,6,8,10,-1,12,-1,-1,-1,-1,-1,-1],"split_conditions":[3.1655E9,2.505E9,1E-45,4.11361E8,2.3382E10,1.6284079E7,2.82794E11,-9.0112E5,5.4083594E5,-7.0730755E6,3.7297356E7,-1.5930571E7,9.683649E7],"split_indices":[8,6,32,15,1,0,18,0,0,0,0,0,0],"split_type":[0,0,1,0,0,0,0,0,0,0,0,0,0],"sum_hessian":[1.42E2,2.7E1,1.15E2,2.1E1,6E0,5.6E1,5.9E1,4E0,1.7E1,5E0,1E0,3.4E1,2.5E1],"tree_param":{"num_deleted":"0","num_feature":"33","num_nodes":"13","size_leaf_vector":"1"}},{"base_weights":[3.6075953E-2,-2.642857E-1,6.482759E-2,-6.7499995E-2,-9.0909086E-2,9.861111E-3,3.1081084E-2,8.888889E-3,-6E-2,-4.4999998E-2,4.3835617E-3],"categories":[],"categories_nodes":[],"categories_segments":[],"categories_sizes":[],"default_left":[0,0,0,0,0,0,0,0,0,0,0],"id":105,"left_children":[1,3,5,-1,7,-1,9,-1,-1,-1,-1],"loss_changes":[1.3816035E0,9.3555194E-1,1.6224599E-1,0E0,1.0602019E0,0E0,4.7378746E-1,0E0,0E0,0E0,0E0],"parents":[2147483647,0,0,1,1,2,2,4,4,6,6],"right_children":[2,4,6,-1,8,-1,10,-1,-1,-1,-1],"split_conditions":[1.4564117E4,3.563904E9,8.9647E10,-2.8374528E6,1.015E9,1.4745601E6,9.0054E10,1.1037133E7,-1.3910016E6,-4.120576E6,2.2427448E6],"split_indices":[26,20,23,0,15,0,23,0,0,0,0],"split_type":[0,0,0,0,0,0,0,0,0,0,0],"sum_hessian":[1.57E2,1.3E1,1.44E2,3E0,1E1,7.1E1,7.3E1,8E0,2E0,1E0,7.2E1],"tree_param":{"num_deleted":"0","num_feature":"33","num_nodes":"11","size_leaf_vector":"1"}},{"base_weights":[1.9333337E-2,-4.125E-1,4.3356646E-2,6.6666673E-3,-5.8333334E-2,3.571432E-3,9.833334E-3,3.4615386E-3,-3.4285713E-2],"categories":[2,3],"categories_nodes":[1],"categories_segments":[0],"categories_sizes":[2],"default_left":[0,1,0,0,0,0,0,0,0],"id":106,"left_children":[1,3,5,-1,-1,7,-1,-1,-1],"loss_changes":[1.5739945E0,6.937499E-1,3.1242692E-1,0E0,0E0,9.152472E-1,0E0,0E0,0E0],"parents":[2147483647,0,0,1,1,2,2,5,5],"right_children":[2,4,6,-1,-1,8,-1,-1,-1],"split_conditions":[4.47E8,1E-45,3.6906E10,6.9978115E6,-2.5537025E6,3.3717E10,4.492247E8,4.7140866E5,-1.1808604E8],"split_indices":[15,32,3,0,0,3,0,0,0],"split_type":[0,1,0,0,0,0,0,0,0],"sum_hessian":[1.49E2,7E0,1.42E2,2E0,5E0,8.3E1,5.9E1,7.7E1,6E0],"tree_param":{"num_deleted":"0","num_feature":"33","num_nodes":"9","size_leaf_vector":"1"}},{"base_weights":[3.9333336E-2,-3.4285712E-1,5.763889E-2,7.5000003E-3,-6.7499995E-2,8.955227E-3,9.871795E-3,3.6923082E-3,-6E-2],"categories":[3],"categories_nodes":[1],"categories_segments":[0],"categories_sizes":[1],"default_left":[0,1,0,0,0,0,0,0,0],"id":107,"left_children":[1,3,5,-1,-1,7,-1,-1,-1],"loss_changes":[1.0691931E0,1.0221429E0,2.870985E-1,0E0,0E0,1.1632422E0,0E0,0E0,0E0],"parents":[2147483647,0,0,1,1,2,2,5,5],"right_children":[2,4,6,-1,-1,8,-1,-1,-1],"split_conditions":[4.11361E8,1E-45,6.3487E10,3.421696E6,-2.2983168E6,2.672E9,1.5913207E7,2.9585922E5,-1.0627727E8],"split_indices":[15,32,22,0,0,14,0,0,0],"split_type":[0,1,0,0,0,0,0,0,0],"sum_hessian":[1.49E2,6E0,1.43E2,3E0,3E0,6.6E1,7.7E1,6.4E1,2E0],"tree_param":{"num_deleted":"0","num_feature":"33","num_nodes":"9","size_leaf_vector":"1"}},{"base_weights":[5.369131E-3,-5.666666E-2,9.833334E-3,-1.8823525E-2,-5.833333E-1,1.5277782E-3,-1.9285714E-2,-7.2E-2,5.0000004E-3],"categories":[],"categories_nodes":[],"categories_segments":[],"categories_sizes":[],"default_left":[0,0,0,0,0,0,0,0,0],"id":108,"left_children":[1,3,-1,5,7,-1,-1,-1,-1],"loss_changes":[8.648713E-1,1.7827843E0,0E0,5.074022E-1,5.553334E-1,0E0,0E0,0E0,0E0],"parents":[2147483647,0,0,1,1,3,3,4,4],"right_children":[2,4,-1,6,8,-1,-1,-1,-1],"split_conditions":[1.003325E10,3.5021E10,4.911473E7,8.26E10,4.1159E10,1.3556738E5,-3.7672548E6,-9.43997E7,3.082322E8],"split_indices":[8,3,0,20,1,0,0,0,0],"split_type":[0,0,0,0,0,0,0,0,0],"sum_hessian":[1.48E2,8.9E1,5.9E1,8.4E1,5E0,7.1E1,1.3E1,4E0,1E0],"tree_param":{"num_deleted":"0","num_feature":"33","num_nodes":"9","size_leaf_vector":"1"}},{"base_weights":[2.5308644E-2,-1.5238091E-2,9.827587E-3,-6E-2,1.9417512E-3,1.8181822E-3,-3.2E-2],"categories":[],"categories_nodes":[],"categories_segments":[],"categories_sizes":[],"default_left":[0,0,0,0,0,0,0],"id":109,"left_children":[1,3,-1,-1,5,-1,-1],"loss_changes":[4.807879E-1,1.0560074E0,0E0,0E0,5.4433894E-1,0E0,0E0],"parents":[2147483647,0,0,1,1,4,4],"right_children":[2,4,-1,-1,6,-1,-1],"split_conditions":[2.73403E11,3.6333334E0,6.318057E8,-8.495964E7,4.6852E10,1.9185155E5,-1.264726E8],"split_indices":[18,29,0,0,1,0,0],"split_type":[0,0,0,0,0,0,0],"sum_hessian":[1.61E2,1.04E2,5.7E1,2E0,1.02E2,9.8E1,4E0],"tree_param":{"num_deleted":"0","num_feature":"33","num_nodes":"7","size_leaf_vector":"1"}},{"base_weights":[1.3815793E-2,-5.7812493E-2,6.5168545E-2,-3.0645156E-2,-6E-2,-4.4999998E-2,7.6136366E-2,-3.3898267E-4,-4.25E-2,-1.2E-2,8.690476E-3],"categories":[],"categories_nodes":[],"categories_segments":[],"categories_sizes":[],"default_left":[0,0,0,0,0,0,0,0,0,0,0],"id":110,"left_children":[1,3,5,7,-1,-1,9,-1,-1,-1,-1],"loss_changes":[5.628706E-1,9.2431945E-1,5.371361E-1,6.649521E-1,0E0,0E0,1.9629109E-1,0E0,0E0,0E0,0E0],"parents":[2147483647,0,0,1,1,2,2,3,3,6,6],"right_children":[2,4,6,8,-1,-1,10,-1,-1,-1,-1],"split_conditions":[2.111E9,2.29E9,8.86E8,5.5314E10,-1.3613056E6,-6.606848E5,3.1075E9,-5.0108925E5,-6.682788E7,-1.040384E6,9.277276E6],"split_indices":[13,11,14,0,0,0,8,0,0,0,0],"split_type":[0,0,0,0,0,0,0,0,0,0,0],"sum_hessian":[1.51E2,6.3E1,8.8E1,6.1E1,2E0,1E0,8.7E1,5.8E1,3E0,4E0,8.3E1],"tree_param":{"num_deleted":"0","num_feature":"33","num_nodes":"11","size_leaf_vector":"1"}},{"base_weights":[1.8243246E-2,-4.4999998E-2,2.44898E-2,-9.900986E-3,9.7872345E-3,7.0833336E-3,-2.0333333E-2],"categories":[],"categories_nodes":[],"categories_segments":[],"categories_sizes":[],"default_left":[0,0,0,0,0,0,0],"id":111,"left_children":[1,-1,3,5,-1,-1,-1],"loss_changes":[4.439065E-1,0E0,3.7195048E-1,1.5916823E0,0E0,0E0,0E0],"parents":[2147483647,0,0,2,2,3,3],"right_children":[2,-1,4,6,-1,-1,-1],"split_conditions":[3.19405E8,-2.0511232E6,4.3076E10,5.5164E10,6.606078E8,3.6167684E5,-4.095058E7],"split_indices":[15,0,2,20,0,0,0],"split_type":[0,0,0,0,0,0,0],"sum_hessian":[1.47E2,1E0,1.46E2,1E2,4.6E1,7.1E1,2.9E1],"tree_param":{"num_deleted":"0","num_feature":"33","num_nodes":"7","size_leaf_vector":"1"}},{"base_weights":[-5.228754E-3,-4.504504E-2,9.767442E-3,9.803958E-4,-5.1E-1,-6E-2,1.9000004E-3,-7.714286E-2,7.5000003E-3],"categories":[],"categories_nodes":[],"categories_segments":[],"categories_sizes":[],"default_left":[0,0,0,0,0,0,0,0,0],"id":112,"left_children":[1,3,-1,5,7,-1,-1,-1,-1],"loss_changes":[6.3127476E-1,2.3758726E0,0E0,1.116002E0,1.587214E0,0E0,0E0,0E0,0E0],"parents":[2147483647,0,0,1,1,3,3,4,4],"right_children":[2,4,-1,6,8,-1,-1,-1,-1],"split_conditions":[3.08879E11,2.78955E11,6.1671616E8,3.6333334E0,4.899E9,-7.329628E7,9.679362E4,-1.2620595E8,5.056115E8],"split_indices":[18,17,0,29,10,0,0,0,0],"split_type":[0,0,0,0,0,0,0,0,0],"sum_hessian":[1.52E2,1.1E2,4.2E1,1.01E2,9E0,2E0,9.9E1,6E0,3E0],"tree_param":{"num_deleted":"0","num_feature":"33","num_nodes":"9","size_leaf_vector":"1"}},{"base_weights":[-1.1034478E-2,-3.4285712E-1,5.7553994E-3,7.5000003E-3,-6.7499995E-2,-3.2323226E-2,9.7560985E-3,2.1111115E-3,-5.1E-2],"categories":[3],"categories_nodes":[1],"categories_segments":[0],"categories_sizes":[1],"default_left":[0,1,0,0,0,0,0,0,0],"id":113,"left_children":[1,3,5,-1,-1,7,-1,-1,-1],"loss_changes":[8.098063E-1,1.0221429E0,4.890739E-1,0E0,0E0,2.5376766E0,0E0,0E0,0E0],"parents":[2147483647,0,0,1,1,2,2,5,5],"right_children":[2,4,6,-1,-1,8,-1,-1,-1],"split_conditions":[4.11361E8,1E-45,3.22239E11,3.0510592E6,-1.8556929E6,1.71124E11,5.201849E8,1.8693122E5,-4.316078E7],"split_indices":[15,32,17,0,0,21,0,0,0],"split_type":[0,1,0,0,0,0,0,0,0],"sum_hessian":[1.44E2,6E0,1.38E2,3E0,3E0,9.8E1,4E1,8.9E1,9E0],"tree_param":{"num_deleted":"0","num_feature":"33","num_nodes":"9","size_leaf_vector":"1"}},{"base_weights":[1.6560514E-2,-4.9999997E-2,7.5E-2,-2.6388885E-2,-6E-2,8.6585365E-2,-2.6666665E-1,3.1746068E-4,-2.1E-2,8.3333364E-4,9.859155E-3,-4.4999998E-2,5.0000004E-3],"categories":[],"categories_nodes":[],"categories_segments":[],"categories_sizes":[],"default_left":[0,0,0,0,0,0,0,0,0,0,0,0,0],"id":114,"left_children":[1,3,5,7,-1,9,11,-1,-1,-1,-1,-1,-1],"loss_changes":[6.144427E-1,9.451388E-1,3.5558945E-1,3.91496E-1,0E0,7.621801E-2,1.9666664E-1,0E0,0E0,0E0,0E0,0E0,0E0],"parents":[2147483647,0,0,1,1,2,2,3,3,5,5,6,6],"right_children":[2,4,6,8,-1,10,12,-1,-1,-1,-1,-1,-1],"split_conditions":[2.753E9,1.30236E11,9E0,2.35E9,-1.3661799E7,3.6333334E0,3.8297E10,-2.0078333E5,-1.8505729E6,-5.2137084E7,5.899777E6,-1.9918848E7,