{"learner":{"attributes":{"scikit_learn":"{\"_estimator_type\": \"regressor\"}"},"feature_names":["revenues_lag_1","revenues_lag_2","revenues_lag_3","revenues_lag_4","revenues_rolling_avg_4","net_income_lag_2","net_income_lag_3","net_income_lag_4","net_income_rolling_avg_4","research_and_development_expense_lag_4","research_and_development_expense_lag_5","research_and_development_expense_lag_6","research_and_development_expense_lag_7","research_and_development_expense_lag_8","selling_general_and_administrative_expense_lag_1","selling_general_and_administrative_expense_lag_2","selling_general_and_administrative_expense_rolling_avg_4","assets_lag_2","assets_lag_3","assets_lag_4","liabilities_lag_2","liabilities_lag_3","liabilities_lag_4","shareholder_equity_lag_2","shareholder_equity_lag_3","shareholder_equity_lag_4","gdp_lag_1","gdp_lag_2","cpi_lag_1","unemployment_lag_1","unemployment_lag_2","year","quarter"],"feature_types":["float","float","float","float","float","float","float","float","float","float","float","float","float","float","float","float","float","float","float","float","float","float","float","float","float","float","float","float","float","float","float","int","c"],"gradient_booster":{"model":{"gbtree_model_param":{"num_parallel_tree":"1","num_trees":"500"},"iteration_indptr":[0,1,2,3,4,5,6,7,8,9,10,11,12,13,14,15,16,17,18,19,20,21,22,23,24,25,26,27,28,29,30,31,32,33,34,35,36,37,38,39,40,41,42,43,44,45,46,47,48,49,50,51,52,53,54,55,56,57,58,59,60,61,62,63,64,65,66,67,68,69,70,71,72,73,74,75,76,77,78,79,80,81,82,83,84,85,86,87,88,89,90,91,92,93,94,95,96,97,98,99,100,101,102,103,104,105,106,107,108,109,110,111,112,113,114,115,116,117,118,119,120,121,122,123,124,125,126,127,128,129,130,131,132,133,134,135,136,137,138,139,140,141,142,143,144,145,146,147,148,149,150,151,152,153,154,155,156,157,158,159,160,161,162,163,164,165,166,167,168,169,170,171,172,173,174,175,176,177,178,179,180,181,182,183,184,185,186,187,188,189,190,191,192,193,194,195,196,197,198,199,200,201,202,203,204,205,206,207,208,209,210,211,212,213,214,215,216,217,218,219,220,221,222,223,224,225,226,227,228,229,230,231,232,233,234,235,236,237,238,239,240,241,242,243,244,245,246,247,248,249,250,251,252,253,254,255,256,257,258,259,260,261,262,263,264,265,266,267,268,269,270,271,272,273,274,275,276,277,278,279,280,281,282,283,284,285,286,287,288,289,290,291,292,293,294,295,296,297,298,299,300,301,302,303,304,305,306,307,308,309,310,311,312,313,314,315,316,317,318,319,320,321,322,323,324,325,326,327,328,329,330,331,332,333,334,335,336,337,338,339,340,341,342,343,344,345,346,347,348,349,350,351,352,353,354,355,356,357,358,359,360,361,362,363,364,365,366,367,368,369,370,371,372,373,374,375,376,377,378,379,380,381,382,383,384,385,386,387,388,389,390,391,392,393,394,395,396,397,398,399,400,401,402,403,404,405,406,407,408,409,410,411,412,413,414,415,416,417,418,419,420,421,422,423,424,425,426,427,428,429,430,431,432,433,434,435,436,437,438,439,440,441,442,443,444,445,446,447,448,449,450,451,452,453,454,455,456,457,458,459,460,461,462,463,464,465,466,467,468,469,470,471,472,473,474,475,476,477,478,479,480,481,482,483,484,485,486,487,488,489,490,491,492,493,494,495,496,497,498,499,500],"tree_info":[0,0,0,0,0,0,0,0,0,0,0,0,0,0,0,0,0,0,0,0,0,0,0,0,0,0,0,0,0,0,0,0,0,0,0,0,0,0,0,0,0,0,0,0,0,0,0,0,0,0,0,0,0,0,0,0,0,0,0,0,0,0,0,0,0,0,0,0,0,0,0,0,0,0,0,0,0,0,0,0,0,0,0,0,0,0,0,0,0,0,0,0,0,0,0,0,0,0,0,0,0,0,0,0,0,0,0,0,0,0,0,0,0,0,0,0,0,0,0,0,0,0,0,0,0,0,0,0,0,0,0,0,0,0,0,0,0,0,0,0,0,0,0,0,0,0,0,0,0,0,0,0,0,0,0,0,0,0,0,0,0,0,0,0,0,0,0,0,0,0,0,0,0,0,0,0,0,0,0,0,0,0,0,0,0,0,0,0,0,0,0,0,0,0,0,0,0,0,0,0,0,0,0,0,0,0,0,0,0,0,0,0,0,0,0,0,0,0,0,0,0,0,0,0,0,0,0,0,0,0,0,0,0,0,0,0,0,0,0,0,0,0,0,0,0,0,0,0,0,0,0,0,0,0,0,0,0,0,0,0,0,0,0,0,0,0,0,0,0,0,0,0,0,0,0,0,0,0,0,0,0,0,0,0,0,0,0,0,0,0,0,0,0,0,0,0,0,0,0,0,0,0,0,0,0,0,0,0,0,0,0,0,0,0,0,0,0,0,0,0,0,0,0,0,0,0,0,0,0,0,0,0,0,0,0,0,0,0,0,0,0,0,0,0,0,0,0,0,0,0,0,0,0,0,0,0,0,0,0,0,0,0,0,0,0,0,0,0,0,0,0,0,0,0,0,0,0,0,0,0,0,0,0,0,0,0,0,0,0,0,0,0,0,0,0,0,0,0,0,0,0,0,0,0,0,0,0,0,0,0,0,0,0,0,0,0,0,0,0,0,0,0,0,0,0,0,0,0,0,0,0,0,0,0,0,0,0,0,0,0,0,0,0,0,0,0,0,0,0,0,0,0,0,0,0,0,0,0,0,0,0,0,0,0,0,0,0,0,0,0,0,0,0,0,0,0,0,0,0,0,0,0,0,0,0,0,0,0,0,0,0,0,0,0,0,0,0,0,0,0],"trees":[{"base_weights":[-2.7650008E-3,-9.430054E-2,7.04E-1,-9.947919E-3,4.4999998E-2,8.0952376E-1,1.1999998E-1,2.6666665E-2,8.5263155E-2,-7.5000017E-3,4.4999998E-2],"categories":[],"categories_nodes":[],"categories_segments":[],"categories_sizes":[],"default_left":[0,0,0,0,0,0,0,0,0,0,0],"id":0,"left_children":[1,3,5,-1,-1,7,9,-1,-1,-1,-1],"loss_changes":[1.410501E1,5.8878267E-1,1.4435043E0,0E0,0E0,2.6405907E-1,3.5549998E-1,0E0,0E0,0E0,0E0],"parents":[2147483647,0,0,1,1,2,2,5,5,6,6],"right_children":[2,4,6,-1,-1,8,10,-1,-1,-1,-1],"split_conditions":[7.6048E10,8.9498E10,1.11439E11,-2.04453E9,3.647103E8,5.3809E10,1.243E11,2.3561011E8,3.8043604E9,-1.5989965E7,8.099103E8],"split_indices":[2,3,0,0,0,0,0,0,0,0,0],"split_type":[0,0,0,0,0,0,0,0,0,0,0],"sum_hessian":[2.16E2,1.92E2,2.4E1,1.91E2,1E0,2E1,4E0,2E0,1.8E1,3E0,1E0],"tree_param":{"num_deleted":"0","num_feature":"33","num_nodes":"11","size_leaf_vector":"1"}},{"base_weights":[-1.1981591E-2,-7.950003E-2,7.3888886E-1,-8.9393966E-2,6E-2,-5.0000013E-3,7.8823525E-1,-9.4359E-3,1.7499998E-2,-5.0000013E-3,8.4375E-2],"categories":[],"categories_nodes":[],"categories_segments":[],"categories_sizes":[],"default_left":[0,0,0,0,0,0,0,0,0,0,0],"id":1,"left_children":[1,3,5,7,-1,-1,9,-1,-1,-1,-1],"loss_changes":[1.106012E1,1.3982227E0,7.401314E-1,2.764325E-1,0E0,0E0,8.33272E-1,0E0,0E0,0E0,0E0],"parents":[2147483647,0,0,1,1,2,2,3,3,6,6],"right_children":[2,4,6,8,-1,-1,10,-1,-1,-1,-1],"split_conditions":[8.336E10,1.1258E10,5.3809E10,9.0146E10,8.496251E7,-1.8625086E8,5.695E10,-1.4530374E9,3.2823952E8,-2.4325326E7,3.4345746E9],"split_indices":[2,9,0,3,0,0,23,0,0,0,0],"split_type":[0,0,0,0,0,0,0,0,0,0,0],"sum_hessian":[2.16E2,1.99E2,1.7E1,1.97E2,2E0,1E0,1.6E1,1.94E2,3E0,1E0,1.5E1],"tree_param":{"num_deleted":"0","num_feature":"33","num_nodes":"11","size_leaf_vector":"1"}},{"base_weights":[-2.119818E-2,-7.47525E-2,6.5625E-1,-8.450002E-2,6E-2,1.7499998E-1,7.538461E-1,-9.430054E-3,1.6249998E-2,4.4999998E-2,-6.6666687E-3,2.6666665E-2,8.1818186E-2],"categories":[],"categories_nodes":[],"categories_segments":[],"categories_sizes":[],"default_left":[0,0,0,0,0,0,0,0,0,0,0,0,0],"id":2,"left_children":[1,3,5,7,-1,9,11,-1,-1,-1,-1,-1,-1],"loss_changes":[7.9218755E0,1.3792878E0,6.195674E-1,4.994694E-1,0E0,2.9583335E-1,1.892767E-1,0E0,0E0,0E0,0E0,0E0,0E0],"parents":[2147483647,0,0,1,1,2,2,3,3,5,5,6,6],"right_children":[2,4,6,8,-1,10,12,-1,-1,-1,-1,-1,-1],"split_conditions":[8.4742E10,1.1258E10,2.1448E10,4.979E9,7.6466584E7,8.8293E10,3.33779E11,-1.5156143E9,2.954158E8,3.2931677E8,-2.189312E7,3.8546147E8,3.1088668E9],"split_indices":[2,9,6,16,0,2,18,0,0,0,0,0,0],"split_type":[0,0,0,0,0,0,0,0,0,0,0,0,0],"sum_hessian":[2.16E2,2.01E2,1.5E1,1.99E2,2E0,3E0,1.2E1,1.92E2,7E0,1E0,2E0,2E0,1E1],"tree_param":{"num_deleted":"0","num_feature":"33","num_nodes":"13","size_leaf_vector":"1"}},{"base_weights":[-2.5806475E-2,-8.4020644E-2,4.4583333E-1,-9.946811E-3,3.4285712E-1,7.538461E-1,7.499998E-2,-6.6666687E-3,5.1999997E-2,2.6666665E-2,8.1818186E-2,-9.000002E-3,6E-2],"categories":[],"categories_nodes":[],"categories_segments":[],"categories_sizes":[],"default_left":[0,0,0,0,0,0,0,0,0,0,0,0,0],"id":3,"left_children":[1,3,5,-1,7,9,11,-1,-1,-1,-1,-1,-1],"loss_changes":[5.9954367E0,1.313374E0,2.6847758E0,0E0,5.424762E-1,1.892767E-1,1.0935E0,0E0,0E0,0E0,0E0,0E0,0E0],"parents":[2147483647,0,0,1,1,2,2,4,4,5,5,6,6],"right_children":[2,4,6,-1,8,10,12,-1,-1,-1,-1,-1,-1],"split_conditions":[7.6693E10,7.353375E10,8.8293E10,-1.6752116E9,4.108E9,5.3809E10,7.903E9,-3.847127E7,2.6587382E8,5.089149E8,2.7979804E9,-1.9704232E7,3.4691565E8],"split_indices":[2,4,0,0,14,0,9,0,0,0,0,0,0],"split_type":[0,0,0,0,0,0,0,0,0,0,0,0,0],"sum_hessian":[2.16E2,1.93E2,2.3E1,1.87E2,6E0,1.2E1,1.1E1,2E0,4E0,2E0,1E1,9E0,2E0],"tree_param":{"num_deleted":"0","num_feature":"33","num_nodes":"13","size_leaf_vector":"1"}},{"base_weights":[-4.884795E-2,-6.666669E-2,7.2E-2,-9.943823E-3,9.72222E-2,3.3333103E-4,4.8571426E-2],"categories":[],"categories_nodes":[],"categories_segments":[],"categories_sizes":[],"default_left":[0,0,0,0,0,0,0],"id":4,"left_children":[1,3,-1,-1,5,-1,-1],"loss_changes":[3.0208788E0,1.1536673E0,0E0,0E0,1.3114841E0,0E0,0E0],"parents":[2147483647,0,0,1,1,4,4],"right_children":[2,4,-1,-1,6,-1,-1],"split_conditions":[1.11439E11,3.74725E9,2.5217329E9,-1.7340498E9,4.366667E0,1.6587138E7,1.235633E9],"split_indices":[2,16,0,0,29,0,0],"split_type":[0,0,0,0,0,0,0],"sum_hessian":[2.16E2,2.12E2,4E0,1.77E2,3.5E1,2.9E1,6E0],"tree_param":{"num_deleted":"0","num_feature":"33","num_nodes":"7","size_leaf_vector":"1"}},{"base_weights":[-4.4239655E-2,-9.421055E-2,2.9642856E-1,-9.947092E-3,4.4999998E-2,4.842105E-1,-9.000002E-3,2.0999998E-2,7.1E-2],"categories":[0,2],"categories_nodes":[2],"categories_segments":[0],"categories_sizes":[2],"default_left":[0,0,1,0,0,0,0,0,0],"id":5,"left_children":[1,3,5,-1,-1,7,-1,-1,-1],"loss_changes":[3.7220252E0,5.8868444E-1,2.0753791E0,0E0,0E0,1.0272632E0,0E0,0E0,0E0],"parents":[2147483647,0,0,1,1,2,2,5,5],"right_children":[2,4,6,-1,-1,8,-1,-1,-1],"split_conditions":[7.4604E10,8.9498E10,1E-45,-1.4389133E9,1.1572347E8,8.4742E10,-1.9392934E7,3.3446048E8,2.2695593E9],"split_indices":[2,3,32,0,0,2,0,0,0],"split_type":[0,0,1,0,0,0,0,0,0],"sum_hessian":[2.16E2,1.89E2,2.7E1,1.88E2,1E0,1.8E1,9E0,9E0,9E0],"tree_param":{"num_deleted":"0","num_feature":"33","num_nodes":"9","size_leaf_vector":"1"}},{"base_weights":[-3.963136E-2,-9.395607E-2,2.3611109E-1,-9.944755E-3,4.4999998E-2,5.7777774E-1,1.1785712E-1,-5.0000013E-3,6.625E-2,2.3999978E-3,6.7499995E-2],"categories":[],"categories_nodes":[],"categories_segments":[],"categories_sizes":[],"default_left":[0,0,0,0,0,0,0,0,0,0,0],"id":6,"left_children":[1,3,5,-1,-1,7,9,-1,-1,-1,-1],"loss_changes":[3.2727633E0,5.884068E-1,1.3864286E0,0E0,0E0,5.118058E-1,1.4479715E0,0E0,0E0,0E0,0E0],"parents":[2147483647,0,0,1,1,2,2,5,5,6,6],"right_children":[2,4,6,-1,-1,8,10,-1,-1,-1,-1],"split_conditions":[6.4698E10,8.9498E10,1.3822E10,-1.8073097E9,1.0415145E8,4.2358E10,1.11439E11,-2.0353024E7,2.0071031E9,2.1837398E7,2.0426031E9],"split_indices":[2,3,7,0,0,3,2,0,0,0,0],"split_type":[0,0,0,0,0,0,0,0,0,0,0],"sum_hessian":[2.16E2,1.81E2,3.5E1,1.8E2,1E0,8E0,2.7E1,1E0,7E0,2.4E1,3E0],"tree_param":{"num_deleted":"0","num_feature":"33","num_nodes":"11","size_leaf_vector":"1"}},{"base_weights":[-3.963136E-2,-5.727702E-2,7.2E-2,-9.941178E-3,1.0681816E-1,7.894714E-4,6.285714E-2],"categories":[],"categories_nodes":[],"categories_segments":[],"categories_sizes":[],"default_left":[0,0,0,0,0,0,0],"id":7,"left_children":[1,3,-1,-1,5,-1,-1],"loss_changes":[2.9499497E0,1.483325E0,0E0,0E0,2.2660375E0,0E0,0E0],"parents":[2147483647,0,0,1,1,4,4],"right_children":[2,4,-1,-1,6,-1,-1],"split_conditions":[1.11439E11,5.6898E10,1.838343E9,-1.9756227E9,5.5333333E0,1.0827667E7,6.8440314E8],"split_indices":[2,2,0,0,29,0,0],"split_type":[0,0,0,0,0,0,0],"sum_hessian":[2.16E2,2.12E2,4E0,1.69E2,4.3E1,3.7E1,6E0],"tree_param":{"num_deleted":"0","num_feature":"33","num_nodes":"7","size_leaf_vector":"1"}},{"base_weights":[-4.884795E-2,-6.666669E-2,7.2E-2,-7.571431E-2,4.2499998E-1,-9.941178E-3,2.439022E-3,6E-2,-5.0000013E-3],"categories":[],"categories_nodes":[],"categories_segments":[],"categories_sizes":[],"default_left":[0,0,0,0,0,0,0,0,0],"id":8,"left_children":[1,3,-1,5,7,-1,-1,-1,-1],"loss_changes":[3.0208788E0,9.7969055E-1,0E0,5.00592E-1,3.6249995E-1,0E0,0E0,0E0,0E0],"parents":[2147483647,0,0,1,1,3,3,4,4],"right_children":[2,4,-1,6,8,-1,-1,-1,-1],"split_conditions":[1.11439E11,2.9825182E4,1.6545088E9,5.6898E10,2.501E10,-1.7780603E9,2.3152538E7,8.034222E7,-7.717929E7],"split_indices":[2,26,0,2,5,0,0,0,0],"split_type":[0,0,0,0,0,0,0,0,0],"sum_hessian":[2.16E2,2.12E2,4E0,2.09E2,3E0,1.69E2,4E1,2E0,1E0],"tree_param":{"num_deleted":"0","num_feature":"33","num_nodes":"9","size_leaf_vector":"1"}},{"base_weights":[-4.884795E-2,-6.666669E-2,7.2E-2,-7.571431E-2,4.2499998E-1,-9.941178E-3,2.439022E-3,6E-2,-5.0000013E-3],"categories":[],"categories_nodes":[],"categories_segments":[],"categories_sizes":[],"default_left":[0,0,0,0,0,0,0,0,0],"id":9,"left_children":[1,3,-1,5,7,-1,-1,-1,-1],"loss_changes":[3.0208788E0,9.7969055E-1,0E0,5.00592E-1,3.6249995E-1,0E0,0E0,0E0,0E0],"parents":[2147483647,0,0,1,1,3,3,4,4],"right_children":[2,4,-1,6,8,-1,-1,-1,-1],"split_conditions":[1.11439E11,2.9825182E4,1.4890582E9,5.6898E10,2.501E10,-1.6002546E9,2.0837478E7,7.230833E7,-6.946161E7],"split_indices":[2,26,0,2,5,0,0,0,0],"split_type":[0,0,0,0,0,0,0,0,0],"sum_hessian":[2.16E2,2.12E2,4E0,2.09E2,3E0,1.69E2,4E1,2E0,1E0],"tree_param":{"num_deleted":"0","num_feature":"33","num_nodes":"9","size_leaf_vector":"1"}},{"base_weights":[-5.3456243E-2,-7.136153E-2,7.2E-2,-8.047622E-2,4.2499998E-1,-9.941178E-3,-2.326035E-9,6E-2,-5.0000013E-3],"categories":[],"categories_nodes":[],"categories_segments":[],"categories_sizes":[],"default_left":[0,0,0,0,0,0,0,0,0],"id":10,"left_children":[1,3,-1,5,7,-1,-1,-1,-1],"loss_changes":[3.0566027E0,9.978528E-1,0E0,3.2001126E-1,3.6249995E-1,0E0,0E0,0E0,0E0],"parents":[2147483647,0,0,1,1,3,3,4,4],"right_children":[2,4,-1,6,8,-1,-1,-1,-1],"split_conditions":[1.11439E11,2.9825182E4,1.3401522E9,5.6898E10,2.501E10,-1.4402287E9,1.8753434E7,6.507725E7,-6.2515612E7],"split_indices":[2,26,0,2,5,0,0,0,0],"split_type":[0,0,0,0,0,0,0,0,0],"sum_hessian":[2.16E2,2.12E2,4E0,2.09E2,3E0,1.69E2,4E1,2E0,1E0],"tree_param":{"num_deleted":"0","num_feature":"33","num_nodes":"9","size_leaf_vector":"1"}},{"base_weights":[-4.884795E-2,-6.666669E-2,7.2E-2,-7.571431E-2,4.2499998E-1,-9.940122E-3,1.5909069E-3,6E-2,-5.0000013E-3],"categories":[],"categories_nodes":[],"categories_segments":[],"categories_sizes":[],"default_left":[0,0,0,0,0,0,0,0,0],"id":11,"left_children":[1,3,-1,5,7,-1,-1,-1,-1],"loss_changes":[3.0208788E0,9.7969055E-1,0E0,4.5733905E-1,3.6249995E-1,0E0,0E0,0E0,0E0],"parents":[2147483647,0,0,1,1,3,3,4,4],"right_children":[2,4,-1,6,8,-1,-1,-1,-1],"split_conditions":[1.11439E11,2.9825182E4,1.2061368E9,5.5314E10,2.501E10,-1.4694054E9,2.61867E7,5.8569524E7,-5.6264296E7],"split_indices":[2,26,0,2,5,0,0,0,0],"split_type":[0,0,0,0,0,0,0,0,0],"sum_hessian":[2.16E2,2.12E2,4E0,2.09E2,3E0,1.66E2,4.3E1,2E0,1E0],"tree_param":{"num_deleted":"0","num_feature":"33","num_nodes":"9","size_leaf_vector":"1"}},{"base_weights":[-4.884795E-2,-6.666669E-2,7.2E-2,-7.571431E-2,4.2499998E-1,-9.940122E-3,1.5909069E-3,6E-2,-5.0000013E-3],"categories":[],"categories_nodes":[],"categories_segments":[],"categories_sizes":[],"default_left":[0,0,0,0,0,0,0,0,0],"id":12,"left_children":[1,3,-1,5,7,-1,-1,-1,-1],"loss_changes":[3.0208788E0,9.7969055E-1,0E0,4.5733905E-1,3.6249995E-1,0E0,0E0,0E0,0E0],"parents":[2147483647,0,0,1,1,3,3,4,4],"right_children":[2,4,-1,6,8,-1,-1,-1,-1],"split_conditions":[1.11439E11,2.9825182E4,1.0855236E9,5.5314E10,2.501E10,-1.3224646E9,2.3567718E7,5.2712244E7,-5.0638028E7],"split_indices":[2,26,0,2,5,0,0,0,0],"split_type":[0,0,0,0,0,0,0,0,0],"sum_hessian":[2.16E2,2.12E2,4E0,2.09E2,3E0,1.66E2,4.3E1,2E0,1E0],"tree_param":{"num_deleted":"0","num_feature":"33","num_nodes":"9","size_leaf_vector":"1"}},{"base_weights":[-4.4239655E-2,-6.1971854E-2,7.2E-2,-7.095241E-2,4.2499998E-1,-9.937502E-3,1.960782E-3,6E-2,-5.0000013E-3],"categories":[],"categories_nodes":[],"categories_segments":[],"categories_sizes":[],"default_left":[0,0,0,0,0,0,0,0,0],"id":13,"left_children":[1,3,-1,5,7,-1,-1,-1,-1],"loss_changes":[2.9853275E0,9.6166235E-1,0E0,5.424799E-1,3.6249995E-1,0E0,0E0,0E0,0E0],"parents":[2147483647,0,0,1,1,3,3,4,4],"right_children":[2,4,-1,6,8,-1,-1,-1,-1],"split_conditions":[1.11439E11,2.9825182E4,9.769714E8,5.2896E10,2.501E10,-1.2817184E9,2.479332E7,4.7440692E7,-4.5574556E7],"split_indices":[2,26,0,1,5,0,0,0,0],"split_type":[0,0,0,0,0,0,0,0,0],"sum_hessian":[2.16E2,2.12E2,4E0,2.09E2,3E0,1.59E2,5E1,2E0,1E0],"tree_param":{"num_deleted":"0","num_feature":"33","num_nodes":"9","size_leaf_vector":"1"}},{"base_weights":[-4.4239655E-2,-6.1971854E-2,7.2E-2,-9.935486E-3,3.728811E-2,-3.5416689E-3,3.25E-2],"categories":[],"categories_nodes":[],"categories_segments":[],"categories_sizes":[],"default_left":[0,0,0,0,0,0,0],"id":14,"left_children":[1,3,-1,-1,5,-1,-1],"loss_changes":[2.9853275E0,7.940702E-1,0E0,0E0,1.2456745E0,0E0,0E0],"parents":[2147483647,0,0,1,1,4,4],"right_children":[2,4,-1,-1,6,-1,-1],"split_conditions":[1.11439E11,2.773E9,8.7927443E8,-1.1094465E9,5.7E0,-2.8478532E7,4.9809834E8],"split_indices":[2,15,0,0,29,0,0],"split_type":[0,0,0,0,0,0,0],"sum_hessian":[2.16E2,2.12E2,4E0,1.54E2,5.8E1,4.7E1,1.1E1],"tree_param":{"num_deleted":"0","num_feature":"33","num_nodes":"7","size_leaf_vector":"1"}},{"base_weights":[-5.3456243E-2,-7.136153E-2,7.2E-2,-8.047622E-2,4.2499998E-1,-9.940122E-3,-6.818205E-4,6E-2,-5.0000013E-3],"categories":[],"categories_nodes":[],"categories_segments":[],"categories_sizes":[],"default_left":[0,0,0,0,0,0,0,0,0],"id":15,"left_children":[1,3,-1,5,7,-1,-1,-1,-1],"loss_changes":[3.0566027E0,9.978528E-1,0E0,2.9205775E-1,3.6249995E-1,0E0,0E0,0E0,0E0],"parents":[2147483647,0,0,1,1,3,3,4,4],"right_children":[2,4,-1,6,8,-1,-1,-1,-1],"split_conditions":[1.11439E11,2.9825182E4,7.913472E8,5.5314E10,2.501E10,-1.01614195E9,1.6241255E7,1.06578744E8,-3.8169804E7],"split_indices":[2,26,0,2,5,0,0,0,0],"split_type":[0,0,0,0,0,0,0,0,0],"sum_hessian":[2.16E2,2.12E2,4E0,2.09E2,3E0,1.66E2,4.3E1,2E0,1E0],"tree_param":{"num_deleted":"0","num_feature":"33","num_nodes":"9","size_leaf_vector":"1"}},{"base_weights":[-4.4239655E-2,-7.842108E-2,1.892857E-1,-8.864867E-2,2.4999999E-1,6.285714E-1,4.0909067E-2,-9.939027E-3,-4.5454773E-4,6E-2,-7.5000017E-3,7.2E-2,2.6666665E-2,-4.210529E-3,4.25E-2],"categories":[],"categories_nodes":[],"categories_segments":[],"categories_sizes":[],"default_left":[0,0,0,0,0,0,0,0,0,0,0,0,0,0,0],"id":16,"left_children":[1,3,5,7,9,11,13,-1,-1,-1,-1,-1,-1,-1,-1],"loss_changes":[1.7469877E0,6.6036415E-1,1.7993182E0,1.6667771E-1,7.2749996E-1,3.961897E-2,7.193661E-1,0E0,0E0,0E0,0E0,0E0,0E0,0E0,0E0],"parents":[2147483647,0,0,1,1,2,2,3,3,4,4,5,5,6,6],"right_children":[2,4,6,8,10,12,14,-1,-1,-1,-1,-1,-1,-1,-1],"split_conditions":[6.797E9,9.0753E10,6.761E9,5.5314E10,8.1797E10,2.2236E10,8.9584E10,-1.0064723E9,1.7718608E7,6.8026125E8,-2.387968E6,9.592095E7,2.3971267E8,-3.0349158E6,7.122125E8],"split_indices":[10,2,12,2,0,6,1,0,0,0,0,0,0,0,0],"split_type":[0,0,0,0,0,0,0,0,0,0,0,0,0,0,0],"sum_hessian":[2.16E2,1.89E2,2.7E1,1.84E2,5E0,6E0,2.1E1,1.63E2,2.1E1,2E0,3E0,4E0,2E0,1.8E1,3E0],"tree_param":{"num_deleted":"0","num_feature":"33","num_nodes":"15","size_leaf_vector":"1"}},{"base_weights":[-4.4239655E-2,-6.1428595E-2,4.1249996E-1,-8.846156E-2,1.10344805E-1,7.2E-2,-7.5000017E-3,-9.938653E-3,4.9999775E-4,7.5E-2,-5.416669E-3],"categories":[],"categories_nodes":[],"categories_segments":[],"categories_sizes":[],"default_left":[0,0,0,0,0,0,0,0,0,0,0],"id":17,"left_children":[1,3,5,7,9,-1,-1,-1,-1,-1,-1],"loss_changes":[1.728978E0,9.8490566E-1,1.25325E0,1.8633056E-1,3.092313E0,0E0,0E0,0E0,0E0,0E0,0E0],"parents":[2147483647,0,0,1,1,2,2,3,3,4,4],"right_children":[2,4,6,8,10,-1,-1,-1,-1,-1,-1],"split_conditions":[9.1819E10,6.628E9,2.74764E11,5.5314E10,5.6189E10,6.409912E8,-2.1487618E6,-9.9075706E8,2.8353302E7,8.331469E7,-1.6055021E7],"split_indices":[2,10,20,2,2,0,0,0,0,0,0],"split_type":[0,0,0,0,0,0,0,0,0,0,0],"sum_hessian":[2.16E2,2.09E2,7E0,1.81E2,2.8E1,4E0,3E0,1.62E2,1.9E1,5E0,2.3E1],"tree_param":{"num_deleted":"0","num_feature":"33","num_nodes":"11","size_leaf_vector":"1"}},{"base_weights":[-4.4239655E-2,-6.1428595E-2,4.1249996E-1,-8.846156E-2,1.10344805E-1,7.2E-2,-7.5000017E-3,-9.938653E-3,4.9999775E-4,7.5E-2,-5.416669E-3],"categories":[],"categories_nodes":[],"categories_segments":[],"categories_sizes":[],"default_left":[0,0,0,0,0,0,0,0,0,0,0],"id":18,"left_children":[1,3,5,7,9,-1,-1,-1,-1,-1,-1],"loss_changes":[1.728978E0,9.8490566E-1,1.25325E0,1.8633056E-1,3.092313E0,0E0,0E0,0E0,0E0,0E0,0E0],"parents":[2147483647,0,0,1,1,2,2,3,3,4,4],"right_children":[2,4,6,8,10,-1,-1,-1,-1,-1,-1],"split_conditions":[9.1819E10,6.628E9,2.74764E11,5.5314E10,5.6189E10,5.768921E8,-1.9341312E6,-8.916814E8,2.5518052E7,7.498342E7,-1.4449389E7],"split_indices":[2,10,20,2,2,0,0,0,0,0,0],"split_type":[0,0,0,0,0,0,0,0,0,0,0],"sum_hessian":[2.16E2,2.09E2,7E0,1.81E2,2.8E1,4E0,3E0,1.62E2,1.9E1,5E0,2.3E1],"tree_param":{"num_deleted":"0","num_feature":"33","num_nodes":"11","size_leaf_vector":"1"}},{"base_weights":[-3.963136E-2,-5.666669E-2,4.1249996E-1,-9.935486E-3,6.2499978E-2,7.2E-2,-7.5000017E-3,1.960782E-3,4.1666668E-2],"categories":[],"categories_nodes":[],"categories_segments":[],"categories_sizes":[],"default_left":[0,0,0,0,0,0,0,0,0],"id":19,"left_children":[1,3,5,-1,7,-1,-1,-1,-1],"loss_changes":[1.6947539E0,1.0744811E0,1.25325E0,0E0,8.425246E-1,0E0,0E0,0E0,0E0],"parents":[2147483647,0,0,1,1,2,2,4,4],"right_children":[2,4,6,-1,8,-1,-1,-1,-1],"split_conditions":[9.1819E10,1.29684E11,2.74764E11,-3.2349062E8,6.6666665E0,5.1920323E8,-1.7408E6,2.9991504E7,6.748529E7],"split_indices":[2,24,20,0,30,0,0,0,0],"split_type":[0,0,0,0,0,0,0,0,0],"sum_hessian":[2.16E2,2.09E2,7E0,1.54E2,5.5E1,4E0,3E0,5E1,5E0],"tree_param":{"num_deleted":"0","num_feature":"33","num_nodes":"9","size_leaf_vector":"1"}},{"base_weights":[-3.963136E-2,-5.666669E-2,4.1249996E-1,-9.935486E-3,6.2499978E-2,7.2E-2,-7.5000017E-3,1.960782E-3,4.1666668E-2],"categories":[],"categories_nodes":[],"categories_segments":[],"categories_sizes":[],"default_left":[0,0,0,0,0,0,0,0,0],"id":20,"left_children":[1,3,5,-1,7,-1,-1,-1,-1],"loss_changes":[1.6947539E0,1.0744811E0,1.25325E0,0E0,8.425246E-1,0E0,0E0,0E0,0E0],"parents":[2147483647,0,0,1,1,2,2,4,4],"right_children":[2,4,6,-1,8,-1,-1,-1,-1],"split_conditions":[9.1819E10,1.29684E11,2.74764E11,-2.9114122E8,6.6666665E0,4.6728317E8,-1.5671296E6,2.6992414E7,6.0736716E7],"split_indices":[2,24,20,0,30,0,0,0,0],"split_type":[0,0,0,0,0,0,0,0,0],"sum_hessian":[2.16E2,2.09E2,7E0,1.54E2,5.5E1,4E0,3E0,5E1,5E0],"tree_param":{"num_deleted":"0","num_feature":"33","num_nodes":"9","size_leaf_vector":"1"}},{"base_weights":[-2.119818E-2,-8.687502E-2,1.6034481E-1,-9.936712E-3,6E-2,6.6249996E-1,7.8431346E-2,-5.0000013E-3,7.714286E-2,-6.206899E-3,2.521739E-2],"categories":[],"categories_nodes":[],"categories_segments":[],"categories_sizes":[],"default_left":[0,0,0,0,0,0,0,0,0,0,0],"id":21,"left_children":[1,3,5,-1,-1,7,9,-1,-1,-1,-1],"loss_changes":[2.6012578E0,1.4325006E0,2.3337686E0,0E0,0E0,6.594641E-1,1.2606075E0,0E0,0E0,0E0,0E0],"parents":[2147483647,0,0,1,1,2,2,5,5,6,6],"right_children":[2,4,6,-1,-1,8,10,-1,-1,-1,-1],"split_conditions":[5.2579E10,6.628E9,5.8747E10,-8.5904416E8,5.466317E7,3.5966E10,4E0,-1.7733222E7,7.3856616E7,-4.36642E6,3.5296003E8],"split_indices":[2,10,4,0,0,0,29,0,0,0,0],"split_type":[0,0,0,0,0,0,0,0,0,0,0],"sum_hessian":[2.16E2,1.59E2,5.7E1,1.57E2,2E0,7E0,5E1,1E0,6E0,2.8E1,2.2E1],"tree_param":{"num_deleted":"0","num_feature":"33","num_nodes":"11","size_leaf_vector":"1"}},{"base_weights":[-4.4239655E-2,-6.1057717E-2,3.0999997E-1,-9.930558E-3,2.461536E-2,7.2E-2,-8.333336E-3,3.25E-2,-4.259262E-3],"categories":[],"categories_nodes":[],"categories_segments":[],"categories_sizes":[],"default_left":[0,0,0,0,0,0,0,0,0],"id":22,"left_children":[1,3,5,-1,7,-1,-1,-1,-1],"loss_changes":[1.3117323E0,6.8402135E-1,1.6726667E0,0E0,1.3260784E0,0E0,0E0,0E0,0E0],"parents":[2147483647,0,0,1,1,2,2,4,4],"right_children":[2,4,6,-1,8,-1,-1,-1,-1],"split_conditions":[9.0146E10,4.5646E10,2.379275E10,-1.1760827E9,9.192E9,3.852591E8,-9.740288E5,6.3015892E7,-7.8926675E6],"split_indices":[2,1,8,0,7,0,0,0,0],"split_type":[0,0,0,0,0,0,0,0,0],"sum_hessian":[2.16E2,2.07E2,9E0,1.43E2,6.4E1,4E0,5E0,1.1E1,5.3E1],"tree_param":{"num_deleted":"0","num_feature":"33","num_nodes":"9","size_leaf_vector":"1"}},{"base_weights":[-3.5023063E-2,-9.251703E-2,8.450702E-2,-9.931509E-3,4.4999998E-2,2.7407405E-1,-3.1111134E-2,6.153844E-3,4.3999996E-2,-7.317075E-3,3.2E-2],"categories":[],"categories_nodes":[],"categories_segments":[],"categories_sizes":[],"default_left":[0,0,0,0,0,0,0,0,0,0,0],"id":23,"left_children":[1,3,5,-1,-1,7,9,-1,-1,-1,-1],"loss_changes":[1.4990985E0,5.868372E-1,1.5646615E0,0E0,0E0,9.250827E-1,6.879567E-1,0E0,0E0,0E0,0E0],"parents":[2147483647,0,0,1,1,2,2,5,5,6,6],"right_children":[2,4,6,-1,-1,8,10,-1,-1,-1,-1],"split_conditions":[4.5646E10,6.628E9,6.1137E10,-1.2540005E9,1.0500915E7,5.2579E10,1.11439E11,5.9506356E7,1.4508133E8,-9.710306E6,3.4673296E8],"split_indices":[2,10,0,0,0,2,2,0,0,0,0],"split_type":[0,0,0,0,0,0,0,0,0,0,0],"sum_hessian":[2.16E2,1.46E2,7E1,1.45E2,1E0,2.6E1,4.4E1,1.2E1,1.4E1,4E1,4E0],"tree_param":{"num_deleted":"0","num_feature":"33","num_nodes":"11","size_leaf_vector":"1"}},{"base_weights":[-4.4239655E-2,-9.926473E-3,4.7560953E-2,4.0999997E-1,-2.7397496E-3,8.333332E-3,7.2E-2,-3.7878812E-3,2.8749997E-2],"categories":[],"categories_nodes":[],"categories_segments":[],"categories_sizes":[],"default_left":[0,0,0,0,0,0,0,0,0],"id":24,"left_children":[1,-1,3,5,7,-1,-1,-1,-1],"loss_changes":[1.100861E0,0E0,1.4960601E0,9.5266676E-1,7.5539905E-1,0E0,0E0,0E0,0E0],"parents":[2147483647,0,0,2,2,3,3,4,4],"right_children":[2,-1,4,6,8,-1,-1,-1,-1],"split_conditions":[4.27275E10,-1.6077019E9,8.6551E10,4.563175E10,9.1819E10,8.714035E7,6.0674868E7,-5.621679E6,3.120595E8],"split_indices":[4,0,21,4,2,0,0,0,0],"split_type":[0,0,0,0,0,0,0,0,0],"sum_hessian":[2.16E2,1.35E2,8.1E1,9E0,7.2E1,5E0,4E0,6.5E1,7E0],"tree_param":{"num_deleted":"0","num_feature":"33","num_nodes":"9","size_leaf_vector":"1"}},{"base_weights":[-3.5023063E-2,-9.925376E-3,6.785712E-2,-8.955248E-3,3.4999996E-1,1.5624997E-2,-5.9615406E-3,-7.5000017E-3,4.3999996E-2],"categories":[0,1,2],"categories_nodes":[3],"categories_segments":[0],"categories_sizes":[3],"default_left":[0,0,0,1,0,0,0,0,0],"id":25,"left_children":[1,-1,3,5,7,-1,-1,-1,-1],"loss_changes":[1.4406853E0,0E0,1.8235874E0,5.7005954E-1,7.214999E-1,0E0,0E0,0E0,0E0],"parents":[2147483647,0,0,2,2,3,3,4,4],"right_children":[2,-1,4,6,8,-1,-1,-1,-1],"split_conditions":[3.8297E10,-1.5819703E9,5.7E0,1E-45,1.593E9,1.4007541E8,-8.183317E6,-3.4201968E8,1.9744888E8],"split_indices":[2,0,29,32,14,0,0,0,0],"split_type":[0,0,0,1,0,0,0,0,0],"sum_hessian":[2.16E2,1.33E2,8.3E1,6.6E1,1.7E1,1.5E1,5.1E1,3E0,1.4E1],"tree_param":{"num_deleted":"0","num_feature":"33","num_nodes":"9","size_leaf_vector":"1"}},{"base_weights":[-4.884795E-2,-9.931975E-3,5.6338005E-2,5.833333E-1,7.575734E-3,-5.0000013E-3,7.2E-2,-3.0508498E-3,2.8749997E-2],"categories":[],"categories_nodes":[],"categories_segments":[],"categories_sizes":[],"default_left":[0,0,0,0,0,0,0,0,0],"id":26,"left_children":[1,-1,3,5,7,-1,-1,-1,-1],"loss_changes":[1.1576321E0,0E0,1.8201023E0,5.553334E-1,7.123773E-1,0E0,0E0,0E0,0E0],"parents":[2147483647,0,0,2,2,3,3,4,4],"right_children":[2,-1,4,6,8,-1,-1,-1,-1],"split_conditions":[4.5646E10,-9.2057683E8,8.6551E10,6.9E9,9.1819E10,-1.4614528E8,5.8681756E7,-5.7222785E6,2.668462E8],"split_indices":[2,0,21,5,2,0,0,0,0],"split_type":[0,0,0,0,0,0,0,0,0],"sum_hessian":[2.16E2,1.46E2,7E1,5E0,6.5E1,1E0,4E0,5.8E1,7E0],"tree_param":{"num_deleted":"0","num_feature":"33","num_nodes":"9","size_leaf_vector":"1"}},{"base_weights":[-3.963136E-2,-9.925376E-3,5.595236E-2,-2.3880621E-2,3.4999996E-1,-3.7878812E-3,4.4999998E-2,-7.5000017E-3,4.3999996E-2],"categories":[],"categories_nodes":[],"categories_segments":[],"categories_sizes":[],"default_left":[0,0,0,0,0,0,0,0,0],"id":27,"left_children":[1,-1,3,5,7,-1,-1,-1,-1],"loss_changes":[1.2422214E0,0E0,1.9802327E0,4.6148804E-1,7.214999E-1,0E0,0E0,0E0,0E0],"parents":[2147483647,0,0,2,2,3,3,4,4],"right_children":[2,-1,4,6,8,-1,-1,-1,-1],"split_conditions":[3.8297E10,-1.3317157E9,5.7E0,5.23013E11,1.593E9,-6.2059335E6,5.2097844E7,-2.1576008E8,1.5101907E8],"split_indices":[2,0,29,17,14,0,0,0,0],"split_type":[0,0,0,0,0,0,0,0,0],"sum_hessian":[2.16E2,1.33E2,8.3E1,6.6E1,1.7E1,6.5E1,1E0,3E0,1.4E1],"tree_param":{"num_deleted":"0","num_feature":"33","num_nodes":"9","size_leaf_vector":"1"}},{"base_weights":[-4.884795E-2,-6.1428595E-2,2.8749996E-1,-9.2993654E-2,3.148146E-2,6.7499995E-2,-8.000002E-3,-9.934213E-3,8.333332E-3,6.7499995E-2,-1.9607868E-3],"categories":[],"categories_nodes":[],"categories_segments":[],"categories_sizes":[],"default_left":[0,0,0,0,0,0,0,0,0,0,0],"id":28,"left_children":[1,3,5,7,9,-1,-1,-1,-1,-1,-1],"loss_changes":[9.3589056E-1,6.18797E-1,1.1932501E0,1.8402529E-1,1.7885894E0,0E0,0E0,0E0,0E0,0E0,0E0],"parents":[2147483647,0,0,1,1,2,2,3,3,4,4],"right_children":[2,4,6,8,10,-1,-1,-1,-1,-1,-1],"split_conditions":[9.1819E10,1.32425E11,2.369E10,1.29684E11,2.594E9,2.4078254E8,-1.0682696E8,-2.7378474E8,1.3892403E7,5.6622284E7,-4.8671555E6],"split_indices":[2,23,8,25,10,0,0,0,0,0,0],"split_type":[0,0,0,0,0,0,0,0,0,0,0],"sum_hessian":[2.16E2,2.09E2,7E0,1.56E2,5.3E1,3E0,4E0,1.51E2,5E0,3E0,5E1],"tree_param":{"num_deleted":"0","num_feature":"33","num_nodes":"11","size_leaf_vector":"1"}},{"base_weights":[-2.5806475E-2,-9.925376E-3,9.166665E-2,-4.615387E-2,2.0652172E-1,4.4999998E-2,-7.1052657E-3,3.826087E-2,2.9166646E-3],"categories":[],"categories_nodes":[],"categories_segments":[],"categories_sizes":[],"default_left":[0,0,0,0,0,0,0,0,0],"id":29,"left_children":[1,-1,3,5,7,-1,-1,-1,-1],"loss_changes":[1.8813919E0,0E0,1.3392E0,5.1376516E-1,1.4254167E0,0E0,0E0,0E0,0E0],"parents":[2147483647,0,0,2,2,3,3,4,4],"right_children":[2,-1,4,6,8,-1,-1,-1,-1],"split_conditions":[3.8297E10,-1.1711656E9,4E0,5.1991E10,1.5051E10,1.3910835E7,-2.521196E7,5.952471E7,1.1884226E8],"split_indices":[2,0,29,24,5,0,0,0,0],"split_type":[0,0,0,0,0,0,0,0,0],"sum_hessian":[2.16E2,1.33E2,8.3E1,3.8E1,4.5E1,1E0,3.7E1,2.2E1,2.3E1],"tree_param":{"num_deleted":"0","num_feature":"33","num_nodes":"9","size_leaf_vector":"1"}},{"base_weights":[-2.119818E-2,-9.923667E-3,9.65517E-2,-4.615387E-2,2.0816325E-1,4.4999998E-2,-7.1052657E-3,3.653846E-2,2.9166646E-3],"categories":[],"categories_nodes":[],"categories_segments":[],"categories_sizes":[],"default_left":[0,0,0,0,0,0,0,0,0],"id":30,"left_children":[1,-1,3,5,7,-1,-1,-1,-1],"loss_changes":[2.0035992E0,0E0,1.3953077E0,5.1376516E-1,1.3683054E0,0E0,0E0,0E0,0E0],"parents":[2147483647,0,0,2,2,3,3,4,4],"right_children":[2,-1,4,6,8,-1,-1,-1,-1],"split_conditions":[3.7432E10,-1.2150913E9,4E0,5.1991E10,1.5051E10,1.2519834E7,-2.2690546E7,5.2572156E7,1.0695813E8],"split_indices":[2,0,29,24,5,0,0,0,0],"split_type":[0,0,0,0,0,0,0,0,0],"sum_hessian":[2.16E2,1.3E2,8.6E1,3.8E1,4.8E1,1E0,3.7E1,2.5E1,2.3E1],"tree_param":{"num_deleted":"0","num_feature":"33","num_nodes":"9","size_leaf_vector":"1"}},{"base_weights":[-2.5806475E-2,-9.923667E-3,8.5057445E-2,2.7407405E-1,-2.3451008E-8,-8.750002E-3,4.0499996E-2,-4.561406E-3,5.1999997E-2],"categories":[],"categories_nodes":[],"categories_segments":[],"categories_sizes":[],"default_left":[0,0,0,0,0,0,0,0,0],"id":31,"left_children":[1,-1,3,5,7,-1,-1,-1,-1],"loss_changes":[1.7749856E0,0E0,1.3987228E0,1.313602E0,1.4705966E0,0E0,0E0,0E0,0E0],"parents":[2147483647,0,0,2,2,3,3,4,4],"right_children":[2,-1,4,6,8,-1,-1,-1,-1],"split_conditions":[3.7432E10,-1.0935822E9,1.1649E10,4.2E0,6.468E9,-2.5385861E8,4.931543E7,-5.095594E6,1.9412501E8],"split_indices":[2,0,5,29,15,0,0,0,0],"split_type":[0,0,0,0,0,0,0,0,0],"sum_hessian":[2.16E2,1.3E2,8.6E1,2.6E1,6E1,7E0,1.9E1,5.6E1,4E0],"tree_param":{"num_deleted":"0","num_feature":"33","num_nodes":"9","size_leaf_vector":"1"}},{"base_weights":[-3.5023063E-2,-9.160308E-2,5.057469E-2,-9.917358E-3,-2.1674417E-8,-2.5000023E-2,3.0499998E-1,4.4999998E-2,-9.000002E-3,-3.8805995E-3,4.4999998E-2,5.7777774E-2,7.499998E-3],"categories":[],"categories_nodes":[],"categories_segments":[],"categories_sizes":[],"default_left":[0,0,0,0,0,0,0,0,0,0,0,0,0],"id":32,"left_children":[1,3,5,-1,7,9,11,-1,-1,-1,-1,-1,-1],"loss_changes":[1.0555902E0,9.084606E-2,1.6804714E0,0E0,4.86E-1,4.6339554E-1,1.2114443E0,0E0,0E0,0E0,0E0,0E0,0E0],"parents":[2147483647,0,0,1,1,2,2,4,4,5,5,6,6],"right_children":[2,4,6,-1,8,10,12,-1,-1,-1,-1,-1,-1],"split_conditions":[3.8297E10,1.912E9,5.7E0,-1.1635818E9,5.32106E8,5.23013E11,2.773E9,1.0463846E8,-3.6382118E6,-1.3361974E6,2.530427E7,4.4939676E7,1.2374406E8],"split_indices":[1,14,29,0,9,17,15,0,0,0,0,0,0],"split_type":[0,0,0,0,0,0,0,0,0,0,0,0,0],"sum_hessian":[2.16E2,1.3E2,8.6E1,1.2E2,1E1,6.7E1,1.9E1,1E0,9E0,6.6E1,1E0,8E0,1.1E1],"tree_param":{"num_deleted":"0","num_feature":"33","num_nodes":"13","size_leaf_vector":"1"}},{"base_weights":[-4.4239655E-2,-9.92308E-3,3.7499975E-2,2.0869564E-1,-2.2727296E-2,4.8571426E-2,8.2352925E-3,1.27777755E-2,-7.7551045E-3],"categories":[0,1,2],"categories_nodes":[2],"categories_segments":[0],"categories_sizes":[3],"default_left":[0,0,1,0,0,0,0,0,0],"id":33,"left_children":[1,-1,3,5,7,-1,-1,-1,-1],"loss_changes":[9.791266E-1,0E0,9.1208005E-1,7.6498365E-1,5.544919E-1,0E0,0E0,0E0,0E0],"parents":[2147483647,0,0,2,2,3,3,4,4],"right_children":[2,-1,4,6,8,-1,-1,-1,-1],"split_conditions":[1.86975E9,-6.090036E8,1E-45,7.8852E10,4.6333E10,1.7484595E8,1.3004758E7,4.000088E7,-2.1739866E7],"split_indices":[16,0,32,23,1,0,0,0,0],"split_type":[0,0,1,0,0,0,0,0,0],"sum_hessian":[2.16E2,1.29E2,8.7E1,2.2E1,6.5E1,6E0,1.6E1,1.7E1,4.8E1],"tree_param":{"num_deleted":"0","num_feature":"33","num_nodes":"9","size_leaf_vector":"1"}},{"base_weights":[-2.5806475E-2,-9.153849E-2,7.1590886E-2,-9.91667E-3,-2.1674417E-8,5.833333E-1,3.3734918E-2,4.4999998E-2,-9.000002E-3,7.2E-2,-5.0000013E-3,6.578924E-4,2.8749997E-2],"categories":[],"categories_nodes":[],"categories_segments":[],"categories_sizes":[],"default_left":[0,0,0,0,0,0,0,0,0,0,0,0,0],"id":34,"left_children":[1,3,5,-1,7,9,11,-1,-1,-1,-1,-1,-1],"loss_changes":[1.3958143E0,9.077561E-2,1.6851017E0,0E0,4.86E-1,5.553334E-1,5.7008165E-1,0E0,0E0,0E0,0E0,0E0,0E0],"parents":[2147483647,0,0,1,1,2,2,4,4,5,5,6,6],"right_children":[2,4,6,-1,8,10,12,-1,-1,-1,-1,-1,-1],"split_conditions":[3.7154E10,1.86975E9,3.8944E10,-1.1043031E9,2.475E10,4.6333E10,9.1819E10,7.6689816E7,-5.106815E8,5.944484E7,-1.1469766E9,5.1699565E6,1.5736178E8],"split_indices":[2,16,2,0,1,1,2,0,0,0,0,0,0],"split_type":[0,0,0,0,0,0,0,0,0,0,0,0,0],"sum_hessian":[2.16E2,1.29E2,8.7E1,1.19E2,1E1,5E0,8.2E1,1E0,9E0,4E0,1E0,7.5E1,7E0],"tree_param":{"num_deleted":"0","num_feature":"33","num_nodes":"13","size_leaf_vector":"1"}},{"base_weights":[-2.5806475E-2,-9.1472894E-2,6.96629E-2,-9.915969E-3,-2.1674417E-8,6.285714E-1,2.1686723E-2,4.4999998E-2,-9.000002E-3,7.5E-2,-5.0000013E-3,2.531622E-4,3.2E-2],"categories":[],"categories_nodes":[],"categories_segments":[],"categories_sizes":[],"default_left":[0,0,0,0,0,0,0,0,0,0,0,0,0],"id":35,"left_children":[1,3,5,-1,7,9,11,-1,-1,-1,-1,-1,-1],"loss_changes":[1.3667738E0,9.07042E-2,2.3728404E0,0E0,4.86E-1,6.142857E-1,4.7347024E-1,0E0,0E0,0E0,0E0,0E0,0E0],"parents":[2147483647,0,0,1,1,2,2,4,4,5,5,6,6],"right_children":[2,4,6,-1,8,10,12,-1,-1,-1,-1,-1,-1],"split_conditions":[3.6906E10,1.86975E9,3.8944E10,-1.0617806E9,2.475E10,4.6333E10,1.11439E11,6.902088E7,-4.596134E8,6.6627584E7,-1.03227885E9,2.1813092E6,1.4162576E8],"split_indices":[2,16,2,0,1,1,2,0,0,0,0,0,0],"split_type":[0,0,0,0,0,0,0,0,0,0,0,0,0],"sum_hessian":[2.16E2,1.28E2,8.8E1,1.18E2,1E1,6E0,8.2E1,1E0,9E0,5E0,1E0,7.8E1,4E0],"tree_param":{"num_deleted":"0","num_feature":"33","num_nodes":"13","size_leaf_vector":"1"}},{"base_weights":[-2.119818E-2,-9.112906E-2,7.1276575E-2,-9.915257E-3,5.7142835E-2,7.2E-2,3.444442E-2,4.4999998E-2,-8.333336E-3,1.5357141E-2,-1.9047642E-3],"categories":[],"categories_nodes":[],"categories_segments":[],"categories_sizes":[],"default_left":[0,0,0,0,0,0,0,0,0,0,0],"id":36,"left_children":[1,3,5,-1,7,-1,9,-1,-1,-1,-1],"loss_changes":[1.4097997E0,1.531837E-1,2.2212245E0,0E0,4.2380953E-1,0E0,5.764365E-1,0E0,0E0,0E0,0E0],"parents":[2147483647,0,0,1,1,2,2,4,4,6,6],"right_children":[2,4,6,-1,8,-1,10,-1,-1,-1,-1],"split_conditions":[3.5021E10,1.86975E9,1.31875E9,-9.898677E8,2.475E10,5.996462E7,2.773E9,6.2118708E7,-4.7965226E8,2.6401334E7,-3.1907022E6],"split_indices":[2,16,16,0,1,0,15,0,0,0,0],"split_type":[0,0,0,0,0,0,0,0,0,0,0],"sum_hessian":[2.16E2,1.23E2,9.3E1,1.17E2,6E0,4E0,8.9E1,1E0,5E0,2.7E1,6.2E1],"tree_param":{"num_deleted":"0","num_feature":"33","num_nodes":"11","size_leaf_vector":"1"}},{"base_weights":[-2.119818E-2,-9.112906E-2,7.1276575E-2,-9.915257E-3,5.7142835E-2,7.2E-2,3.444442E-2,4.4999998E-2,-8.333336E-3,1.5357141E-2,-1.9047642E-3],"categories":[],"categories_nodes":[],"categories_segments":[],"categories_sizes":[],"default_left":[0,0,0,0,0,0,0,0,0,0,0],"id":37,"left_children":[1,3,5,-1,7,-1,9,-1,-1,-1,-1],"loss_changes":[1.4097997E0,1.531837E-1,2.2212245E0,0E0,4.2380953E-1,0E0,5.764365E-1,0E0,0E0,0E0,0E0],"parents":[2147483647,0,0,1,1,2,2,4,4,6,6],"right_children":[2,4,6,-1,8,-1,10,-1,-1,-1,-1],"split_conditions":[3.5021E10,1.86975E9,1.31875E9,-8.9088096E8,2.475E10,5.3968076E7,2.773E9,5.5906716E7,-4.3168688E8,2.3761054E7,-2.8720335E6],"split_indices":[2,16,16,0,1,0,15,0,0,0,0],"split_type":[0,0,0,0,0,0,0,0,0,0,0],"sum_hessian":[2.16E2,1.23E2,9.3E1,1.17E2,6E0,4E0,8.9E1,1E0,5E0,2.7E1,6.2E1],"tree_param":{"num_deleted":"0","num_feature":"33","num_nodes":"11","size_leaf_vector":"1"}},{"base_weights":[-2.119818E-2,-9.112906E-2,7.1276575E-2,-9.915257E-3,5.7142835E-2,7.2E-2,3.444442E-2,4.4999998E-2,-8.333336E-3,1.5357141E-2,-1.9047642E-3],"categories":[],"categories_nodes":[],"categories_segments":[],"categories_sizes":[],"default_left":[0,0,0,0,0,0,0,0,0,0,0],"id":38,"left_children":[1,3,5,-1,7,-1,9,-1,-1,-1,-1],"loss_changes":[1.4097997E0,1.531837E-1,2.2212245E0,0E0,4.2380953E-1,0E0,5.764365E-1,0E0,0E0,0E0,0E0],"parents":[2147483647,0,0,1,1,2,2,4,4,6,6],"right_children":[2,4,6,-1,8,-1,10,-1,-1,-1,-1],"split_conditions":[3.5021E10,1.86975E9,1.31875E9,-8.017929E8,2.475E10,4.8571188E7,2.773E9,5.0316084E7,-3.885183E8,2.1384636E7,-2.5844942E6],"split_indices":[2,16,16,0,1,0,15,0,0,0,0],"split_type":[0,0,0,0,0,0,0,0,0,0,0],"sum_hessian":[2.16E2,1.23E2,9.3E1,1.17E2,6E0,4E0,8.9E1,1E0,5E0,2.7E1,6.2E1],"tree_param":{"num_deleted":"0","num_feature":"33","num_nodes":"11","size_leaf_vector":"1"}},{"base_weights":[-2.5806475E-2,-9.112906E-2,6.0638275E-2,-9.915257E-3,5.7142835E-2,6.7499995E-2,3.296701E-2,4.4999998E-2,-8.333336E-3,2.8749997E-2,8.3333097E-4],"categories":[],"categories_nodes":[],"categories_segments":[],"categories_sizes":[],"default_left":[0,0,0,0,0,0,0,0,0,0,0],"id":39,"left_children":[1,3,5,-1,7,-1,9,-1,-1,-1,-1],"loss_changes":[1.2308803E0,1.531837E-1,1.5757627E0,0E0,4.2380953E-1,0E0,5.6818223E-1,0E0,0E0,0E0,0E0],"parents":[2147483647,0,0,1,1,2,2,4,4,6,6],"right_children":[2,4,6,-1,8,-1,10,-1,-1,-1,-1],"split_conditions":[3.5021E10,1.86975E9,1.31025E9,-7.216137E8,2.475E10,4.371415E7,7.796E9,4.5284556E7,-3.4966653E8,2.7999438E7,2.1354902E6],"split_indices":[2,16,16,0,1,0,6,0,0,0,0],"split_type":[0,0,0,0,0,0,0,0,0,0,0],"sum_hessian":[2.16E2,1.23E2,9.3E1,1.17E2,6E0,3E0,9E1,1E0,5E0,7E0,8.3E1],"tree_param":{"num_deleted":"0","num_feature":"33","num_nodes":"11","size_leaf_vector":"1"}},{"base_weights":[-2.119818E-2,-7.816904E-2,8.5526295E-2,1.7499998E-1,-8.489211E-2,5.7777774E-1,1.9117624E-2,-6.6666687E-3,4.4999998E-2,-9.191179E-3,1.7499998E-2,-5.0000013E-3,6.625E-2,-4.6875235E-4,3.2E-2],"categories":[],"categories_nodes":[],"categories_segments":[],"categories_sizes":[],"default_left":[0,0,0,0,0,0,0,0,0,0,0,0,0,0,0],"id":40,"left_children":[1,3,5,7,9,11,13,-1,-1,-1,-1,-1,-1,-1,-1],"loss_changes":[1.3260856E0,2.5655055E-1,2.4733763E0,2.9583335E-1,2.6967037E-1,5.118058E-1,4.8855335E-1,0E0,0E0,0E0,0E0,0E0,0E0,0E0,0E0],"parents":[2147483647,0,0,1,1,2,2,3,3,4,4,5,5,6,6],"right_children":[2,4,6,8,10,12,14,-1,-1,-1,-1,-1,-1,-1,-1],"split_conditions":[2.63281E11,-4.92E8,4.1706E10,3.0571E10,1.3078E10,3.5023E10,1.11439E11,-5.472793E8,3.916759E7,-4.5142483E8,2.0099072E6,-7.897907E7,3.93429E7,7.191921E4,1.2811387E8],"split_indices":[19,6,2,0,6,0,2,0,0,0,0,0,0,0,0],"split_type":[0,0,0,0,0,0,0,0,0,0,0,0,0,0,0],"sum_hessian":[2.16E2,1.41E2,7.5E1,3E0,1.38E2,8E0,6.7E1,2E0,1E0,1.35E2,3E0,1E0,7E0,6.3E1,4E0],"tree_param":{"num_deleted":"0","num_feature":"33","num_nodes":"15","size_leaf_vector":"1"}},{"base_weights":[-7.3732957E-3,-9.90741E-3,8.2727246E-2,1.2345656E-2,2.6999998E-1,-3.1666688E-3,1.3181816E-2,4.0499996E-2,-2.1674418E-9],"categories":[],"categories_nodes":[],"categories_segments":[],"categories_sizes":[],"default_left":[0,0,0,0,0,0,0,0,0],"id":41,"left_children":[1,-1,3,5,7,-1,-1,-1,-1],"loss_changes":[1.8011135E0,0E0,1.4465274E0,4.300937E-1,1.0935001E0,0E0,0E0,0E0,0E0],"parents":[2147483647,0,0,2,2,3,3,4,4],"right_children":[2,-1,4,6,8,-1,-1,-1,-1],"split_conditions":[2.6741E10,-1.06708736E9,5.7E0,2.7530055E4,4.6333E10,-2.8229678E6,4.0934916E7,4.4659916E7,6.4838108E7],"split_indices":[2,0,29,26,1,0,0,0,0],"split_type":[0,0,0,0,0,0,0,0,0],"sum_hessian":[2.16E2,1.07E2,1.09E2,8E1,2.9E1,5.9E1,2.1E1,1.9E1,1E1],"tree_param":{"num_deleted":"0","num_feature":"33","num_nodes":"9","size_leaf_vector":"1"}},{"base_weights":[-1.6589886E-2,-8.409093E-2,8.720928E-2,1.7499998E-1,-9.1472894E-2,4.0499997E-1,-8.955248E-3,-6.6666687E-3,4.4999998E-2,-9.909912E-3,-4.210529E-3,6E-2,3.749998E-3,-3.492066E-3,3.2E-2],"categories":[],"categories_nodes":[],"categories_segments":[],"categories_sizes":[],"default_left":[0,0,0,0,0,0,0,0,0,0,0,0,0,0,0],"id":42,"left_children":[1,3,5,7,9,11,13,-1,-1,-1,-1,-1,-1,-1,-1],"loss_changes":[1.5277555E0,2.684707E-1,2.6318035E0,2.9583335E-1,4.4394493E-2,1.4107502E0,5.834523E-1,0E0,0E0,0E0,0E0,0E0,0E0,0E0,0E0],"parents":[2147483647,0,0,1,1,2,2,3,3,4,4,5,5,6,6],"right_children":[2,4,6,8,10,12,14,-1,-1,-1,-1,-1,-1,-1,-1],"split_conditions":[1.006725E10,-4.92E8,4.6333E10,3.0571E10,1.86975E9,1.1649E10,1.11439E11,-4.9226915E8,3.5533212E7,-7.541983E8,5.751852E6,3.813126E7,1.7815552E7,-2.3797765E6,1.11208856E8],"split_indices":[8,6,1,0,16,5,2,0,0,0,0,0,0,0,0],"split_type":[0,0,0,0,0,0,0,0,0,0,0,0,0,0,0],"sum_hessian":[2.16E2,1.31E2,8.5E1,3E0,1.28E2,1.9E1,6.6E1,2E0,1E0,1.1E2,1.8E1,1.2E1,7E0,6.2E1,4E0],"tree_param":{"num_deleted":"0","num_feature":"33","num_nodes":"15","size_leaf_vector":"1"}},{"base_weights":[-1.6589886E-2,-8.409093E-2,8.720928E-2,1.7499998E-1,-9.1472894E-2,4.0499997E-1,-8.955248E-3,-6.6666687E-3,4.4999998E-2,-9.909912E-3,-4.210529E-3,6E-2,3.749998E-3,-3.492066E-3,3.2E-2],"categories":[],"categories_nodes":[],"categories_segments":[],"categories_sizes":[],"default_left":[0,0,0,0,0,0,0,0,0,0,0,0,0,0,0],"id":43,"left_children":[1,3,5,7,9,11,13,-1,-1,-1,-1,-1,-1,-1,-1],"loss_changes":[1.5277555E0,2.684707E-1,2.6318035E0,2.9583335E-1,4.4394493E-2,1.4107502E0,5.834523E-1,0E0,0E0,0E0,0E0,0E0,0E0,0E0,0E0],"parents":[2147483647,0,0,1,1,2,2,3,3,4,4,5,5,6,6],"right_children":[2,4,6,8,10,12,14,-1,-1,-1,-1,-1,-1,-1,-1],"split_conditions":[1.006725E10,-4.92E8,4.6333E10,3.0571E10,1.86975E9,1.1649E10,1.11439E11,-4.430422E8,3.197993E7,-6.787786E8,5.1767735E6,3.4318296E7,1.6033792E7,-2.1413892E6,1.00088216E8],"split_indices":[8,6,1,0,16,5,2,0,0,0,0,0,0,0,0],"split_type":[0,0,0,0,0,0,0,0,0,0,0,0,0,0,0],"sum_hessian":[2.16E2,1.31E2,8.5E1,3E0,1.28E2,1.9E1,6.6E1,2E0,1E0,1.1E2,1.8E1,1.2E1,7E0,6.2E1,4E0],"tree_param":{"num_deleted":"0","num_feature":"33","num_nodes":"15","size_leaf_vector":"1"}},{"base_weights":[-3.041477E-2,-9.90741E-3,3.7272703E-2,4.1666666E-1,1.5238072E-2,6.7499995E-2,-6.6666687E-3,-5.8823554E-3,8.363634E-3],"categories":[1,2],"categories_nodes":[3],"categories_segments":[0],"categories_sizes":[2],"default_left":[0,0,0,1,0,0,0,0,0],"id":44,"left_children":[1,-1,3,5,7,-1,-1,-1,-1],"loss_changes":[1.0121734E0,0E0,9.132296E-1,7.9416656E-1,5.3681695E-1,0E0,0E0,0E0,0E0],"parents":[2147483647,0,0,2,2,3,3,4,4],"right_children":[2,-1,4,6,8,-1,-1,-1,-1],"split_conditions":[2.6741E10,-8.170815E8,4.8627E10,1E-45,4E0,8.033977E7,-3.2571043E8,-7.156801E6,2.3798374E7],"split_indices":[2,0,20,32,29,0,0,0,0],"split_type":[0,0,0,1,0,0,0,0,0],"sum_hessian":[2.16E2,1.07E2,1.09E2,5E0,1.04E2,3E0,2E0,5E1,5.4E1],"tree_param":{"num_deleted":"0","num_feature":"33","num_nodes":"9","size_leaf_vector":"1"}},{"base_weights":[-3.041477E-2,-9.90741E-3,3.7272703E-2,4.1666666E-1,1.5238072E-2,6.7499995E-2,-6.6666687E-3,-5.8823554E-3,8.363634E-3],"categories":[1,2],"categories_nodes":[3],"categories_segments":[0],"categories_sizes":[2],"default_left":[0,0,0,1,0,0,0,0,0],"id":45,"left_children":[1,-1,3,5,7,-1,-1,-1,-1],"loss_changes":[1.0121734E0,0E0,9.132296E-1,7.9416656E-1,5.3681695E-1,0E0,0E0,0E0,0E0],"parents":[2147483647,0,0,2,2,3,3,4,4],"right_children":[2,-1,4,6,8,-1,-1,-1,-1],"split_conditions":[2.6741E10,-7.3537325E8,4.8627E10,1E-45,4E0,7.230587E7,-2.9313946E8,-6.44082E6,2.1418598E7],"split_indices":[2,0,20,32,29,0,0,0,0],"split_type":[0,0,0,1,0,0,0,0,0],"sum_hessian":[2.16E2,1.07E2,1.09E2,5E0,1.04E2,3E0,2E0,5E1,5.4E1],"tree_param":{"num_deleted":"0","num_feature":"33","num_nodes":"9","size_leaf_vector":"1"}},{"base_weights":[-3.041477E-2,-9.90741E-3,3.7272703E-2,4.1666666E-1,1.5238072E-2,6.7499995E-2,-6.6666687E-3,-5.8823554E-3,8.363634E-3],"categories":[1,2],"categories_nodes":[3],"categories_segments":[0],"categories_sizes":[2],"default_left":[0,0,0,1,0,0,0,0,0],"id":46,"left_children":[1,-1,3,5,7,-1,-1,-1,-1],"loss_changes":[1.0121734E0,0E0,9.132296E-1,7.9416656E-1,5.3681695E-1,0E0,0E0,0E0,0E0],"parents":[2147483647,0,0,2,2,3,3,4,4],"right_children":[2,-1,4,6,8,-1,-1,-1,-1],"split_conditions":[2.6741E10,-6.618359E8,4.8627E10,1E-45,4E0,6.50752E7,-2.6382562E8,-5.796929E6,1.92768E7],"split_indices":[2,0,20,32,29,0,0,0,0],"split_type":[0,0,0,1,0,0,0,0,0],"sum_hessian":[2.16E2,1.07E2,1.09E2,5E0,1.04E2,3E0,2E0,5E1,5.4E1],"tree_param":{"num_deleted":"0","num_feature":"33","num_nodes":"9","size_leaf_vector":"1"}},{"base_weights":[-2.119818E-2,-9.904765E-3,5.132741E-2,4.1249996E-1,2.3584882E-2,7.2E-2,-7.5000017E-3,-9.600002E-3,5.9756073E-3],"categories":[1,2],"categories_nodes":[3],"categories_segments":[0],"categories_sizes":[2],"default_left":[0,0,0,1,0,0,0,0,0],"id":47,"left_children":[1,-1,3,5,7,-1,-1,-1,-1],"loss_changes":[1.2302828E0,0E0,1.122513E0,1.25325E0,4.642426E-1,0E0,0E0,0E0,0E0],"parents":[2147483647,0,0,2,2,3,3,4,4],"right_children":[2,-1,4,6,8,-1,-1,-1,-1],"split_conditions":[2.827E10,-6.511018E8,4.8627E10,1E-45,9.014E9,5.8567884E7,-1.0615501E8,-8.374272E6,7.734393E6],"split_indices":[0,0,20,32,7,0,0,0,0],"split_type":[0,0,0,1,0,0,0,0,0],"sum_hessian":[2.16E2,1.04E2,1.12E2,7E0,1.05E2,4E0,3E0,2.4E1,8.1E1],"tree_param":{"num_deleted":"0","num_feature":"33","num_nodes":"9","size_leaf_vector":"1"}},{"base_weights":[-2.5806475E-2,-9.904765E-3,4.2477854E-2,1.5238072E-2,3.5555553E-1,-2.36058E-9,3.2E-2,5.8333334E-2,-7.5000017E-3],"categories":[],"categories_nodes":[],"categories_segments":[],"categories_sizes":[],"default_left":[0,0,0,0,0,0,0,0,0],"id":48,"left_children":[1,-1,3,5,7,-1,-1,-1,-1],"loss_changes":[1.0894729E0,0E0,9.5826507E-1,4.876191E-1,9.2638886E-1,0E0,0E0,0E0,0E0],"parents":[2147483647,0,0,2,2,3,3,4,4],"right_children":[2,-1,4,6,8,-1,-1,-1,-1],"split_conditions":[2.827E10,-5.859916E8,8.8E0,1.11439E11,3.8944E10,6.5109656E5,8.2856344E7,5.2711016E7,-1.7373594E7],"split_indices":[0,0,29,2,1,0,0,0,0],"split_type":[0,0,0,0,0,0,0,0,0],"sum_hessian":[2.16E2,1.04E2,1.12E2,1.04E2,8E0,1E2,4E0,5E0,3E0],"tree_param":{"num_deleted":"0","num_feature":"33","num_nodes":"9","size_leaf_vector":"1"}},{"base_weights":[-3.041477E-2,-9.904765E-3,3.3628296E-2,6E-2,1.8017994E-2,1.1891889E-2,-3.2000025E-3],"categories":[],"categories_nodes":[],"categories_segments":[],"categories_sizes":[],"default_left":[0,0,0,0,0,0,0],"id":49,"left_children":[1,-1,3,-1,5,-1,-1],"loss_changes":[9.571456E-1,0E0,9.882484E-1,0E0,5.640072E-1,0E0,0E0],"parents":[2147483647,0,0,2,2,4,4],"right_children":[2,-1,4,-1,6,-1,-1],"split_conditions":[2.827E10,-5.2739235E8,2.8918E10,4.743987E7,2.246E9,8.361489E6,-3.515394E6],"split_indices":[0,0,0,0,14,0,0],"split_type":[0,0,0,0,0,0,0],"sum_hessian":[2.16E2,1.04E2,1.12E2,2E0,1.1E2,3.6E1,7.4E1],"tree_param":{"num_deleted":"0","num_feature":"33","num_nodes":"7","size_leaf_vector":"1"}},{"base_weights":[-3.041477E-2,-9.902915E-3,3.1304326E-2,4.1249996E-1,2.777754E-3,-7.5000017E-3,7.2E-2,-1.2500024E-3,3.2E-2],"categories":[],"categories_nodes":[],"categories_segments":[],"categories_sizes":[],"default_left":[0,0,0,0,0,0,0,0,0],"id":50,"left_children":[1,-1,3,5,7,-1,-1,-1,-1],"loss_changes":[9.2205536E-1,0E0,1.2493876E0,1.25325E0,5.274167E-1,0E0,0E0,0E0,0E0],"parents":[2147483647,0,0,2,2,3,3,4,4],"right_children":[2,-1,4,6,8,-1,-1,-1,-1],"split_conditions":[2.6149E10,-5.5103315E8,3.2908E10,4.15975E9,1.11439E11,-8.0806296E7,4.2695884E7,-2.2265933E5,7.492239E7],"split_indices":[4,0,22,8,2,0,0,0,0],"split_type":[0,0,0,0,0,0,0,0,0],"sum_hessian":[2.16E2,1.02E2,1.14E2,7E0,1.07E2,3E0,4E0,1.03E2,4E0],"tree_param":{"num_deleted":"0","num_feature":"33","num_nodes":"9","size_leaf_vector":"1"}},{"base_weights":[-3.5023063E-2,-9.902915E-3,2.2608671E-2,6E-2,7.0796222E-3,-7.339473E-4,3.2E-2],"categories":[],"categories_nodes":[],"categories_segments":[],"categories_sizes":[],"default_left":[0,0,0,0,0,0,0],"id":51,"left_children":[1,-1,3,-1,5,-1,-1],"loss_changes":[8.0270445E-1,0E0,1.0268811E0,0E0,5.1220787E-1,0E0,0E0],"parents":[2147483647,0,0,2,2,4,4],"right_children":[2,-1,4,-1,6,-1,-1],"split_conditions":[2.6149E10,-4.9592986E8,2.5826E10,3.8426216E7,1.11439E11,-3.78481E4,6.742999E7],"split_indices":[4,0,1,0,2,0,0],"split_type":[0,0,0,0,0,0,0],"sum_hessian":[2.16E2,1.02E2,1.14E2,2E0,1.12E2,1.08E2,4E0],"tree_param":{"num_deleted":"0","num_feature":"33","num_nodes":"7","size_leaf_vector":"1"}},{"base_weights":[-3.5023063E-2,-9.902915E-3,2.2608671E-2,6E-2,7.0796222E-3,-7.339473E-4,3.2E-2],"categories":[],"categories_nodes":[],"categories_segments":[],"categories_sizes":[],"default_left":[0,0,0,0,0,0,0],"id":52,"left_children":[1,-1,3,-1,5,-1,-1],"loss_changes":[8.0270445E-1,0E0,1.0268811E0,0E0,5.1220787E-1,0E0,0E0],"parents":[2147483647,0,0,2,2,4,4],"right_children":[2,-1,4,-1,6,-1,-1],"split_conditions":[2.6149E10,-4.4633693E8,2.5826E10,3.4583756E7,1.11439E11,-3.41617E4,6.0687156E7],"split_indices":[4,0,1,0,2,0,0],"split_type":[0,0,0,0,0,0,0],"sum_hessian":[2.16E2,1.02E2,1.14E2,2E0,1.12E2,1.08E2,4E0],"tree_param":{"num_deleted":"0","num_feature":"33","num_nodes":"7","size_leaf_vector":"1"}},{"base_weights":[-3.5023063E-2,-9.902915E-3,2.2608671E-2,6E-2,7.0796222E-3,-7.339473E-4,3.2E-2],"categories":[],"categories_nodes":[],"categories_segments":[],"categories_sizes":[],"default_left":[0,0,0,0,0,0,0],"id":53,"left_children":[1,-1,3,-1,5,-1,-1],"loss_changes":[8.0270445E-1,0E0,1.0268811E0,0E0,5.1220787E-1,0E0,0E0],"parents":[2147483647,0,0,2,2,4,4],"right_children":[2,-1,4,-1,6,-1,-1],"split_conditions":[2.6149E10,-4.0170326E8,2.5826E10,3.1125504E7,1.11439E11,-3.08849E4,5.4618524E7],"split_indices":[4,0,1,0,2,0,0],"split_type":[0,0,0,0,0,0,0],"sum_hessian":[2.16E2,1.02E2,1.14E2,2E0,1.12E2,1.08E2,4E0],"tree_param":{"num_deleted":"0","num_feature":"33","num_nodes":"7","size_leaf_vector":"1"}},{"base_weights":[-3.5023063E-2,-9.902915E-3,2.2608671E-2,6E-2,7.0796222E-3,-7.339473E-4,3.2E-2],"categories":[],"categories_nodes":[],"categories_segments":[],"categories_sizes":[],"default_left":[0,0,0,0,0,0,0],"id":54,"left_children":[1,-1,3,-1,5,-1,-1],"loss_changes":[8.0270445E-1,0E0,1.0268811E0,0E0,5.1220787E-1,0E0,0E0],"parents":[2147483647,0,0,2,2,4,4],"right_children":[2,-1,4,-1,6,-1,-1],"split_conditions":[2.6149E10,-3.6153296E8,2.5826E10,2.8012954E7,1.11439E11,-2.76081E4,4.9156916E7],"split_indices":[4,0,1,0,2,0,0],"split_type":[0,0,0,0,0,0,0],"sum_hessian":[2.16E2,1.02E2,1.14E2,2E0,1.12E2,1.08E2,4E0],"tree_param":{"num_deleted":"0","num_feature":"33","num_nodes":"7","size_leaf_vector":"1"}},{"base_weights":[-3.5023063E-2,-9.901963E-3,2.15517E-2,6.7499995E-2,-1.7699351E-3,-1.6513786E-3,3.2E-2],"categories":[],"categories_nodes":[],"categories_segments":[],"categories_sizes":[],"default_left":[0,0,0,0,0,0,0],"id":55,"left_children":[1,-1,3,-1,5,-1,-1],"loss_changes":[7.878021E-1,0E0,1.7689747E0,0E0,5.413708E-1,0E0,0E0],"parents":[2147483647,0,0,2,2,4,4],"right_children":[2,-1,4,-1,6,-1,-1],"split_conditions":[2.4667E10,-3.1461962E8,2.3201E10,2.52117E7,9E0,-3.3980497E5,1.040384E7],"split_indices":[2,0,3,0,29,0,0],"split_type":[0,0,0,0,0,0,0],"sum_hessian":[2.16E2,1.01E2,1.15E2,3E0,1.12E2,1.08E2,4E0],"tree_param":{"num_deleted":"0","num_feature":"33","num_nodes":"7","size_leaf_vector":"1"}},{"base_weights":[-3.5023063E-2,-9.891307E-3,1.1904738E-2,6E-2,-2.4193784E-3,-2.1551747E-3,2.4444444E-2],"categories":[],"categories_nodes":[],"categories_segments":[],"categories_sizes":[],"default_left":[0,0,0,0,0,0,0],"id":56,"left_children":[1,-1,3,-1,5,-1,-1],"loss_changes":[6.5179074E-1,0E0,1.0628687E0,0E0,5.909313E-1,0E0,0E0],"parents":[2147483647,0,0,2,2,4,4],"right_children":[2,-1,4,-1,6,-1,-1],"split_conditions":[1.327E9,-2.5096318E8,1.365E9,1.3579469E7,9.066667E0,-8.3017794E5,2.2690612E7],"split_indices":[14,0,14,0,29,0,0],"split_type":[0,0,0,0,0,0,0],"sum_hessian":[2.16E2,9.1E1,1.25E2,2E0,1.23E2,1.15E2,8E0],"tree_param":{"num_deleted":"0","num_feature":"33","num_nodes":"7","size_leaf_vector":"1"}},{"base_weights":[-1.6589886E-2,-6.6225186E-2,9.552237E-2,-9.898993E-3,-3.7736082E-3,2.3611109E-1,-6.562503E-2,2.7272725E-2,-7.441863E-3,1.53124975E-2,7.2E-2,-9.677421E-3,4.4999998E-2],"categories":[],"categories_nodes":[],"categories_segments":[],"categories_sizes":[],"default_left":[0,0,0,0,0,0,0,0,0,0,0,0,0],"id":57,"left_children":[1,3,5,-1,7,9,11,-1,-1,-1,-1,-1,-1],"loss_changes":[1.2138715E0,3.0860406E-1,1.5334136E0,0E0,1.0555667E0,1.3353682E0,5.575101E-1,0E0,0E0,0E0,0E0,0E0,0E0],"parents":[2147483647,0,0,1,1,2,2,4,4,5,5,6,6],"right_children":[2,4,6,-1,8,10,12,-1,-1,-1,-1,-1,-1],"split_conditions":[1.55801E11,1.673E9,3.814E9,-3.7854982E8,1.977E9,6E0,7.485E9,2.018951E7,-3.1250458E6,1.6261035E7,1.1375002E7,-1.4668352E7,4.4357224E7],"split_indices":[21,14,15,0,14,29,12,0,0,0,0,0,0],"split_type":[0,0,0,0,0,0,0,0,0,0,0,0,0],"sum_hessian":[2.16E2,1.5E2,6.6E1,9.8E1,5.2E1,3.5E1,3.1E1,1E1,4.2E1,3.1E1,4E0,3E1,1E0],"tree_param":{"num_deleted":"0","num_feature":"33","num_nodes":"13","size_leaf_vector":"1"}},{"base_weights":[-7.3732957E-3,-7.092201E-2,1.0909089E-1,-9.894739E-3,-1.276598E-2,5.303028E-2,4.083333E-1,2.7272725E-2,-9.729732E-3,5.1723904E-4,3.5555553E-2,7.5E-2,5.714284E-3],"categories":[],"categories_nodes":[],"categories_segments":[],"categories_sizes":[],"default_left":[0,0,0,0,0,0,0,0,0,0,0,0,0],"id":58,"left_children":[1,3,5,-1,7,9,11,-1,-1,-1,-1,-1,-1],"loss_changes":[1.6137862E0,2.2854495E-1,1.270076E0,0E0,1.1607926E0,9.5372355E-1,1.3970237E0,0E0,0E0,0E0,0E0,0E0,0E0],"parents":[2147483647,0,0,1,1,2,2,4,4,5,5,6,6],"right_children":[2,4,6,-1,8,10,12,-1,-1,-1,-1,-1,-1],"split_conditions":[1.20292E11,1.673E9,5.7E0,-4.3809997E8,1.977E9,1.83472E11,3.8297E10,1.8170592E7,-5.9624265E6,4.256839E6,4.210893E7,2.6478182E7,6.316032E5],"split_indices":[20,14,29,0,14,23,2,0,0,0,0,0,0],"split_type":[0,0,0,0,0,0,0,0,0,0,0,0,0],"sum_hessian":[2.16E2,1.4E2,7.6E1,9.4E1,4.6E1,6.5E1,1.1E1,1E1,3.6E1,5.7E1,8E0,5E0,6E0],"tree_param":{"num_deleted":"0","num_feature":"33","num_nodes":"13","size_leaf_vector":"1"}},{"base_weights":[-1.1981591E-2,-9.890112E-3,5.039368E-2,1.7962961E-1,-4.459462E-2,6.511626E-3,5.75E-2,-7.0000025E-3,3.2E-2],"categories":[],"categories_nodes":[],"categories_segments":[],"categories_sizes":[],"default_left":[0,0,0,0,0,0,0,0,0],"id":59,"left_children":[1,-1,3,5,7,-1,-1,-1,-1],"loss_changes":[1.1814774E0,0E0,1.5670499E0,2.4074183E0,7.078379E-1,0E0,0E0,0E0,0E0],"parents":[2147483647,0,0,2,2,3,3,4,4],"right_children":[2,-1,4,6,8,-1,-1,-1,-1],"split_conditions":[2.3317E10,-4.2168973E8,4.5646E10,1.11155E10,1.11439E11,9.839431E6,2.3667016E7,-6.0260375E6,3.949527E7],"split_indices":[0,0,1,8,2,0,0,0,0],"split_type":[0,0,0,0,0,0,0,0,0],"sum_hessian":[2.16E2,9E1,1.26E2,5.3E1,7.3E1,4.2E1,1.1E1,6.9E1,4E0],"tree_param":{"num_deleted":"0","num_feature":"33","num_nodes":"9","size_leaf_vector":"1"}},{"base_weights":[-3.041477E-2,-9.890112E-3,1.8897614E-2,3.3571425E-1,-2.0175463E-2,3.749998E-3,6.285714E-2,4.25E-2,-3.603606E-3],"categories":[],"categories_nodes":[],"categories_segments":[],"categories_sizes":[],"default_left":[0,0,0,0,0,0,0,0,0],"id":60,"left_children":[1,-1,3,5,7,-1,-1,-1,-1],"loss_changes":[7.347269E-1,0E0,1.5789063E0,1.1991073E0,8.202406E-1,0E0,0E0,0E0,0E0],"parents":[2147483647,0,0,2,2,3,3,4,4],"right_children":[2,-1,4,6,8,-1,-1,-1,-1],"split_conditions":[2.3317E10,-3.795208E8,2.6064E10,2.3212E10,1.127E9,5.7739265E6,1.5601664E7,2.0646298E7,-1.7968336E6],"split_indices":[0,0,1,1,14,0,0,0,0],"split_type":[0,0,0,0,0,0,0,0,0],"sum_hessian":[2.16E2,9E1,1.26E2,1.3E1,1.13E2,7E0,6E0,3E0,1.1E2],"tree_param":{"num_deleted":"0","num_feature":"33","num_nodes":"9","size_leaf_vector":"1"}},{"base_weights":[-2.5806475E-2,-9.890112E-3,2.677163E-2,3.3571425E-1,-1.1403533E-2,3.749998E-3,6.285714E-2,4.25E-2,-2.702705E-3],"categories":[],"categories_nodes":[],"categories_segments":[],"categories_sizes":[],"default_left":[0,0,0,0,0,0,0,0,0],"id":61,"left_children":[1,-1,3,5,7,-1,-1,-1,-1],"loss_changes":[8.3661735E-1,0E0,1.5016581E0,1.1991073E0,7.8875655E-1,0E0,0E0,0E0,0E0],"parents":[2147483647,0,0,2,2,3,3,4,4],"right_children":[2,-1,4,6,8,-1,-1,-1,-1],"split_conditions":[2.3317E10,-3.415687E8,2.6064E10,2.3212E10,1.127E9,5.1965955E6,1.4041498E7,1.8581504E7,-1.6170192E6],"split_indices":[0,0,1,1,14,0,0,0,0],"split_type":[0,0,0,0,0,0,0,0,0],"sum_hessian":[2.16E2,9E1,1.26E2,1.3E1,1.13E2,7E0,6E0,3E0,1.1E2],"tree_param":{"num_deleted":"0","num_feature":"33","num_nodes":"9","size_leaf_vector":"1"}},{"base_weights":[-2.119818E-2,-8.791211E-2,2.677163E-2,-9.882356E-3,5.7142835E-2,3.3571425E-1,-1.1403533E-2,-8.333336E-3,4.4999998E-2,3.749998E-3,6.285714E-2,4.25E-2,-2.702705E-3],"categories":[],"categories_nodes":[],"categories_segments":[],"categories_sizes":[],"default_left":[0,0,0,0,0,0,0,0,0,0,0,0,0],"id":62,"left_children":[1,3,5,-1,7,9,11,-1,-1,-1,-1,-1,-1],"loss_changes":[6.968088E-1,1.4967805E-1,1.5016581E0,0E0,4.2380953E-1,1.1991073E0,7.8875655E-1,0E0,0E0,0E0,0E0,0E0,0E0],"parents":[2147483647,0,0,1,1,2,2,4,4,5,5,6,6],"right_children":[2,4,6,-1,8,10,12,-1,-1,-1,-1,-1,-1],"split_conditions":[2.3317E10,9.833333E0,2.6064E10,-3.2466605E8,1.261E9,2.3212E10,1.127E9,-5.888981E8,2.353664E7,4.6770175E6,1.2637389E7,1.6723149E7,-1.4552272E6],"split_indices":[0,30,1,0,14,1,14,0,0,0,0,0,0],"split_type":[0,0,0,0,0,0,0,0,0,0,0,0,0],"sum_hessian":[2.16E2,9E1,1.26E2,8.4E1,6E0,1.3E1,1.13E2,5E0,1E0,7E0,6E0,3E0,1.1E2],"tree_param":{"num_deleted":"0","num_feature":"33","num_nodes":"13","size_leaf_vector":"1"}},{"base_weights":[-2.5806475E-2,-8.791211E-2,1.8897614E-2,-9.882356E-3,5.7142835E-2,3.3571425E-1,-2.0175463E-2,-8.333336E-3,4.4999998E-2,3.749998E-3,6.285714E-2,4.4999998E-2,-2.831861E-3],"categories":[],"categories_nodes":[],"categories_segments":[],"categories_sizes":[],"default_left":[0,0,0,0,0,0,0,0,0,0,0,0,0],"id":63,"left_children":[1,3,5,-1,7,9,11,-1,-1,-1,-1,-1,-1],"loss_changes":[6.04135E-1,1.4967805E-1,1.5789063E0,0E0,4.2380953E-1,1.1991073E0,4.4921598E-1,0E0,0E0,0E0,0E0,0E0,0E0],"parents":[2147483647,0,0,1,1,2,2,4,4,5,5,6,6],"right_children":[2,4,6,-1,8,10,12,-1,-1,-1,-1,-1,-1],"split_conditions":[2.3317E10,9.833333E0,2.6064E10,-2.9219952E8,1.261E9,2.3212E10,1.063E9,-5.300083E8,2.1183078E7,4.2092545E6,1.1373773E7,1.5050752E7,-8.41484E5],"split_indices":[0,30,1,0,14,1,15,0,0,0,0,0,0],"split_type":[0,0,0,0,0,0,0,0,0,0,0,0,0],"sum_hessian":[2.16E2,9E1,1.26E2,8.4E1,6E0,1.3E1,1.13E2,5E0,1E0,7E0,6E0,1E0,1.12E2],"tree_param":{"num_deleted":"0","num_feature":"33","num_nodes":"13","size_leaf_vector":"1"}},{"base_weights":[-1.6589886E-2,-8.658539E-2,2.573527E-2,-9.868423E-3,5.7142835E-2,2.681818E-1,-2.0869588E-2,-8.333336E-3,4.4999998E-2,-8.333355E-4,5.454545E-2,4.4999998E-2,-2.8947394E-3],"categories":[],"categories_nodes":[],"categories_segments":[],"categories_sizes":[],"default_left":[0,0,0,0,0,0,0,0,0,0,0,0,0],"id":64,"left_children":[1,3,5,-1,7,9,11,-1,-1,-1,-1,-1,-1],"loss_changes":[6.451061E-1,1.4823264E-1,1.5422862E0,0E0,4.2380953E-1,1.6912879E0,4.5043936E-1,0E0,0E0,0E0,0E0,0E0,0E0],"parents":[2147483647,0,0,1,1,2,2,4,4,5,5,6,6],"right_children":[2,4,6,-1,8,10,12,-1,-1,-1,-1,-1,-1],"split_conditions":[2.138425E10,9.833333E0,2.6064E10,-4.4678486E8,1.261E9,1.273E9,1.063E9,-4.7700746E8,1.9064832E7,-1.7676278E7,2.0967302E7,1.3545472E7,-8.225605E5],"split_indices":[4,30,1,0,14,14,15,0,0,0,0,0,0],"split_type":[0,0,0,0,0,0,0,0,0,0,0,0,0],"sum_hessian":[2.16E2,8.1E1,1.35E2,7.5E1,6E0,2.1E1,1.14E2,5E0,1E0,1.1E1,1E1,1E0,1.13E2],"tree_param":{"num_deleted":"0","num_feature":"33","num_nodes":"13","size_leaf_vector":"1"}},{"base_weights":[-1.6589886E-2,-8.658539E-2,2.573527E-2,-9.868423E-3,5.7142835E-2,2.681818E-1,-2.0869588E-2,-8.333336E-3,4.4999998E-2,-8.333355E-4,5.454545E-2,4.4999998E-2,-2.8947394E-3],"categories":[],"categories_nodes":[],"categories_segments":[],"categories_sizes":[],"default_left":[0,0,0,0,0,0,0,0,0,0,0,0,0],"id":65,"left_children":[1,3,5,-1,7,9,11,-1,-1,-1,-1,-1,-1],"loss_changes":[6.451061E-1,1.4823264E-1,1.5422862E0,0E0,4.2380953E-1,1.6912879E0,4.5043936E-1,0E0,0E0,0E0,0E0,0E0,0E0],"parents":[2147483647,0,0,1,1,2,2,4,4,5,5,6,6],"right_children":[2,4,6,-1,8,10,12,-1,-1,-1,-1,-1,-1],"split_conditions":[2.138425E10,9.833333E0,2.6064E10,-4.0210634E8,1.261E9,1.273E9,1.063E9,-4.293067E8,1.715835E7,-1.590865E7,1.8870558E7,1.2190925E7,-7.4023094E5],"split_indices":[4,30,1,0,14,14,15,0,0,0,0,0,0],"split_type":[0,0,0,0,0,0,0,0,0,0,0,0,0],"sum_hessian":[2.16E2,8.1E1,1.35E2,7.5E1,6E0,2.1E1,1.14E2,5E0,1E0,1.1E1,1E1,1E0,1.13E2],"tree_param":{"num_deleted":"0","num_feature":"33","num_nodes":"13","size_leaf_vector":"1"}},{"base_weights":[-2.5806475E-2,-8.750002E-2,1.6153822E-2,-9.8780515E-3,5.7142835E-2,3.5555553E-1,-9.016417E-3,-8.333336E-3,4.4999998E-2,7.2E-2,-8.000002E-3,6.53061E-3,-5.8108135E-3],"categories":[],"categories_nodes":[],"categories_segments":[],"categories_sizes":[],"default_left":[0,0,0,0,0,0,0,0,0,0,0,0,0],"id":66,"left_children":[1,3,5,-1,7,9,11,-1,-1,-1,-1,-1,-1],"loss_changes":[5.631569E-1,1.4922911E-1,1.1137727E0,0E0,4.2380953E-1,1.4862221E0,4.4892645E-1,0E0,0E0,0E0,0E0,0E0,0E0],"parents":[2147483647,0,0,1,1,2,2,4,4,5,5,6,6],"right_children":[2,4,6,-1,8,10,12,-1,-1,-1,-1,-1,-1],"split_conditions":[2.1329E10,9.833333E0,3.7813E10,-2.9052915E8,1.261E9,3.367E9,1.1124E10,-3.863761E8,1.5442535E7,1.5891251E7,-1.2640256E6,1.1137473E7,-1.1992269E6],"split_indices":[2,30,20,0,14,10,5,0,0,0,0,0,0],"split_type":[0,0,0,0,0,0,0,0,0,0,0,0,0],"sum_hessian":[2.16E2,8.7E1,1.29E2,8.1E1,6E0,8E0,1.21E2,5E0,1E0,4E0,4E0,4.8E1,7.3E1],"tree_param":{"num_deleted":"0","num_feature":"33","num_nodes":"13","size_leaf_vector":"1"}},{"base_weights":[-2.119818E-2,-8.658539E-2,1.838233E-2,-9.868423E-3,5.7142835E-2,4.6666664E-1,-1.3281274E-2,-8.333336E-3,4.4999998E-2,6.285714E-2,-6.6666687E-3,-2.0472466E-3,4.4999998E-2],"categories":[],"categories_nodes":[],"categories_segments":[],"categories_sizes":[],"default_left":[0,0,0,0,0,0,0,0,0,0,0,0,0],"id":67,"left_children":[1,3,5,-1,7,9,11,-1,-1,-1,-1,-1,-1],"loss_changes":[5.632005E-1,1.4823264E-1,1.9366221E0,0E0,4.2380953E-1,8.190478E-1,4.3565023E-1,0E0,0E0,0E0,0E0,0E0,0E0],"parents":[2147483647,0,0,1,1,2,2,4,4,5,5,6,6],"right_children":[2,4,6,-1,8,10,12,-1,-1,-1,-1,-1,-1],"split_conditions":[2.138425E10,9.833333E0,2.0403E10,-3.3284275E8,1.261E9,4.923E9,5.23013E11,-3.4773853E8,1.3898343E7,2.885755E7,-1.2355625E8,-7.412142E5,8.35584E5],"split_indices":[4,30,3,0,14,7,17,0,0,0,0,0,0],"split_type":[0,0,0,0,0,0,0,0,0,0,0,0,0],"sum_hessian":[2.16E2,8.1E1,1.35E2,7.5E1,6E0,8E0,1.27E2,5E0,1E0,6E0,2E0,1.26E2,1E0],"tree_param":{"num_deleted":"0","num_feature":"33","num_nodes":"13","size_leaf_vector":"1"}},{"base_weights":[-7.3732957E-3,-8.625002E-2,3.8405772E-2,-9.868423E-3,1.1999998E-1,6.285714E-1,6.818158E-3,4.4999998E-2,-7.5000017E-3,-5.0000013E-3,7.5E-2,2.4166664E-2,-1.6528949E-3],"categories":[],"categories_nodes":[],"categories_segments":[],"categories_sizes":[],"default_left":[0,0,0,0,0,0,0,0,0,0,0,0,0],"id":68,"left_children":[1,3,5,-1,7,9,11,-1,-1,-1,-1,-1,-1],"loss_changes":[7.8687847E-1,2.1700656E-1,2.5683E0,0E0,3.5549998E-1,6.142857E-1,7.277549E-1,0E0,0E0,0E0,0E0,0E0,0E0],"parents":[2147483647,0,0,1,1,2,2,4,4,5,5,6,6],"right_children":[2,4,6,-1,8,10,12,-1,-1,-1,-1,-1,-1],"split_conditions":[1.2095E9,1.301E9,5.32106E8,-2.2743099E8,1.327E9,1.3648E10,1.22E9,1.3105357E7,-1.2032E6,-3.129647E8,2.5971712E7,9.435586E6,-9.956967E5],"split_indices":[16,14,9,0,14,0,14,0,0,0,0,0,0],"split_type":[0,0,0,0,0,0,0,0,0,0,0,0,0],"sum_hessian":[2.16E2,7.9E1,1.37E2,7.5E1,4E0,6E0,1.31E2,1E0,3E0,1E0,5E0,1.1E1,1.2E2],"tree_param":{"num_deleted":"0","num_feature":"33","num_nodes":"13","size_leaf_vector":"1"}},{"base_weights":[-1.6589886E-2,-8.625002E-2,2.391302E-2,-9.868423E-3,1.1999998E-1,5.833333E-1,-1.503783E-3,4.4999998E-2,-7.5000017E-3,-5.0000013E-3,7.2E-2,4.25E-2,-1.4615408E-3],"categories":[],"categories_nodes":[],"categories_segments":[],"categories_sizes":[],"default_left":[0,0,0,0,0,0,0,0,0,0,0,0,0],"id":69,"left_children":[1,3,5,-1,7,9,11,-1,-1,-1,-1,-1,-1],"loss_changes":[6.143145E-1,2.1700656E-1,1.9630543E0,0E0,3.5549998E-1,5.553334E-1,7.499685E-1,0E0,0E0,0E0,0E0,0E0,0E0],"parents":[2147483647,0,0,1,1,2,2,4,4,5,5,6,6],"right_children":[2,4,6,-1,8,10,12,-1,-1,-1,-1,-1,-1],"split_conditions":[1.2095E9,1.301E9,4.94E8,-2.0468795E8,1.327E9,1.3648E10,1.22125E9,1.1794842E7,-1.0827776E6,-2.816682E8,2.3374644E7,8.988672E6,-8.196098E5],"split_indices":[16,14,9,0,14,0,16,0,0,0,0,0,0],"split_type":[0,0,0,0,0,0,0,0,0,0,0,0,0],"sum_hessian":[2.16E2,7.9E1,1.37E2,7.5E1,4E0,5E0,1.32E2,1E0,3E0,1E0,4E0,3E0,1.29E2],"tree_param":{"num_deleted":"0","num_feature":"33","num_nodes":"13","size_leaf_vector":"1"}},{"base_weights":[-2.119818E-2,-8.625002E-2,1.6666643E-2,-9.868423E-3,1.1999998E-1,6.7499995E-2,-2.9629867E-3,4.4999998E-2,-7.5000017E-3,4.25E-2,-1.5909115E-3],"categories":[],"categories_nodes":[],"categories_segments":[],"categories_sizes":[],"default_left":[0,0,0,0,0,0,0,0,0,0,0],"id":70,"left_children":[1,3,5,-1,7,-1,9,-1,-1,-1,-1],"loss_changes":[5.3594685E-1,2.1700656E-1,1.7853519E0,0E0,3.5549998E-1,0E0,7.5472397E-1,0E0,0E0,0E0,0E0],"parents":[2147483647,0,0,1,1,2,2,4,4,6,6],"right_children":[2,4,6,-1,8,-1,10,-1,-1,-1,-1],"split_conditions":[1.2095E9,1.301E9,2.1702E10,-1.842191E8,1.327E9,2.1037262E7,1.22125E9,1.0615399E7,-9.7443844E5,8.0896E6,-1.7178847E5],"split_indices":[16,14,21,0,14,0,16,0,0,0,0],"split_type":[0,0,0,0,0,0,0,0,0,0,0],"sum_hessian":[2.16E2,7.9E1,1.37E2,7.5E1,4E0,3E0,1.34E2,1E0,3E0,3E0,1.31E2],"tree_param":{"num_deleted":"0","num_feature":"33","num_nodes":"11","size_leaf_vector":"1"}},{"base_weights":[-1.6589886E-2,-8.625002E-2,2.391302E-2,-9.868423E-3,1.1999998E-1,5.833333E-1,-1.503783E-3,4.4999998E-2,-7.5000017E-3,-5.0000013E-3,7.2E-2,4.25E-2,-1.4615408E-3],"categories":[],"categories_nodes":[],"categories_segments":[],"categories_sizes":[],"default_left":[0,0,0,0,0,0,0,0,0,0,0,0,0],"id":71,"left_children":[1,3,5,-1,7,9,11,-1,-1,-1,-1,-1,-1],"loss_changes":[6.143145E-1,2.1700656E-1,1.9630543E0,0E0,3.5549998E-1,5.553334E-1,7.499685E-1,0E0,0E0,0E0,0E0,0E0,0E0],"parents":[2147483647,0,0,1,1,2,2,4,4,5,5,6,6],"right_children":[2,4,6,-1,8,10,12,-1,-1,-1,-1,-1,-1],"split_conditions":[1.2095E9,1.301E9,4.94E8,-1.6579725E8,1.327E9,1.3648E10,1.22125E9,9.55392E6,-8.769536E5,-2.5348424E8,1.8933556E7,7.28064E6,-7.204866E5],"split_indices":[16,14,9,0,14,0,16,0,0,0,0,0,0],"split_type":[0,0,0,0,0,0,0,0,0,0,0,0,0],"sum_hessian":[2.16E2,7.9E1,1.37E2,7.5E1,4E0,5E0,1.32E2,1E0,3E0,1E0,4E0,3E0,1.29E2],"tree_param":{"num_deleted":"0","num_feature":"33","num_nodes":"13","size_leaf_vector":"1"}},{"base_weights":[-1.6589886E-2,-8.625002E-2,2.391302E-2,-9.868423E-3,1.1999998E-1,6.7499995E-2,4.444421E-3,4.4999998E-2,-7.5000017E-3,4.25E-2,-8.3333574E-4],"categories":[],"categories_nodes":[],"categories_segments":[],"categories_sizes":[],"default_left":[0,0,0,0,0,0,0,0,0,0,0],"id":72,"left_children":[1,3,5,-1,7,-1,9,-1,-1,-1,-1],"loss_changes":[6.143145E-1,2.1700656E-1,1.7462536E0,0E0,3.5549998E-1,0E0,7.2900003E-1,0E0,0E0,0E0,0E0],"parents":[2147483647,0,0,1,1,2,2,4,4,6,6],"right_children":[2,4,6,-1,8,-1,10,-1,-1,-1,-1],"split_conditions":[1.2095E9,1.301E9,2.1702E10,-1.4921746E8,1.327E9,1.704018E7,1.22125E9,8.598528E6,-7.892992E5,6.552781E6,-6.60685E5],"split_indices":[16,14,21,0,14,0,16,0,0,0,0],"split_type":[0,0,0,0,0,0,0,0,0,0,0],"sum_hessian":[2.16E2,7.9E1,1.37E2,7.5E1,4E0,3E0,1.34E2,1E0,3E0,3E0,1.31E2],"tree_param":{"num_deleted":"0","num_feature":"33","num_nodes":"11","size_leaf_vector":"1"}},{"base_weights":[-1.6589886E-2,-8.625002E-2,2.391302E-2,-9.868423E-3,1.1999998E-1,6.7499995E-2,4.444421E-3,4.4999998E-2,-7.5000017E-3,4.25E-2,-8.3333574E-4],"categories":[],"categories_nodes":[],"categories_segments":[],"categories_sizes":[],"default_left":[0,0,0,0,0,0,0,0,0,0,0],"id":73,"left_children":[1,3,5,-1,7,-1,9,-1,-1,-1,-1],"loss_changes":[6.143145E-1,2.1700656E-1,1.7462536E0,0E0,3.5549998E-1,0E0,7.2900003E-1,0E0,0E0,0E0,0E0],"parents":[2147483647,0,0,1,1,2,2,4,4,6,6],"right_children":[2,4,6,-1,8,-1,10,-1,-1,-1,-1],"split_conditions":[1.2095E9,1.301E9,2.1702E10,-1.3429573E8,1.327E9,1.5336243E7,1.22125E9,7.738573E6,-7.104512E5,5.897421E6,-5.9473944E5],"split_indices":[16,14,21,0,14,0,16,0,0,0,0],"split_type":[0,0,0,0,0,0,0,0,0,0,0],"sum_hessian":[2.16E2,7.9E1,1.37E2,7.5E1,4E0,3E0,1.34E2,1E0,3E0,3E0,1.31E2],"tree_param":{"num_deleted":"0","num_feature":"33","num_nodes":"11","size_leaf_vector":"1"}},{"base_weights":[-1.1981591E-2,-8.607598E-2,3.0215804E-2,-9.866669E-3,1.1999998E-1,6.7499995E-2,1.1029388E-2,4.4999998E-2,-7.5000017E-3,5.1999997E-2,-8.3333574E-4],"categories":[],"categories_nodes":[],"categories_segments":[],"categories_sizes":[],"default_left":[0,0,0,0,0,0,0,0,0,0,0],"id":74,"left_children":[1,3,5,-1,7,-1,9,-1,-1,-1,-1],"loss_changes":[6.8107086E-1,2.1681684E-1,1.7121377E0,0E0,3.5549998E-1,0E0,1.3446225E0,0E0,0E0,0E0,0E0],"parents":[2147483647,0,0,1,1,2,2,4,4,6,6],"right_children":[2,4,6,-1,8,-1,10,-1,-1,-1,-1],"split_conditions":[1.208E9,1.301E9,2.1702E10,-1.3516354E8,1.327E9,1.3802701E7,1.22125E9,6.9646335E6,-6.393856E5,5.307597E6,-5.3534744E5],"split_indices":[16,14,21,0,14,0,16,0,0,0,0],"split_type":[0,0,0,0,0,0,0,0,0,0,0],"sum_hessian":[2.16E2,7.8E1,1.38E2,7.4E1,4E0,3E0,1.35E2,1E0,3E0,4E0,1.31E2],"tree_param":{"num_deleted":"0","num_feature":"33","num_nodes":"11","size_leaf_vector":"1"}},{"base_weights":[-1.6589886E-2,-9.864868E-3,2.569442E-2,3.6363634E-1,-2.2388296E-3,6.285714E-2,-8.000002E-3,7.169809E-3,-5.000002E-3],"categories":[],"categories_nodes":[],"categories_segments":[],"categories_sizes":[],"default_left":[0,0,0,0,0,0,0,0,0],"id":75,"left_children":[1,-1,3,5,7,-1,-1,-1,-1],"loss_changes":[7.5548106E-1,0E0,1.3601476E0,1.343169E0,4.7678122E-1,0E0,0E0,0E0,0E0],"parents":[2147483647,0,0,2,2,3,3,4,4],"right_children":[2,-1,4,6,8,-1,-1,-1,-1],"split_conditions":[1.907075E10,-3.488289E8,2.0614E10,4.923E9,1.977E9,1.2422349E7,-1.1075093E8,1.6982424E6,-2.0440682E6],"split_indices":[4,0,1,7,14,0,0,0,0],"split_type":[0,0,0,0,0,0,0,0,0],"sum_hessian":[2.16E2,7.3E1,1.43E2,1E1,1.33E2,6E0,4E0,5.2E1,8.1E1],"tree_param":{"num_deleted":"0","num_feature":"33","num_nodes":"9","size_leaf_vector":"1"}},{"base_weights":[-1.1981591E-2,-8.607598E-2,3.0215804E-2,-9.866669E-3,1.1999998E-1,6.7499995E-2,1.1029388E-2,4.4999998E-2,-7.5000017E-3,5.1999997E-2,-8.3333574E-4],"categories":[],"categories_nodes":[],"categories_segments":[],"categories_sizes":[],"default_left":[0,0,0,0,0,0,0,0,0,0,0],"id":76,"left_children":[1,3,5,-1,7,-1,9,-1,-1,-1,-1],"loss_changes":[6.8107086E-1,2.1681684E-1,1.7121377E0,0E0,3.5549998E-1,0E0,1.3446225E0,0E0,0E0,0E0,0E0],"parents":[2147483647,0,0,1,1,2,2,4,4,6,6],"right_children":[2,4,6,-1,8,-1,10,-1,-1,-1,-1],"split_conditions":[1.208E9,1.301E9,2.1702E10,-1.1260232E8,1.327E9,3.3841972E7,1.22125E9,5.025792E6,-7.452672E5,4.6067715E6,-3.4455562E5],"split_indices":[16,14,21,0,14,0,16,0,0,0,0],"split_type":[0,0,0,0,0,0,0,0,0,0,0],"sum_hessian":[2.16E2,7.8E1,1.38E2,7.4E1,4E0,3E0,1.35E2,1E0,3E0,4E0,1.31E2],"tree_param":{"num_deleted":"0","num_feature":"33","num_nodes":"11","size_leaf_vector":"1"}},{"base_weights":[-1.1981591E-2,-8.607598E-2,3.0215804E-2,-9.866669E-3,1.1999998E-1,6.7499995E-2,1.1029388E-2,4.4999998E-2,-7.5000017E-3,5.1999997E-2,-8.3333574E-4],"categories":[],"categories_nodes":[],"categories_segments":[],"categories_sizes":[],"default_left":[0,0,0,0,0,0,0,0,0,0,0],"id":77,"left_children":[1,3,5,-1,7,-1,9,-1,-1,-1,-1],"loss_changes":[6.8107086E-1,2.1681684E-1,1.7121377E0,0E0,3.5549998E-1,0E0,1.3446225E0,0E0,0E0,0E0,0E0],"parents":[2147483647,0,0,1,1,2,2,4,4,6,6],"right_children":[2,4,6,-1,8,-1,10,-1,-1,-1,-1],"split_conditions":[1.208E9,1.301E9,2.1702E10,-1.0134201E8,1.327E9,3.0457856E7,1.22125E9,4.523213E6,-6.7072E5,4.1459712E6,-3.1014922E5],"split_indices":[16,14,21,0,14,0,16,0,0,0,0],"split_type":[0,0,0,0,0,0,0,0,0,0,0],"sum_hessian":[2.16E2,7.8E1,1.38E2,7.4E1,4E0,3E0,1.35E2,1E0,3E0,4E0,1.31E2],"tree_param":{"num_deleted":"0","num_feature":"33","num_nodes":"11","size_leaf_vector":"1"}},{"base_weights":[-7.3732957E-3,-8.513516E-2,3.2638866E-2,-9.852944E-3,5.7142835E-2,3.6363634E-1,5.223857E-3,-8.333336E-3,4.4999998E-2,6.285714E-2,-8.000002E-3,9.056602E-3,-5.000002E-3],"categories":[],"categories_nodes":[],"categories_segments":[],"categories_sizes":[],"default_left":[0,0,0,0,0,0,0,0,0,0,0,0,0],"id":78,"left_children":[1,3,5,-1,7,9,11,-1,-1,-1,-1,-1,-1],"loss_changes":[6.779569E-1,1.4665288E-1,1.3047993E0,0E0,4.2380953E-1,1.343169E0,6.360603E-1,0E0,0E0,0E0,0E0,0E0,0E0],"parents":[2147483647,0,0,1,1,2,2,4,4,5,5,6,6],"right_children":[2,4,6,-1,8,10,12,-1,-1,-1,-1,-1,-1],"split_conditions":[1.907075E10,9.833333E0,2.0614E10,-4.236872E8,1.261E9,4.923E9,1.977E9,-1.7560597E8,2.741207E7,1.0689127E7,-9.9610424E7,1.4631316E6,-1.7737322E6],"split_indices":[4,30,1,0,14,7,14,0,0,0,0,0,0],"split_type":[0,0,0,0,0,0,0,0,0,0,0,0,0],"sum_hessian":[2.16E2,7.3E1,1.43E2,6.7E1,6E0,1E1,1.33E2,5E0,1E0,6E0,4E0,5.2E1,8.1E1],"tree_param":{"num_deleted":"0","num_feature":"33","num_nodes":"13","size_leaf_vector":"1"}},{"base_weights":[-1.1981591E-2,-8.513516E-2,2.569442E-2,-9.852944E-3,5.7142835E-2,3.6363634E-1,-2.2388296E-3,-8.333336E-3,4.4999998E-2,6.285714E-2,-8.000002E-3,2.4444444E-2,-1.9841294E-3],"categories":[],"categories_nodes":[],"categories_segments":[],"categories_sizes":[],"default_left":[0,0,0,0,0,0,0,0,0,0,0,0,0],"id":79,"left_children":[1,3,5,-1,7,9,11,-1,-1,-1,-1,-1,-1],"loss_changes":[6.002687E-1,1.4665288E-1,1.3601476E0,0E0,4.2380953E-1,1.343169E0,5.8670926E-1,0E0,0E0,0E0,0E0,0E0,0E0],"parents":[2147483647,0,0,1,1,2,2,4,4,5,5,6,6],"right_children":[2,4,6,-1,8,10,12,-1,-1,-1,-1,-1,-1],"split_conditions":[1.907075E10,9.833333E0,2.0614E10,-3.8131837E8,1.261E9,4.923E9,4.15925E9,-1.5804539E8,2.4670822E7,9.620275E6,-8.964936E7,1.4524416E6,-1.1386889E5],"split_indices":[4,30,1,0,14,7,8,0,0,0,0,0,0],"split_type":[0,0,0,0,0,0,0,0,0,0,0,0,0],"sum_hessian":[2.16E2,7.3E1,1.43E2,6.7E1,6E0,1E1,1.33E2,5E0,1E0,6E0,4E0,8E0,1.25E2],"tree_param":{"num_deleted":"0","num_feature":"33","num_nodes":"13","size_leaf_vector":"1"}},{"base_weights":[-1.1981591E-2,-8.513516E-2,2.569442E-2,-9.852944E-3,5.7142835E-2,3.6363634E-1,-2.2388296E-3,-8.333336E-3,4.4999998E-2,6.285714E-2,-8.000002E-3,2.4444444E-2,-1.9841294E-3],"categories":[],"categories_nodes":[],"categories_segments":[],"categories_sizes":[],"default_left":[0,0,0,0,0,0,0,0,0,0,0,0,0],"id":80,"left_children":[1,3,5,-1,7,9,11,-1,-1,-1,-1,-1,-1],"loss_changes":[6.002687E-1,1.4665288E-1,1.3601476E0,0E0,4.2380953E-1,1.343169E0,5.8670926E-1,0E0,0E0,0E0,0E0,0E0,0E0],"parents":[2147483647,0,0,1,1,2,2,4,4,5,5,6,6],"right_children":[2,4,6,-1,8,10,12,-1,-1,-1,-1,-1,-1],"split_conditions":[1.907075E10,9.833333E0,2.0614E10,-3.4318646E8,1.261E9,4.923E9,4.15925E9,-1.4224077E8,2.2203802E7,8.65833E6,-8.068444E7,1.3072384E6,-1.0240009E5],"split_indices":[4,30,1,0,14,7,8,0,0,0,0,0,0],"split_type":[0,0,0,0,0,0,0,0,0,0,0,0,0],"sum_hessian":[2.16E2,7.3E1,1.43E2,6.7E1,6E0,1E1,1.33E2,5E0,1E0,6E0,4E0,8E0,1.25E2],"tree_param":{"num_deleted":"0","num_feature":"33","num_nodes":"13","size_leaf_vector":"1"}},{"base_weights":[-2.7650008E-3,-9.824564E-3,3.1055877E-2,6.7499995E-2,1.4556939E-2,8.311686E-3,-5.000002E-3],"categories":[],"categories_nodes":[],"categories_segments":[],"categories_sizes":[],"default_left":[0,0,0,0,0,0,0],"id":81,"left_children":[1,-1,3,-1,5,-1,-1],"loss_changes":[7.0379597E-1,0E0,1.7007015E0,0E0,7.034671E-1,0E0,0E0],"parents":[2147483647,0,0,2,2,4,4],"right_children":[2,-1,4,-1,6,-1,-1],"split_conditions":[1.630625E10,-4.985939E8,4.64E8,1.998336E7,1.977E9,1.2759239E6,-1.5738474E6],"split_indices":[4,0,9,0,14,0,0],"split_type":[0,0,0,0,0,0,0],"sum_hessian":[2.16E2,5.6E1,1.6E2,3E0,1.57E2,7.6E1,8.1E1],"tree_param":{"num_deleted":"0","num_feature":"33","num_nodes":"7","size_leaf_vector":"1"}},{"base_weights":[-7.3732957E-3,-8.7356344E-2,4.58015E-2,-9.8765455E-3,5.7142835E-2,7.2E-2,1.8897614E-2,-8.333336E-3,4.4999998E-2,-5.000002E-3,8.333332E-3],"categories":[],"categories_nodes":[],"categories_segments":[],"categories_sizes":[],"default_left":[0,0,0,0,0,0,0,0,0,0,0],"id":82,"left_children":[1,3,5,-1,7,-1,9,-1,-1,-1,-1],"loss_changes":[9.2692E-1,1.4907253E-1,2.362545E0,0E0,4.2380953E-1,0E0,5.67979E-1,0E0,0E0,0E0,0E0],"parents":[2147483647,0,0,1,1,2,2,4,4,6,6],"right_children":[2,4,6,-1,8,-1,10,-1,-1,-1,-1],"split_conditions":[2.0885E10,9.833333E0,2.17215E10,-8.348903E7,1.261E9,2.236539E7,1.55288E11,-9.555989E7,1.7984922E7,-9.381075E5,9.273341E5],"split_indices":[2,30,4,0,14,0,22,0,0,0,0],"split_type":[0,0,0,0,0,0,0,0,0,0,0],"sum_hessian":[2.16E2,8.6E1,1.3E2,8E1,6E0,4E0,1.26E2,5E0,1E0,6.1E1,6.5E1],"tree_param":{"num_deleted":"0","num_feature":"33","num_nodes":"11","size_leaf_vector":"1"}},{"base_weights":[-1.1981591E-2,-9.833336E-3,2.0886052E-2,4.8571426E-1,-6.579184E-4,-6.6666687E-3,7.2E-2,5.8571408E-3,-5.0602434E-3],"categories":[],"categories_nodes":[],"categories_segments":[],"categories_sizes":[],"default_left":[0,0,0,0,0,0,0,0,0],"id":83,"left_children":[1,-1,3,5,7,-1,-1,-1,-1],"loss_changes":[6.1793864E-1,0E0,1.5825703E0,9.539046E-1,4.5260715E-1,0E0,0E0,0E0,0E0],"parents":[2147483647,0,0,2,2,3,3,4,4],"right_children":[2,-1,4,6,8,-1,-1,-1,-1],"split_conditions":[1.121E9,-2.71093E8,4.94E8,1.57E10,1.977E9,-8.600392E7,1.6186368E7,9.5621094E5,-1.4627636E6],"split_indices":[14,0,9,0,14,0,0,0,0],"split_type":[0,0,0,0,0,0,0,0,0],"sum_hessian":[2.16E2,5.9E1,1.57E2,6E0,1.51E2,2E0,4E0,6.9E1,8.2E1],"tree_param":{"num_deleted":"0","num_feature":"33","num_nodes":"9","size_leaf_vector":"1"}},{"base_weights":[6.451589E-3,-8.513516E-2,5.34722E-2,-9.857145E-3,1.1999998E-1,5.833333E-1,3.0215804E-2,4.4999998E-2,-7.5000017E-3,-5.0000013E-3,7.2E-2,2.5882352E-2,-1.6260399E-4],"categories":[],"categories_nodes":[],"categories_segments":[],"categories_sizes":[],"default_left":[0,0,0,0,0,0,0,0,0,0,0,0,0],"id":84,"left_children":[1,3,5,-1,7,9,11,-1,-1,-1,-1,-1,-1],"loss_changes":[9.3905514E-1,2.1579152E-1,1.7568371E0,0E0,3.5549998E-1,5.553334E-1,1.0122423E0,0E0,0E0,0E0,0E0,0E0,0E0],"parents":[2147483647,0,0,1,1,2,2,4,4,5,5,6,6],"right_children":[2,4,6,-1,8,10,12,-1,-1,-1,-1,-1,-1],"split_conditions":[1.1885E9,6.377E9,4.94E8,-7.026606E7,6.634E9,1.3648E10,1.22E9,2.0033126E7,-2.6481254E7,-7.7403544E7,1.4567629E7,2.63996E7,2.670513E4],"split_indices":[16,6,9,0,6,0,14,0,0,0,0,0,0],"split_type":[0,0,0,0,0,0,0,0,0,0,0,0,0],"sum_hessian":[2.16E2,7.3E1,1.43E2,6.9E1,4E0,5E0,1.38E2,1E0,3E0,1E0,4E0,1.6E1,1.22E2],"tree_param":{"num_deleted":"0","num_feature":"33","num_nodes":"13","size_leaf_vector":"1"}},{"base_weights":[1.8432942E-3,-9.824564E-3,3.7267055E-2,7.2E-2,1.52866E-2,1.2749999E-2,-2.288138E-3],"categories":[0,1,2],"categories_nodes":[4],"categories_segments":[0],"categories_sizes":[3],"default_left":[0,0,0,0,1,0,0],"id":85,"left_children":[1,-1,3,-1,5,-1,-1],"loss_changes":[7.7304065E-1,0E0,2.4050853E0,0E0,6.753418E-1,0E0,0E0],"parents":[2147483647,0,0,2,2,4,4],"right_children":[2,-1,4,-1,6,-1,-1],"split_conditions":[1.630625E10,-4.3243066E8,4.94E8,1.3110887E7,1E-45,5.7409535E6,-1.0798721E6],"split_indices":[4,0,9,0,32,0,0],"split_type":[0,0,0,0,1,0,0],"sum_hessian":[2.16E2,5.6E1,1.6E2,4E0,1.56E2,3.9E1,1.17E2],"tree_param":{"num_deleted":"0","num_feature":"33","num_nodes":"7","size_leaf_vector":"1"}},{"base_weights":[-7.3732957E-3,-9.824564E-3,2.4844697E-2,7.2E-2,2.547747E-3,-7.843161E-4,3.2E-2],"categories":[],"categories_nodes":[],"categories_segments":[],"categories_sizes":[],"default_left":[0,0,0,0,0,0,0],"id":86,"left_children":[1,-1,3,-1,5,-1,-1],"loss_changes":[6.377571E-1,0E0,2.4936402E0,0E0,5.203927E-1,0E0,0E0],"parents":[2147483647,0,0,2,2,4,4],"right_children":[2,-1,4,-1,6,-1,-1],"split_conditions":[1.630625E10,-3.8918755E8,4.94E8,1.1799757E7,6.468E9,-4.6080055E4,3.702129E7],"split_indices":[4,0,9,0,15,0,0],"split_type":[0,0,0,0,0,0,0],"sum_hessian":[2.16E2,5.6E1,1.6E2,4E0,1.56E2,1.52E2,4E0],"tree_param":{"num_deleted":"0","num_feature":"33","num_nodes":"7","size_leaf_vector":"1"}},{"base_weights":[-7.3732957E-3,-2.8061248E-2,1.772727E-1,-9.855076E-3,1.0156226E-2,-9.285717E-3,5.7777774E-1,5.1999997E-2,-1.0483895E-3,7.714286E-2,-6.6666687E-3],"categories":[],"categories_nodes":[],"categories_segments":[],"categories_sizes":[],"default_left":[0,0,0,0,0,0,0,0,0,0,0],"id":87,"left_children":[1,3,5,-1,7,-1,9,-1,-1,-1,-1],"loss_changes":[8.3390313E-1,5.290113E-1,2.433795E0,0E0,1.3524259E0,0E0,1.174603E0,0E0,0E0,0E0,0E0],"parents":[2147483647,0,0,1,1,2,2,4,4,6,6],"right_children":[2,4,6,-1,8,-1,10,-1,-1,-1,-1],"split_conditions":[9.466666E0,2.0885E10,1.197E9,-1.406057E8,2.17215E10,-1.9121509E8,3.7432E10,1.746043E7,-4.3008043E4,2.3601972E7,-1.3963264E6],"split_indices":[30,2,15,0,4,0,0,0,0,0,0],"split_type":[0,0,0,0,0,0,0,0,0,0,0],"sum_hessian":[2.16E2,1.95E2,2.1E1,6.8E1,1.27E2,1.3E1,8E0,4E0,1.23E2,6E0,2E0],"tree_param":{"num_deleted":"0","num_feature":"33","num_nodes":"11","size_leaf_vector":"1"}},{"base_weights":[-1.6589886E-2,-2.740387E-2,2.0999998E-1,-8.6419776E-2,1.0156226E-2,6E-2,3.749998E-2,-9.875002E-3,4.4999998E-2,5.1999997E-2,-1.0483895E-3,-8.333336E-3,2.6666665E-2],"categories":[],"categories_nodes":[],"categories_segments":[],"categories_sizes":[],"default_left":[0,0,0,0,0,0,0,0,0,0,0,0,0],"id":88,"left_children":[1,3,5,7,9,-1,11,-1,-1,-1,-1,-1,-1],"loss_changes":[5.374784E-1,4.619395E-1,6.502501E-1,5.801867E-1,1.3524259E0,0E0,2.4375E-1,0E0,0E0,0E0,0E0,0E0,0E0],"parents":[2147483647,0,0,1,1,2,2,3,3,4,4,6,6],"right_children":[2,4,6,8,10,-1,12,-1,-1,-1,-1,-1,-1],"split_conditions":[9.833333E0,2.0885E10,3.86806E8,2.601E10,2.17215E10,1.0138624E7,7.068E9,-5.434998E7,2.770944E5,1.5714304E7,-3.8502445E4,-1.2566529E6,2.1241856E7],"split_indices":[30,2,9,0,4,0,5,0,0,0,0,0,0],"split_type":[0,0,0,0,0,0,0,0,0,0,0,0,0],"sum_hessian":[2.16E2,2.07E2,9E0,8E1,1.27E2,2E0,7E0,7.9E1,1E0,4E0,1.23E2,5E0,2E0],"tree_param":{"num_deleted":"0","num_feature":"33","num_nodes":"13","size_leaf_vector":"1"}},{"base_weights":[-7.3732957E-3,-2.8061248E-2,1.772727E-1,-9.855076E-3,1.0156226E-2,-9.285717E-3,5.7777774E-1,5.1999997E-2,-1.0483895E-3,7.714286E-2,-6.6666687E-3],"categories":[],"categories_nodes":[],"categories_segments":[],"categories_sizes":[],"default_left":[0,0,0,0,0,0,0,0,0,0,0],"id":89,"left_children":[1,3,5,-1,7,-1,9,-1,-1,-1,-1],"loss_changes":[8.3390313E-1,5.290113E-1,2.433795E0,0E0,1.3524259E0,0E0,1.174603E0,0E0,0E0,0E0,0E0],"parents":[2147483647,0,0,1,1,2,2,4,4,6,6],"right_children":[2,4,6,-1,8,-1,10,-1,-1,-1,-1],"split_conditions":[9.466666E0,2.0885E10,1.197E9,-1.2111017E8,2.17215E10,-1.6984408E8,3.7432E10,1.4142874E7,-3.4816043E4,1.911767E7,-1.1309056E6],"split_indices":[30,2,15,0,4,0,0,0,0,0,0],"split_type":[0,0,0,0,0,0,0,0,0,0,0],"sum_hessian":[2.16E2,1.95E2,2.1E1,6.8E1,1.27E2,1.3E1,8E0,4E0,1.23E2,6E0,2E0],"tree_param":{"num_deleted":"0","num_feature":"33","num_nodes":"11","size_leaf_vector":"1"}},{"base_weights":[-7.3732957E-3,-2.4120627E-2,1.6842103E-1,-9.857145E-3,1.6153822E-2,-9.166669E-3,5.3749996E-1,2.2272727E-2,-2.5688098E-3,7.5E-2,-6.6666687E-3],"categories":[],"categories_nodes":[],"categories_segments":[],"categories_sizes":[],"default_left":[0,0,0,0,0,0,0,0,0,0,0],"id":90,"left_children":[1,3,5,-1,7,-1,9,-1,-1,-1,-1],"loss_changes":[6.42929E-1,5.9828705E-1,1.8731359E0,0E0,1.1293671E0,0E0,1.0770833E0,0E0,0E0,0E0,0E0],"parents":[2147483647,0,0,1,1,2,2,4,4,6,6],"right_children":[2,4,6,-1,8,-1,10,-1,-1,-1,-1],"split_conditions":[9.5E0,4.923E9,1.197E9,-1.3181956E8,2.3317E10,-1.06350264E8,3.7432E10,1.1623626E7,-1.7059878E5,1.7206068E7,-1.017856E6],"split_indices":[30,6,15,0,3,0,0,0,0,0,0],"split_type":[0,0,0,0,0,0,0,0,0,0,0],"sum_hessian":[2.16E2,1.98E2,1.8E1,6.9E1,1.29E2,1.1E1,7E0,2.1E1,1.08E2,5E0,2E0],"tree_param":{"num_deleted":"0","num_feature":"33","num_nodes":"11","size_leaf_vector":"1"}},{"base_weights":[-1.1981591E-2,-3.316329E-2,1.772727E-1,-9.87342E-3,1.1016926E-2,-9.285717E-3,5.7777774E-1,4.8571426E-2,-1.8750023E-3,7.714286E-2,-6.6666687E-3],"categories":[],"categories_nodes":[],"categories_segments":[],"categories_sizes":[],"default_left":[0,0,0,0,0,0,0,0,0,0,0],"id":91,"left_children":[1,3,5,-1,7,-1,9,-1,-1,-1,-1],"loss_changes":[8.757728E-1,5.688875E-1,2.433795E0,0E0,1.6764816E0,0E0,1.174603E0,0E0,0E0,0E0,0E0],"parents":[2147483647,0,0,1,1,2,2,4,4,6,6],"right_children":[2,4,6,-1,8,-1,10,-1,-1,-1,-1],"split_conditions":[9.466666E0,5.41E9,1.197E9,-9.656814E6,5.863E9,-1.412058E8,3.7432E10,2.3352526E7,-5.160999E4,1.5485338E7,-9.162752E5],"split_indices":[30,7,15,0,7,0,0,0,0,0,0],"split_type":[0,0,0,0,0,0,0,0,0,0,0],"sum_hessian":[2.16E2,1.95E2,2.1E1,7.8E1,1.17E2,1.3E1,8E0,6E0,1.11E2,6E0,2E0],"tree_param":{"num_deleted":"0","num_feature":"33","num_nodes":"11","size_leaf_vector":"1"}},{"base_weights":[-1.1981591E-2,-9.824564E-3,1.8633517E-2,5.2E-1,2.547747E-3,-5.0000013E-3,6.7499995E-2,6E-2,-9.0322824E-4],"categories":[],"categories_nodes":[],"categories_segments":[],"categories_sizes":[],"default_left":[0,0,0,0,0,0,0,0,0],"id":92,"left_children":[1,-1,3,5,7,-1,-1,-1,-1],"loss_changes":[5.74924E-1,0E0,1.2971185E0,4.755E-1,1.091626E0,0E0,0E0,0E0,0E0],"parents":[2147483647,0,0,2,2,3,3,4,4],"right_children":[2,-1,4,6,8,-1,-1,-1,-1],"split_conditions":[1.109E9,-2.5141666E8,1.127E9,2.1329E10,1.8542E10,-2.4332718E8,2.101719E7,3.9440385E6,-1.0035253E4],"split_indices":[14,0,14,0,20,0,0,0,0],"split_type":[0,0,0,0,0,0,0,0,0],"sum_hessian":[2.16E2,5.6E1,1.6E2,4E0,1.56E2,1E0,3E0,2E0,1.54E2],"tree_param":{"num_deleted":"0","num_feature":"33","num_nodes":"9","size_leaf_vector":"1"}},{"base_weights":[-1.1981591E-2,-9.855076E-3,2.8187895E-2,3.6363634E-1,1.4388253E-3,-8.000002E-3,6.285714E-2,5.1999997E-2,-1.7777801E-3],"categories":[],"categories_nodes":[],"categories_segments":[],"categories_sizes":[],"default_left":[0,0,0,0,0,0,0,0,0],"id":93,"left_children":[1,-1,3,5,7,-1,-1,-1,-1],"loss_changes":[7.573821E-1,0E0,1.336444E0,1.343169E0,1.3943789E0,0E0,0E0,0E0,0E0],"parents":[2147483647,0,0,2,2,3,3,4,4],"right_children":[2,-1,4,6,8,-1,-1,-1,-1],"split_conditions":[1.14E9,-2.7570784E7,1.15275E9,1.6195E10,1.3648E10,-3.2712705E6,9.23177E6,9.972122E6,-9.041968E4],"split_indices":[15,0,16,0,3,0,0,0,0],"split_type":[0,0,0,0,0,0,0,0,0],"sum_hessian":[2.16E2,6.8E1,1.48E2,1E1,1.38E2,4E0,6E0,4E0,1.34E2],"tree_param":{"num_deleted":"0","num_feature":"33","num_nodes":"9","size_leaf_vector":"1"}},{"base_weights":[6.451589E-3,-4.2553216E-2,9.610387E-2,-5.4477636E-2,1.6249998E-1,4.0499997E-1,-1.2068989E-2,2.6666665E-2,-6.136366E-3,6E-2,-8.333336E-3,2.2222202E-3,6.583333E-2,-2.80702E-3,4.4999998E-2],"categories":[],"categories_nodes":[],"categories_segments":[],"categories_sizes":[],"default_left":[0,0,0,0,0,0,0,0,0,0,0,0,0,0,0],"id":94,"left_children":[1,3,5,7,9,11,13,-1,-1,-1,-1,-1,-1,-1,-1],"loss_changes":[9.574557E-1,3.5361746E-1,2.5777795E0,3.1269225E-1,9.104167E-1,1.9247777E0,4.41464E-1,0E0,0E0,0E0,0E0,0E0,0E0,0E0,0E0],"parents":[2147483647,0,0,1,1,2,2,3,3,4,4,5,5,6,6],"right_children":[2,4,6,8,10,12,14,-1,-1,-1,-1,-1,-1,-1,-1],"split_conditions":[1.20292E11,9.833333E0,3.7472E10,-4.92E8,3.86806E8,4E0,5.23013E11,3.7081088E6,-3.045622E6,2.5524225E6,-8.1469444E5,1.4536704E6,2.1882348E7,-9.270487E5,8.118272E5],"split_indices":[20,30,2,6,9,29,17,0,0,0,0,0,0,0,0],"split_type":[0,0,0,0,0,0,0,0,0,0,0,0,0,0,0],"sum_hessian":[2.16E2,1.4E2,7.6E1,1.33E2,7E0,1.9E1,5.7E1,2E0,1.31E2,2E0,5E0,8E0,1.1E1,5.6E1,1E0],"tree_param":{"num_deleted":"0","num_feature":"33","num_nodes":"15","size_leaf_vector":"1"}},{"base_weights":[-2.7650008E-3,-9.824564E-3,3.1055877E-2,5.2E-1,1.52866E-2,-5.0000013E-3,6.7499995E-2,3.5555553E-2,-5.369151E-4],"categories":[],"categories_nodes":[],"categories_segments":[],"categories_sizes":[],"default_left":[0,0,0,0,0,0,0,0,0],"id":95,"left_children":[1,-1,3,5,7,-1,-1,-1,-1],"loss_changes":[7.0379597E-1,0E0,1.2334083E0,4.755E-1,1.1053853E0,0E0,0E0,0E0,0E0],"parents":[2147483647,0,0,2,2,3,3,4,4],"right_children":[2,-1,4,6,8,-1,-1,-1,-1],"split_conditions":[1.109E9,-2.2321344E8,1.127E9,2.1329E10,5.81E8,-2.1868094E8,1.6736256E7,9.279488E6,-2.5409695E5],"split_indices":[14,0,14,0,9,0,0,0,0],"split_type":[0,0,0,0,0,0,0,0,0],"sum_hessian":[2.16E2,5.6E1,1.6E2,4E0,1.56E2,1E0,3E0,8E0,1.48E2],"tree_param":{"num_deleted":"0","num_feature":"33","num_nodes":"9","size_leaf_vector":"1"}},{"base_weights":[-7.3732957E-3,-9.852944E-3,3.3999976E-2,1.3333331E-1,-5.0000023E-2,6.53061E-3,2.8571427E-2,-6.1250026E-3,2.6666665E-2],"categories":[],"categories_nodes":[],"categories_segments":[],"categories_sizes":[],"default_left":[0,0,0,0,0,0,0,0,0],"id":96,"left_children":[1,-1,3,5,7,-1,-1,-1,-1],"loss_changes":[8.217498E-1,0E0,1.2582666E0,6.9659877E-1,3.0845833E-1,0E0,0E0,0E0,0E0],"parents":[2147483647,0,0,2,2,3,3,4,4],"right_children":[2,-1,4,6,8,-1,-1,-1,-1],"split_conditions":[1.139E9,-2.6418138E7,1.977E9,1.63325E9,1.19575E11,8.0479015E6,1.1781917E7,-1.7391634E6,3.3480704E7],"split_indices":[15,0,14,16,2,0,0,0,0],"split_type":[0,0,0,0,0,0,0,0,0],"sum_hessian":[2.16E2,6.7E1,1.49E2,6.8E1,8.1E1,4.8E1,2E1,7.9E1,2E0],"tree_param":{"num_deleted":"0","num_feature":"33","num_nodes":"9","size_leaf_vector":"1"}},{"base_weights":[-1.1981591E-2,-4.9645413E-2,5.7142835E-2,-6.1940324E-2,1.6249998E-1,4.0714285E-1,-2.0312523E-2,2.6666665E-2,-6.8939417E-3,-7.5000017E-3,3.2E-2,8.333332E-3,5.7777774E-2,2.4999999E-2,-4.745765E-3],"categories":[],"categories_nodes":[],"categories_segments":[],"categories_sizes":[],"default_left":[0,0,0,0,0,0,0,0,0,0,0,0,0,0,0],"id":97,"left_children":[1,3,5,7,9,11,13,-1,-1,-1,-1,-1,-1,-1,-1],"loss_changes":[5.6779426E-1,3.7783673E-1,2.0956922E0,3.2657737E-1,3.2325006E-1,7.2539663E-1,4.8147514E-1,0E0,0E0,0E0,0E0,0E0,0E0,0E0,0E0],"parents":[2147483647,0,0,1,1,2,2,3,3,4,4,5,5,6,6],"right_children":[2,4,6,8,10,12,14,-1,-1,-1,-1,-1,-1,-1,-1],"split_conditions":[1.20292E11,9.833333E0,1.21E9,-4.92E8,1.3648E10,3.9333334E0,8.809E9,2.1848065E6,-3.2219142E6,-1.314816E6,1.8653798E7,2.2765568E6,2.089042E7,2.063319E7,-4.169319E5],"split_indices":[20,30,14,6,1,29,5,0,0,0,0,0,0,0,0],"split_type":[0,0,0,0,0,0,0,0,0,0,0,0,0,0,0],"sum_hessian":[2.16E2,1.4E2,7.6E1,1.33E2,7E0,1.3E1,6.3E1,2E0,1.31E2,3E0,4E0,5E0,8E0,5E0,5.8E1],"tree_param":{"num_deleted":"0","num_feature":"33","num_nodes":"15","size_leaf_vector":"1"}},{"base_weights":[-2.5806475E-2,-8.571431E-2,7.092175E-3,-9.868423E-3,4.4999998E-2,6.7499995E-2,-1.2318864E-2,2.4166664E-2,-3.6220495E-3],"categories":[],"categories_nodes":[],"categories_segments":[],"categories_sizes":[],"default_left":[0,0,0,0,0,0,0,0,0],"id":98,"left_children":[1,3,5,-1,-1,-1,7,-1,-1],"loss_changes":[4.2829037E-1,5.794172E-1,1.8363498E0,0E0,0E0,0E0,8.465056E-1,0E0,0E0],"parents":[2147483647,0,0,1,1,2,2,6,6],"right_children":[2,4,6,-1,-1,-1,8,-1,-1],"split_conditions":[1.9022E10,2.15E10,1.8103E10,-1.5418718E8,7.4954755E6,1.678848E7,1.127E9,1.7474926E7,-4.4605472E5],"split_indices":[2,0,0,0,0,0,14,0,0],"split_type":[0,0,0,0,0,0,0,0,0],"sum_hessian":[2.16E2,7.6E1,1.4E2,7.5E1,1E0,3E0,1.37E2,1.1E1,1.26E2],"tree_param":{"num_deleted":"0","num_feature":"33","num_nodes":"9","size_leaf_vector":"1"}},{"base_weights":[-7.3732957E-3,-2.2596177E-2,3.0999997E-1,-9.830511E-3,7.33331E-3,-7.5000017E-3,4.8571426E-1,5.1999997E-2,-1.0273997E-3,7.2E-2,-6.6666687E-3],"categories":[],"categories_nodes":[],"categories_segments":[],"categories_sizes":[],"default_left":[0,0,0,0,0,0,0,0,0,0,0],"id":99,"left_children":[1,3,5,-1,7,-1,9,-1,-1,-1,-1],"loss_changes":[1.0554047E0,4.7203422E-1,7.1292865E-1,0E0,1.3593442E0,0E0,9.539046E-1,0E0,0E0,0E0,0E0],"parents":[2147483647,0,0,1,1,2,2,4,4,6,6],"right_children":[2,4,6,-1,8,-1,10,-1,-1,-1,-1],"split_conditions":[9.833333E0,1.778E10,1.01075E9,-2.7629507E8,5.4666E10,-2.8113757E8,3.7432E10,1.393193E7,-5.865499E4,1.5109735E7,-2.3543808E6],"split_indices":[30,4,16,0,23,0,0,0,0,0,0],"split_type":[0,0,0,0,0,0,0,0,0,0,0],"sum_hessian":[2.16E2,2.07E2,9E0,5.8E1,1.49E2,3E0,6E0,4E0,1.45E2,4E0,2E0],"tree_param":{"num_deleted":"0","num_feature":"33","num_nodes":"11","size_leaf_vector":"1"}},{"base_weights":[-1.1981591E-2,-2.740387E-2,3.0999997E-1,-9.838712E-3,2.7210647E-3,-7.5000017E-3,4.8571426E-1,6E-2,-9.6551963E-4,7.2E-2,-6.6666687E-3],"categories":[],"categories_nodes":[],"categories_segments":[],"categories_sizes":[],"default_left":[0,0,0,0,0,0,0,0,0,0,0],"id":100,"left_children":[1,3,5,-1,7,-1,9,-1,-1,-1,-1],"loss_changes":[1.0860498E0,4.4504786E-1,7.1292865E-1,0E0,1.0924288E0,0E0,9.539046E-1,0E0,0E0,0E0,0E0],"parents":[2147483647,0,0,1,1,2,2,4,4,6,6],"right_children":[2,4,6,-1,8,-1,10,-1,-1,-1,-1],"split_conditions":[9.833333E0,1.808975E10,1.01075E9,-1.9044741E8,1.5837E10,-2.5302386E8,3.7432E10,1.2538675E7,-4.5261066E4,1.359872E7,-2.1188608E6],"split_indices":[30,4,16,0,2,0,0,0,0,0,0],"split_type":[0,0,0,0,0,0,0,0,0,0,0],"sum_hessian":[2.16E2,2.07E2,9E0,6.1E1,1.46E2,3E0,6E0,2E0,1.44E2,4E0,2E0],"tree_param":{"num_deleted":"0","num_feature":"33","num_nodes":"11","size_leaf_vector":"1"}},{"base_weights":[-7.3732957E-3,-2.2596177E-2,3.0999997E-1,-9.830511E-3,7.33331E-3,-7.5000017E-3,4.8571426E-1,5.1999997E-2,-1.0273997E-3,7.2E-2,-6.6666687E-3],"categories":[],"categories_nodes":[],"categories_segments":[],"categories_sizes":[],"default_left":[0,0,0,0,0,0,0,0,0,0,0],"id":101,"left_children":[1,3,5,-1,7,-1,9,-1,-1,-1,-1],"loss_changes":[1.0554047E0,4.7203422E-1,7.1292865E-1,0E0,1.3593442E0,0E0,9.539046E-1,0E0,0E0,0E0,0E0],"parents":[2147483647,0,0,1,1,2,2,4,4,6,6],"right_children":[2,4,6,-1,8,-1,10,-1,-1,-1,-1],"split_conditions":[9.833333E0,1.778E10,1.01075E9,-2.2962074E8,5.4666E10,-2.2772142E8,3.7432E10,1.8603828E7,-4.841499E4,1.2238848E7,-1.9070976E6],"split_indices":[30,4,16,0,23,0,0,0,0,0,0],"split_type":[0,0,0,0,0,0,0,0,0,0,0],"sum_hessian":[2.16E2,2.07E2,9E0,5.8E1,1.49E2,3E0,6E0,4E0,1.45E2,4E0,2E0],"tree_param":{"num_deleted":"0","num_feature":"33","num_nodes":"11","size_leaf_vector":"1"}},{"base_weights":[-7.3732957E-3,-8.450706E-2,2.993195E-2,-9.857145E-3,4.4999998E-2,7.2E-2,5.594382E-3,3.5555553E-2,-1.7777801E-3],"categories":[],"categories_nodes":[],"categories_segments":[],"categories_sizes":[],"default_left":[0,0,0,0,0,0,0,0,0],"id":102,"left_children":[1,3,5,-1,-1,-1,7,-1,-1],"loss_changes":[6.269457E-1,5.7810056E-1,2.4647748E0,0E0,0E0,0E0,1.175969E0,0E0,0E0],"parents":[2147483647,0,0,1,1,2,2,6,6],"right_children":[2,4,6,-1,-1,-1,8,-1,-1],"split_conditions":[1.15E9,1.8344E11,4.64E8,-1.3172754E7,3.166208E5,1.0140672E7,1.179E9,1.6743424E7,-4.7093856E5],"split_indices":[15,21,9,0,0,0,15,0,0],"split_type":[0,0,0,0,0,0,0,0,0],"sum_hessian":[2.16E2,7E1,1.46E2,6.9E1,1E0,4E0,1.42E2,8E0,1.34E2],"tree_param":{"num_deleted":"0","num_feature":"33","num_nodes":"9","size_leaf_vector":"1"}},{"base_weights":[1.566818E-2,-8.0701776E-2,4.9689416E-2,-9.814817E-3,1.7499998E-1,7.2E-2,2.8025454E-2,4.4999998E-2,-6.6666687E-3,2.1562498E-2,-1.9841294E-3],"categories":[],"categories_nodes":[],"categories_segments":[],"categories_sizes":[],"default_left":[0,0,0,0,0,0,0,0,0,0,0],"id":103,"left_children":[1,3,5,-1,7,-1,9,-1,-1,-1,-1],"loss_changes":[7.1547174E-1,2.714571E-1,2.3177967E0,0E0,2.9583335E-1,0E0,1.4141036E0,0E0,0E0,0E0,0E0],"parents":[2147483647,0,0,1,1,2,2,4,4,6,6],"right_children":[2,4,6,-1,8,-1,10,-1,-1,-1,-1],"split_conditions":[1.630625E10,9.933333E0,8.6051E10,-2.0995126E8,3.58E8,9.340519E6,1.202E9,9.008947E6,-2.0490219E8,6.2037185E6,-4.541244E5],"split_indices":[4,30,17,0,9,0,15,0,0,0,0],"split_type":[0,0,0,0,0,0,0,0,0,0,0],"sum_hessian":[2.16E2,5.6E1,1.6E2,5.3E1,3E0,4E0,1.56E2,1E0,2E0,3.1E1,1.25E2],"tree_param":{"num_deleted":"0","num_feature":"33","num_nodes":"11","size_leaf_vector":"1"}},{"base_weights":[6.451589E-3,-8.166669E-2,3.9873395E-2,-9.827589E-3,2.6666665E-1,7.2E-2,1.7532444E-2,4.4999998E-2,-5.0000013E-3,4.1666668E-2,1.3422582E-4],"categories":[],"categories_nodes":[],"categories_segments":[],"categories_sizes":[],"default_left":[0,0,0,0,0,0,0,0,0,0,0],"id":104,"left_children":[1,3,5,-1,7,-1,9,-1,-1,-1,-1],"loss_changes":[6.423369E-1,3.733391E-1,2.388135E0,0E0,1.9666666E-1,0E0,9.9459755E-1,0E0,0E0,0E0,0E0],"parents":[2147483647,0,0,1,1,2,2,4,4,6,6],"right_children":[2,4,6,-1,8,-1,10,-1,-1,-1,-1],"split_conditions":[1.109E9,2.357075E10,4.64E8,-1.297406E8,2.3317E10,8.1924095E6,1.11875E9,2.82624E5,-3.354624E5,1.716183E7,2.6091248E4],"split_indices":[15,4,9,0,0,0,16,0,0,0,0],"split_type":[0,0,0,0,0,0,0,0,0,0,0],"sum_hessian":[2.16E2,5.9E1,1.57E2,5.7E1,2E0,4E0,1.53E2,1E0,1E0,5E0,1.48E2],"tree_param":{"num_deleted":"0","num_feature":"33","num_nodes":"11","size_leaf_vector":"1"}},{"base_weights":[6.451589E-3,-9.77273E-3,3.2758597E-2,6.7499995E-2,1.7543836E-2,1.3947367E-2,-1.7164203E-3],"categories":[],"categories_nodes":[],"categories_segments":[],"categories_sizes":[],"default_left":[0,0,0,0,0,0,0],"id":105,"left_children":[1,-1,3,-1,5,-1,-1],"loss_changes":[5.9791917E-1,0E0,1.6884075E0,0E0,7.260566E-1,0E0,0E0],"parents":[2147483647,0,0,2,2,4,4],"right_children":[2,-1,4,-1,6,-1,-1],"split_conditions":[1.3499E10,-2.278871E8,4.08384E8,7.3732095E6,1.21E9,6.9800335E6,-3.0531588E5],"split_indices":[1,0,9,0,16,0,0],"split_type":[0,0,0,0,0,0,0],"sum_hessian":[2.16E2,4.3E1,1.73E2,3E0,1.7E2,3.7E1,1.33E2],"tree_param":{"num_deleted":"0","num_feature":"33","num_nodes":"7","size_leaf_vector":"1"}},{"base_weights":[-7.3732957E-3,-9.852944E-3,3.3999976E-2,6.7499995E-2,1.6326508E-2,2.3999998E-2,-9.0225803E-4],"categories":[],"categories_nodes":[],"categories_segments":[],"categories_sizes":[],"default_left":[0,0,0,0,0,0,0],"id":106,"left_children":[1,-1,3,-1,5,-1,-1],"loss_changes":[8.217498E-1,0E0,1.6882836E0,0E0,8.3564335E-1,0E0,0E0],"parents":[2147483647,0,0,2,2,4,4],"right_children":[2,-1,4,-1,6,-1,-1],"split_conditions":[1.139E9,-9.941735E6,1.2951E10,6.6359295E6,1.202E9,9.738034E6,-2.9003872E5],"split_indices":[15,0,3,0,15,0,0],"split_type":[0,0,0,0,0,0,0],"sum_hessian":[2.16E2,6.7E1,1.49E2,3E0,1.46E2,1.4E1,1.32E2],"tree_param":{"num_deleted":"0","num_feature":"33","num_nodes":"7","size_leaf_vector":"1"}},{"base_weights":[1.1059884E-2,-9.77273E-3,3.850572E-2,6.7499995E-2,2.3391789E-2,1.7073167E-2,-2.2900787E-3],"categories":[],"categories_nodes":[],"categories_segments":[],"categories_sizes":[],"default_left":[0,0,0,0,0,0,0],"id":107,"left_children":[1,-1,3,-1,5,-1,-1],"loss_changes":[6.51672E-1,0E0,1.6580787E0,0E0,1.1702571E0,0E0,0E0],"parents":[2147483647,0,0,2,2,4,4],"right_children":[2,-1,4,-1,6,-1,-1],"split_conditions":[1.3499E10,-2.041043E8,4.08384E8,5.9723775E6,1.21E9,5.2213545E6,-4.7233025E5],"split_indices":[1,0,9,0,14,0,0],"split_type":[0,0,0,0,0,0,0],"sum_hessian":[2.16E2,4.3E1,1.73E2,3E0,1.7E2,4E1,1.3E2],"tree_param":{"num_deleted":"0","num_feature":"33","num_nodes":"7","size_leaf_vector":"1"}},{"base_weights":[1.566818E-2,-9.77273E-3,4.425285E-2,7.2E-2,2.4117623E-2,1.7749999E-2,-2.2900787E-3],"categories":[],"categories_nodes":[],"categories_segments":[],"categories_sizes":[],"default_left":[0,0,0,0,0,0,0],"id":108,"left_children":[1,-1,3,-1,5,-1,-1],"loss_changes":[7.077026E-1,0E0,2.3501353E0,0E0,1.23007E0,0E0,0E0],"parents":[2147483647,0,0,2,2,4,4],"right_children":[2,-1,4,-1,6,-1,-1],"split_conditions":[1.05025E9,