{"learner":{"attributes":{"scikit_learn":"{\"_estimator_type\": \"regressor\"}"},"feature_names":["revenues_lag_1","revenues_lag_2","revenues_lag_3","revenues_lag_4","revenues_rolling_avg_4","net_income_lag_2","net_income_lag_3","net_income_lag_4","net_income_rolling_avg_4","research_and_development_expense_lag_4","research_and_development_expense_lag_5","research_and_development_expense_lag_6","research_and_development_expense_lag_7","research_and_development_expense_lag_8","selling_general_and_administrative_expense_lag_1","selling_general_and_administrative_expense_lag_2","selling_general_and_administrative_expense_rolling_avg_4","assets_lag_2","assets_lag_3","assets_lag_4","liabilities_lag_2","liabilities_lag_3","liabilities_lag_4","shareholder_equity_lag_2","shareholder_equity_lag_3","shareholder_equity_lag_4","gdp_lag_1","gdp_lag_2","cpi_lag_1","unemployment_lag_1","unemployment_lag_2","year","quarter"],"feature_types":["float","float","float","float","float","float","float","float","float","float","float","float","float","float","float","float","float","float","float","float","float","float","float","float","float","float","float","float","float","float","float","int","c"],"gradient_booster":{"model":{"gbtree_model_param":{"num_parallel_tree":"1","num_trees":"500"},"iteration_indptr":[0,1,2,3,4,5,6,7,8,9,10,11,12,13,14,15,16,17,18,19,20,21,22,23,24,25,26,27,28,29,30,31,32,33,34,35,36,37,38,39,40,41,42,43,44,45,46,47,48,49,50,51,52,53,54,55,56,57,58,59,60,61,62,63,64,65,66,67,68,69,70,71,72,73,74,75,76,77,78,79,80,81,82,83,84,85,86,87,88,89,90,91,92,93,94,95,96,97,98,99,100,101,102,103,104,105,106,107,108,109,110,111,112,113,114,115,116,117,118,119,120,121,122,123,124,125,126,127,128,129,130,131,132,133,134,135,136,137,138,139,140,141,142,143,144,145,146,147,148,149,150,151,152,153,154,155,156,157,158,159,160,161,162,163,164,165,166,167,168,169,170,171,172,173,174,175,176,177,178,179,180,181,182,183,184,185,186,187,188,189,190,191,192,193,194,195,196,197,198,199,200,201,202,203,204,205,206,207,208,209,210,211,212,213,214,215,216,217,218,219,220,221,222,223,224,225,226,227,228,229,230,231,232,233,234,235,236,237,238,239,240,241,242,243,244,245,246,247,248,249,250,251,252,253,254,255,256,257,258,259,260,261,262,263,264,265,266,267,268,269,270,271,272,273,274,275,276,277,278,279,280,281,282,283,284,285,286,287,288,289,290,291,292,293,294,295,296,297,298,299,300,301,302,303,304,305,306,307,308,309,310,311,312,313,314,315,316,317,318,319,320,321,322,323,324,325,326,327,328,329,330,331,332,333,334,335,336,337,338,339,340,341,342,343,344,345,346,347,348,349,350,351,352,353,354,355,356,357,358,359,360,361,362,363,364,365,366,367,368,369,370,371,372,373,374,375,376,377,378,379,380,381,382,383,384,385,386,387,388,389,390,391,392,393,394,395,396,397,398,399,400,401,402,403,404,405,406,407,408,409,410,411,412,413,414,415,416,417,418,419,420,421,422,423,424,425,426,427,428,429,430,431,432,433,434,435,436,437,438,439,440,441,442,443,444,445,446,447,448,449,450,451,452,453,454,455,456,457,458,459,460,461,462,463,464,465,466,467,468,469,470,471,472,473,474,475,476,477,478,479,480,481,482,483,484,485,486,487,488,489,490,491,492,493,494,495,496,497,498,499,500],"tree_info":[0,0,0,0,0,0,0,0,0,0,0,0,0,0,0,0,0,0,0,0,0,0,0,0,0,0,0,0,0,0,0,0,0,0,0,0,0,0,0,0,0,0,0,0,0,0,0,0,0,0,0,0,0,0,0,0,0,0,0,0,0,0,0,0,0,0,0,0,0,0,0,0,0,0,0,0,0,0,0,0,0,0,0,0,0,0,0,0,0,0,0,0,0,0,0,0,0,0,0,0,0,0,0,0,0,0,0,0,0,0,0,0,0,0,0,0,0,0,0,0,0,0,0,0,0,0,0,0,0,0,0,0,0,0,0,0,0,0,0,0,0,0,0,0,0,0,0,0,0,0,0,0,0,0,0,0,0,0,0,0,0,0,0,0,0,0,0,0,0,0,0,0,0,0,0,0,0,0,0,0,0,0,0,0,0,0,0,0,0,0,0,0,0,0,0,0,0,0,0,0,0,0,0,0,0,0,0,0,0,0,0,0,0,0,0,0,0,0,0,0,0,0,0,0,0,0,0,0,0,0,0,0,0,0,0,0,0,0,0,0,0,0,0,0,0,0,0,0,0,0,0,0,0,0,0,0,0,0,0,0,0,0,0,0,0,0,0,0,0,0,0,0,0,0,0,0,0,0,0,0,0,0,0,0,0,0,0,0,0,0,0,0,0,0,0,0,0,0,0,0,0,0,0,0,0,0,0,0,0,0,0,0,0,0,0,0,0,0,0,0,0,0,0,0,0,0,0,0,0,0,0,0,0,0,0,0,0,0,0,0,0,0,0,0,0,0,0,0,0,0,0,0,0,0,0,0,0,0,0,0,0,0,0,0,0,0,0,0,0,0,0,0,0,0,0,0,0,0,0,0,0,0,0,0,0,0,0,0,0,0,0,0,0,0,0,0,0,0,0,0,0,0,0,0,0,0,0,0,0,0,0,0,0,0,0,0,0,0,0,0,0,0,0,0,0,0,0,0,0,0,0,0,0,0,0,0,0,0,0,0,0,0,0,0,0,0,0,0,0,0,0,0,0,0,0,0,0,0,0,0,0,0,0,0,0,0,0,0,0,0,0,0,0,0,0,0,0,0,0,0,0,0,0,0,0,0,0,0,0,0,0,0,0,0,0,0,0,0,0,0],"trees":[{"base_weights":[8.227824E-3,-9.208635E-2,7.05E-1,-9.927539E-3,4.4999998E-2,7.8823525E-1,1.7499998E-1,2.6666665E-2,8.4E-2,-6.6666687E-3,4.4999998E-2],"categories":[],"categories_nodes":[],"categories_segments":[],"categories_sizes":[],"default_left":[0,0,0,0,0,0,0,0,0,0,0],"id":0,"left_children":[1,3,5,-1,-1,7,9,-1,-1,-1,-1],"loss_changes":[1.1108509E1,5.8636737E-1,7.443533E-1,0E0,0E0,2.3498058E-1,2.9583335E-1,0E0,0E0,0E0,0E0],"parents":[2147483647,0,0,1,1,2,2,5,5,6,6],"right_children":[2,4,6,-1,-1,8,10,-1,-1,-1,-1],"split_conditions":[7.6048E10,8.9498E10,1.11439E11,-1.9542511E9,3.647103E8,5.3809E10,1.243E11,2.3561011E8,3.8185603E9,-1.5989965E7,8.099103E8],"split_indices":[2,3,0,0,0,0,0,0,0,0,0],"split_type":[0,0,0,0,0,0,0,0,0,0,0],"sum_hessian":[1.57E2,1.38E2,1.9E1,1.37E2,1E0,1.6E1,3E0,2E0,1.4E1,2E0,1E0],"tree_param":{"num_deleted":"0","num_feature":"33","num_nodes":"11","size_leaf_vector":"1"}},{"base_weights":[-3.205152E-3,-7.847225E-2,8.307692E-2,-9.225354E-2,6E-2,-9.928574E-3,2.6666665E-2],"categories":[],"categories_nodes":[],"categories_segments":[],"categories_sizes":[],"default_left":[0,0,0,0,0,0,0],"id":1,"left_children":[1,3,-1,5,-1,-1,-1],"loss_changes":[9.857442E0,1.4017851E0,0E0,3.8488376E-1,0E0,0E0,0E0],"parents":[2147483647,0,0,1,1,3,3],"right_children":[2,4,-1,6,-1,-1,-1],"split_conditions":[8.336E10,1.1258E10,3.3127043E9,1.3E1,7.593493E7,-9.383666E8,3.2823952E8],"split_indices":[2,9,0,30,0,0,0],"split_type":[0,0,0,0,0,0,0],"sum_hessian":[1.55E2,1.43E2,1.2E1,1.41E2,2E0,1.39E2,2E0],"tree_param":{"num_deleted":"0","num_feature":"33","num_nodes":"7","size_leaf_vector":"1"}},{"base_weights":[-2.083357E-3,-8.372095E-2,6.5625E-1,-9.140627E-2,4.4999998E-2,7.538461E-1,1.7499998E-1,-9.920637E-3,2.6666665E-2,2.6666665E-2,8.1818186E-2,4.4999998E-2,-6.6666687E-3],"categories":[],"categories_nodes":[],"categories_segments":[],"categories_sizes":[],"default_left":[0,0,0,0,0,0,0,0,0,0,0,0,0],"id":2,"left_children":[1,3,5,7,-1,9,11,-1,-1,-1,-1,-1,-1],"loss_changes":[7.794186E0,5.7026714E-1,6.195674E-1,3.8395953E-1,0E0,1.892767E-1,2.9583335E-1,0E0,0E0,0E0,0E0,0E0,0E0],"parents":[2147483647,0,0,1,1,2,2,3,3,5,5,6,6],"right_children":[2,4,6,8,-1,10,12,-1,-1,-1,-1,-1,-1],"split_conditions":[8.496475E10,8.9498E10,1.17154E11,7.8351E10,2.954158E8,8.2959E10,9.1819E10,-1.874108E9,3.05886E8,3.4008352E8,3.0759337E9,1.8618368E8,-2.9221683E8],"split_indices":[4,3,1,2,0,1,0,0,0,0,0,0,0],"split_type":[0,0,0,0,0,0,0,0,0,0,0,0,0],"sum_hessian":[1.43E2,1.28E2,1.5E1,1.27E2,1E0,1.2E1,3E0,1.25E2,2E0,2E0,1E1,1E0,2E0],"tree_param":{"num_deleted":"0","num_feature":"33","num_nodes":"13","size_leaf_vector":"1"}},{"base_weights":[-4.671055E-2,-7.847225E-2,4.6666664E-1,-9.920003E-3,5.4999977E-2,-7.5000017E-3,7.5E-2,4.25E-2,-3.5294143E-3],"categories":[],"categories_nodes":[],"categories_segments":[],"categories_sizes":[],"default_left":[0,0,0,0,0,0,0,0,0],"id":3,"left_children":[1,3,5,-1,7,-1,-1,-1,-1],"loss_changes":[2.5150914E0,4.0384388E-1,1.4375001E0,0E0,6.831765E-1,0E0,0E0,0E0,0E0],"parents":[2147483647,0,0,1,1,2,2,4,4],"right_children":[2,4,6,-1,8,-1,-1,-1,-1],"split_conditions":[8.4742E10,3.74725E9,2.1744E10,-2.481717E9,3.931E9,-7.850967E7,2.7800904E9,2.752971E8,3.558018E7],"split_indices":[2,16,5,0,16,0,0,0,0],"split_type":[0,0,0,0,0,0,0,0,0],"sum_hessian":[1.51E2,1.43E2,8E0,1.24E2,1.9E1,3E0,5E0,3E0,1.6E1],"tree_param":{"num_deleted":"0","num_feature":"33","num_nodes":"9","size_leaf_vector":"1"}},{"base_weights":[-2.840239E-2,-7.405066E-2,5.75E-1,-9.2617474E-2,2.0999998E-1,7.1E-1,-6.6666687E-3,-9.932435E-3,4.4999998E-2,5.1999997E-2,-8.333336E-3,8E-2,-5.0000013E-3],"categories":[],"categories_nodes":[],"categories_segments":[],"categories_sizes":[],"default_left":[0,0,0,0,0,0,0,0,0,0,0,0,0],"id":4,"left_children":[1,3,5,7,9,11,-1,-1,-1,-1,-1,-1,-1],"loss_changes":[4.6975613E0,8.5272837E-1,1.086833E0,5.869467E-1,9.5266664E-1,7.2400045E-1,0E0,0E0,0E0,0E0,0E0,0E0,0E0],"parents":[2147483647,0,0,1,1,2,2,3,3,4,4,5,5],"right_children":[2,4,6,8,10,12,-1,-1,-1,-1,-1,-1,-1],"split_conditions":[8.5777E10,7.353375E10,1.17154E11,7.6048E10,8.8268E10,1.11439E11,-7.0658456E7,-1.3883255E9,2.4776704E8,2.6231603E8,-1.916027E7,2.5375818E9,-1.1044373E8],"split_indices":[2,4,3,2,0,1,0,0,0,0,0,0,0],"split_type":[0,0,0,0,0,0,0,0,0,0,0,0,0],"sum_hessian":[1.68E2,1.57E2,1.1E1,1.48E2,9E0,9E0,2E0,1.47E2,1E0,4E0,5E0,8E0,1E0],"tree_param":{"num_deleted":"0","num_feature":"33","num_nodes":"13","size_leaf_vector":"1"}},{"base_weights":[-6.792455E-2,-8.6538486E-2,6.7499995E-2,-9.930072E-3,4.999998E-2,6E-2,-9.166669E-3],"categories":[],"categories_nodes":[],"categories_segments":[],"categories_sizes":[],"default_left":[0,0,0,0,0,0,0],"id":5,"left_children":[1,3,-1,-1,5,-1,-1],"loss_changes":[2.2571845E0,2.7680063E-1,0E0,0E0,1.1458334E0,0E0,0E0],"parents":[2147483647,0,0,1,1,4,4],"right_children":[2,4,-1,-1,6,-1,-1],"split_conditions":[9.7278E10,7.5872E10,2.2838239E9,-1.1855231E9,4.5646E10,2.2299034E8,-1.08477656E8],"split_indices":[2,2,0,0,0,0,0],"split_type":[0,0,0,0,0,0,0],"sum_hessian":[1.58E2,1.55E2,3E0,1.42E2,1.3E1,2E0,1.1E1],"tree_param":{"num_deleted":"0","num_feature":"33","num_nodes":"7","size_leaf_vector":"1"}},{"base_weights":[-2.8846178E-2,-9.921878E-3,2.827586E-1,4.285714E-1,-8.888892E-3,-8.57143E-3,6.4E-2],"categories":[],"categories_nodes":[],"categories_segments":[],"categories_sizes":[],"default_left":[0,0,0,0,0,0,0],"id":6,"left_children":[1,-1,3,5,-1,-1,-1],"loss_changes":[3.4488912E0,0E0,1.6096332E0,2.338286E0,0E0,0E0,0E0],"parents":[2147483647,0,0,2,2,3,3],"right_children":[2,-1,4,6,-1,-1,-1],"split_conditions":[6.75025E10,-1.9162669E9,2.363E10,1.14506E11,-5.2745012E7,-6.3963135E6,2.0376916E9],"split_indices":[4,0,7,20,0,0,0],"split_type":[0,0,0,0,0,0,0],"sum_hessian":[1.55E2,1.27E2,2.8E1,2E1,8E0,6E0,1.4E1],"tree_param":{"num_deleted":"0","num_feature":"33","num_nodes":"7","size_leaf_vector":"1"}},{"base_weights":[-4.7058847E-2,-6.600002E-2,6.7499995E-2,-9.166669E-2,1.1578945E-1,-9.915257E-3,-2.666669E-3,6.7499995E-2,-3.1250024E-3],"categories":[],"categories_nodes":[],"categories_segments":[],"categories_sizes":[],"default_left":[0,0,0,0,0,0,0,0,0],"id":7,"left_children":[1,3,-1,5,7,-1,-1,-1,-1],"loss_changes":[2.1370766E0,7.105035E-1,0E0,6.158471E-2,1.5833881E0,0E0,0E0,0E0,0E0],"parents":[2147483647,0,0,1,1,3,3,4,4],"right_children":[2,4,-1,6,8,-1,-1,-1,-1],"split_conditions":[1.11439E11,6.9787E10,1.8161722E9,5.6898E10,5.9685E10,-1.7246405E9,-1.020522E7,1.3676667E9,4.3096756E7],"split_indices":[2,2,0,2,1,0,0,0,0],"split_type":[0,0,0,0,0,0,0,0,0],"sum_hessian":[1.52E2,1.49E2,3E0,1.31E2,1.8E1,1.17E2,1.4E1,3E0,1.5E1],"tree_param":{"num_deleted":"0","num_feature":"33","num_nodes":"9","size_leaf_vector":"1"}},{"base_weights":[-5.3594794E-2,-7.266669E-2,6.7499995E-2,-9.91667E-3,3.225804E-2,4.1666668E-2,-5.769233E-3],"categories":[],"categories_nodes":[],"categories_segments":[],"categories_sizes":[],"default_left":[0,0,0,0,0,0,0],"id":8,"left_children":[1,3,-1,-1,5,-1,-1],"loss_changes":[2.1750896E0,4.2027473E-1,0E0,0E0,1.0959471E0,0E0,0E0],"parents":[2147483647,0,0,1,1,4,4],"right_children":[2,4,-1,-1,6,-1,-1],"split_conditions":[1.11439E11,5.6898E10,1.6700548E9,-1.9577709E9,3.2984E11,1.2309005E9,-1.0225091E7],"split_indices":[2,2,0,0,17,0,0],"split_type":[0,0,0,0,0,0,0],"sum_hessian":[1.52E2,1.49E2,3E0,1.19E2,3E1,5E0,2.5E1],"tree_param":{"num_deleted":"0","num_feature":"33","num_nodes":"7","size_leaf_vector":"1"}},{"base_weights":[-5.7228938E-2,-7.484665E-2,6.7499995E-2,-9.256759E-2,9.374998E-2,-9.931975E-3,4.4999998E-2,6.7499995E-2,-9.230772E-3],"categories":[],"categories_nodes":[],"categories_segments":[],"categories_sizes":[],"default_left":[0,0,0,0,0,0,0,0,0],"id":9,"left_children":[1,3,-1,5,7,-1,-1,-1,-1],"loss_changes":[2.1919541E0,4.9567193E-1,0E0,5.8689237E-1,1.7926443E0,0E0,0E0,0E0,0E0],"parents":[2147483647,0,0,1,1,3,3,4,4],"right_children":[2,4,-1,6,8,-1,-1,-1,-1],"split_conditions":[1.11439E11,7.5872E10,1.5030493E9,8.9498E10,1.1253E10,-8.045891E8,2.8798158E7,1.1078107E9,-2.155808E7],"split_indices":[2,2,0,3,5,0,0,0,0],"split_type":[0,0,0,0,0,0,0,0,0],"sum_hessian":[1.65E2,1.62E2,3E0,1.47E2,1.5E1,1.46E2,1E0,3E0,1.2E1],"tree_param":{"num_deleted":"0","num_feature":"33","num_nodes":"9","size_leaf_vector":"1"}},{"base_weights":[-3.9520983E-2,-6.257671E-2,7.2E-2,-9.9193575E-3,5.2499976E-2,7.894714E-4,6E-2],"categories":[],"categories_nodes":[],"categories_segments":[],"categories_sizes":[],"default_left":[0,0,0,0,0,0,0],"id":10,"left_children":[1,3,-1,-1,5,-1,-1],"loss_changes":[2.9694438E0,6.9204843E-1,0E0,0E0,9.721185E-1,0E0,0E0],"parents":[2147483647,0,0,1,1,4,4],"right_children":[2,4,-1,-1,6,-1,-1],"split_conditions":[1.11439E11,5.6189E10,1.3527442E9,-1.5861353E9,6.866667E0,7.107396E7,9.970295E8],"split_indices":[2,2,0,0,29,0,0],"split_type":[0,0,0,0,0,0,0],"sum_hessian":[1.66E2,1.62E2,4E0,1.23E2,3.9E1,3.7E1,2E0],"tree_param":{"num_deleted":"0","num_feature":"33","num_nodes":"7","size_leaf_vector":"1"}},{"base_weights":[-5.3594794E-2,-7.266669E-2,6.7499995E-2,-9.214288E-2,1.8181816E-1,-9.924245E-3,2.2222202E-3,5.1999997E-2,-8.57143E-3],"categories":[],"categories_nodes":[],"categories_segments":[],"categories_sizes":[],"default_left":[0,0,0,0,0,0,0,0,0],"id":11,"left_children":[1,3,-1,5,7,-1,-1,-1,-1],"loss_changes":[2.1750896E0,7.6021254E-1,0E0,1.1587739E-1,1.0397922E0,0E0,0E0,0E0,0E0],"parents":[2147483647,0,0,1,1,3,3,4,4],"right_children":[2,4,-1,6,8,-1,-1,-1,-1],"split_conditions":[1.11439E11,7.022E9,1.1819697E9,7.6048E10,7.4599E10,-6.562276E8,1.3868483E8,1.868374E8,-1.3995213E7],"split_indices":[2,12,0,2,3,0,0,0,0],"split_type":[0,0,0,0,0,0,0,0,0],"sum_hessian":[1.52E2,1.49E2,3E0,1.39E2,1E1,1.31E2,8E0,4E0,6E0],"tree_param":{"num_deleted":"0","num_feature":"33","num_nodes":"9","size_leaf_vector":"1"}},{"base_weights":[-2.649009E-2,-7.6865695E-2,3.4999996E-1,-9.915257E-3,8.235292E-2,5.230769E-1,-8.333336E-3,6.7499995E-2,-9.285717E-3,-7.5000017E-3,7.1E-2],"categories":[],"categories_nodes":[],"categories_segments":[],"categories_sizes":[],"default_left":[0,0,0,0,0,0,0,0,0,0,0],"id":12,"left_children":[1,3,5,-1,7,9,-1,-1,-1,-1,-1],"loss_changes":[2.8907561E0,4.8366243E-1,1.39359E0,0E0,1.8279201E0,1.5065765E0,0E0,0E0,0E0,0E0,0E0],"parents":[2147483647,0,0,1,1,2,2,4,4,5,5],"right_children":[2,4,6,-1,8,10,-1,-1,-1,-1,-1],"split_conditions":[7.4599E10,5.5314E10,8.8268E10,-1.4342711E9,9.9766E10,3.482E9,-2.3841915E8,5.6970444E7,-4.7561308E7,-3.7707776E7,1.0992731E9],"split_indices":[2,2,0,0,20,14,0,0,0,0,0],"split_type":[0,0,0,0,0,0,0,0,0,0,0],"sum_hessian":[1.5E2,1.33E2,1.7E1,1.17E2,1.6E1,1.2E1,5E0,3E0,1.3E1,3E0,9E0],"tree_param":{"num_deleted":"0","num_feature":"33","num_nodes":"11","size_leaf_vector":"1"}},{"base_weights":[-4.05229E-2,-6.577183E-2,7.2E-2,-9.913046E-3,4.5714263E-2,6.7499995E-2,-3.4375023E-3],"categories":[],"categories_nodes":[],"categories_segments":[],"categories_sizes":[],"default_left":[0,0,0,0,0,0,0],"id":13,"left_children":[1,3,-1,-1,5,-1,-1],"loss_changes":[2.9853218E0,5.5866605E-1,0E0,0E0,1.7871697E0,0E0,0E0],"parents":[2147483647,0,0,1,1,4,4],"right_children":[2,4,-1,-1,6,-1,-1],"split_conditions":[2.3662E10,5.5314E10,9.893454E8,-1.3232712E9,9.9766E10,5.127373E7,-8.81789E6],"split_indices":[6,2,0,0,20,0,0],"split_type":[0,0,0,0,0,0,0],"sum_hessian":[1.52E2,1.48E2,4E0,1.14E2,3.4E1,3E0,3.1E1],"tree_param":{"num_deleted":"0","num_feature":"33","num_nodes":"7","size_leaf_vector":"1"}},{"base_weights":[-4.6000022E-2,-7.172416E-2,5.833333E-1,-9.923667E-3,1.7333332E-1,7.2E-2,-5.0000013E-3,6.7499995E-2,-8.333355E-4],"categories":[],"categories_nodes":[],"categories_segments":[],"categories_sizes":[],"default_left":[0,0,0,0,0,0,0,0,0],"id":14,"left_children":[1,3,5,-1,7,-1,-1,-1,-1],"loss_changes":[2.4701977E0,9.94812E-1,5.553334E-1,0E0,1.3726667E0,0E0,0E0,0E0,0E0],"parents":[2147483647,0,0,1,1,2,2,4,4],"right_children":[2,4,6,-1,8,-1,-1,-1,-1],"split_conditions":[9.0753E10,2.07322E11,8.631E10,-5.0687965E8,5.7594E10,8.904106E8,-3.316851E8,4.3377052E7,4.239112E7],"split_indices":[2,25,0,0,2,0,0,0,0],"split_type":[0,0,0,0,0,0,0,0,0],"sum_hessian":[1.49E2,1.44E2,5E0,1.3E2,1.4E1,4E0,1E0,3E0,1.1E1],"tree_param":{"num_deleted":"0","num_feature":"33","num_nodes":"9","size_leaf_vector":"1"}},{"base_weights":[-5.369151E-3,-9.0000026E-2,2.2749998E-1,-9.908259E-3,4.4999998E-2,5.5294114E-1,-1.2500023E-2,6.928571E-2,-7.5000017E-3,-5.2173934E-3,4.4999998E-2],"categories":[],"categories_nodes":[],"categories_segments":[],"categories_sizes":[],"default_left":[0,0,0,0,0,0,0,0,0,0,0],"id":15,"left_children":[1,3,5,-1,-1,7,9,-1,-1,-1,-1],"loss_changes":[2.9569547E0,5.840917E-1,3.131147E0,0E0,0E0,1.5455675E0,4.638587E-1,0E0,0E0,0E0,0E0],"parents":[2147483647,0,0,1,1,2,2,5,5,6,6],"right_children":[2,4,6,-1,-1,8,10,-1,-1,-1,-1],"split_conditions":[5.3265E10,6.844E9,3.38516E11,-1.4485294E9,3.6318004E7,3.54054E11,9.0753E10,7.871693E8,-2.0913357E8,-4.0478172E7,8.676885E7],"split_indices":[2,9,17,0,0,19,2,0,0,0,0],"split_type":[0,0,0,0,0,0,0,0,0,0,0],"sum_hessian":[1.48E2,1.09E2,3.9E1,1.08E2,1E0,1.6E1,2.3E1,1.3E1,3E0,2.2E1,1E0],"tree_param":{"num_deleted":"0","num_feature":"33","num_nodes":"11","size_leaf_vector":"1"}},{"base_weights":[-7.132869E-2,-8.510641E-2,6E-2,-9.172935E-2,2.22222E-2,-9.912283E-3,-4.5000026E-3,4.4999998E-2,-8.750002E-3],"categories":[],"categories_nodes":[],"categories_segments":[],"categories_sizes":[],"default_left":[0,0,0,0,0,0,0,0,0],"id":16,"left_children":[1,3,-1,5,7,-1,-1,-1,-1],"loss_changes":[1.3737242E0,1.022656E-1,0E0,4.148996E-2,4.6180555E-1,0E0,0E0,0E0,0E0],"parents":[2147483647,0,0,1,1,3,3,4,4],"right_children":[2,4,-1,6,8,-1,-1,-1,-1],"split_conditions":[1.11439E11,7.222E9,6.871523E8,5.7594E10,5.6189E10,-7.156923E8,-1.2258515E7,3.268608E7,-7.513457E7],"split_indices":[2,11,0,2,0,0,0,0,0],"split_type":[0,0,0,0,0,0,0,0,0],"sum_hessian":[1.42E2,1.4E2,2E0,1.32E2,8E0,1.13E2,1.9E1,1E0,7E0],"tree_param":{"num_deleted":"0","num_feature":"33","num_nodes":"9","size_leaf_vector":"1"}},{"base_weights":[-6.408453E-2,-7.785717E-2,6E-2,-9.160308E-2,1.0999998E-1,-9.913046E-3,-3.5294143E-3,4.25E-2,-8.57143E-3],"categories":[],"categories_nodes":[],"categories_segments":[],"categories_sizes":[],"default_left":[0,0,0,0,0,0,0,0,0],"id":17,"left_children":[1,3,-1,5,7,-1,-1,-1,-1],"loss_changes":[1.3454738E0,3.7159377E-1,0E0,5.202675E-2,6.5292865E-1,0E0,0E0,0E0,0E0],"parents":[2147483647,0,0,1,1,3,3,4,4],"right_children":[2,4,-1,6,8,-1,-1,-1,-1],"split_conditions":[9.1819E10,7.022E9,6.539371E8,5.6898E10,1.5227E10,-9.1638394E8,-1.9202172E6,6.6429748E7,-5.6365056E7],"split_indices":[2,11,0,2,7,0,0,0,0],"split_type":[0,0,0,0,0,0,0,0,0],"sum_hessian":[1.41E2,1.39E2,2E0,1.3E2,9E0,1.14E2,1.6E1,3E0,6E0],"tree_param":{"num_deleted":"0","num_feature":"33","num_nodes":"9","size_leaf_vector":"1"}},{"base_weights":[-5.1700704E-2,-7.132869E-2,5.2E-1,-9.160308E-2,1.3846152E-1,6.7499995E-2,-5.0000013E-3,-9.912283E-3,-3.8888913E-3,4.1666668E-2,-8.750002E-3],"categories":[],"categories_nodes":[],"categories_segments":[],"categories_sizes":[],"default_left":[0,0,0,0,0,0,0,0,0,0,0],"id":18,"left_children":[1,3,5,7,9,-1,-1,-1,-1,-1,-1],"loss_changes":[1.6866274E0,6.20915E-1,4.755E-1,4.807329E-2,8.5368603E-1,0E0,0E0,0E0,0E0,0E0,0E0],"parents":[2147483647,0,0,1,1,2,2,3,3,4,4],"right_children":[2,4,6,8,10,-1,-1,-1,-1,-1,-1],"split_conditions":[9.1819E10,2.22544E11,9.1819E10,5.6517E10,1.8525E10,5.885436E8,-5.6016896E7,-9.313752E8,-4.766119E6,5.9786856E7,-2.3249716E7],"split_indices":[2,23,1,2,6,0,0,0,0,0,0],"split_type":[0,0,0,0,0,0,0,0,0,0,0],"sum_hessian":[1.46E2,1.42E2,4E0,1.3E2,1.2E1,3E0,1E0,1.13E2,1.7E1,5E0,7E0],"tree_param":{"num_deleted":"0","num_feature":"33","num_nodes":"11","size_leaf_vector":"1"}},{"base_weights":[-4.1290347E-2,-5.9602674E-2,5.2E-1,-9.909093E-3,4.523807E-2,6.7499995E-2,-5.0000013E-3,-1.6216239E-3,4.1666668E-2],"categories":[],"categories_nodes":[],"categories_segments":[],"categories_sizes":[],"default_left":[0,0,0,0,0,0,0,0,0],"id":19,"left_children":[1,3,5,-1,7,-1,-1,-1,-1],"loss_changes":[1.6241658E0,6.2961954E-1,4.755E-1,0E0,9.654441E-1,0E0,0E0,0E0,0E0],"parents":[2147483647,0,0,1,1,2,2,4,4],"right_children":[2,4,6,-1,8,-1,-1,-1,-1],"split_conditions":[1.11439E11,1.29684E11,9.493E10,-5.0025597E8,6.6666665E0,5.29689E8,-5.041521E7,-1.8379002E6,1.6874251E8],"split_indices":[2,24,1,0,30,0,0,0,0],"split_type":[0,0,0,0,0,0,0,0,0],"sum_hessian":[1.54E2,1.5E2,4E0,1.09E2,4.1E1,3E0,1E0,3.6E1,5E0],"tree_param":{"num_deleted":"0","num_feature":"33","num_nodes":"9","size_leaf_vector":"1"}},{"base_weights":[-3.6075972E-2,-9.0434805E-2,1.0681816E-1,-9.909093E-3,8.333331E-2,3.733333E-1,-3.0000024E-2,4.4999998E-2,-8.000002E-3,-8.333336E-3,6.0999997E-2,-9.629632E-3,4.25E-2],"categories":[],"categories_nodes":[],"categories_segments":[],"categories_sizes":[],"default_left":[0,0,0,0,0,0,0,0,0,0,0,0,0],"id":20,"left_children":[1,3,5,-1,7,9,11,-1,-1,-1,-1,-1,-1],"loss_changes":[1.2369343E0,1.8123585E-1,1.6156213E0,0E0,3.9533332E-1,1.6720002E0,9.458704E-1,0E0,0E0,0E0,0E0,0E0,0E0],"parents":[2147483647,0,0,1,1,2,2,4,4,5,5,6,6],"right_children":[2,4,6,-1,8,10,12,-1,-1,-1,-1,-1,-1],"split_conditions":[5.6189E10,5.5314E10,6.202E10,-8.4627437E8,3.7472E10,3.504E9,1.11439E11,3.137536E6,-3.8671976E7,-9.443033E8,5.336563E8,-1.873175E7,4.7672035E8],"split_indices":[0,2,1,0,0,9,2,0,0,0,0,0,0],"split_type":[0,0,0,0,0,0,0,0,0,0,0,0,0],"sum_hessian":[1.57E2,1.14E2,4.3E1,1.09E2,5E0,1.4E1,2.9E1,1E0,4E0,5E0,9E0,2.6E1,3E0],"tree_param":{"num_deleted":"0","num_feature":"33","num_nodes":"13","size_leaf_vector":"1"}},{"base_weights":[-6.330938E-2,-7.737228E-2,6E-2,-8.4558845E-2,4.4999998E-2,-9.147289E-3,3.749998E-3],"categories":[],"categories_nodes":[],"categories_segments":[],"categories_sizes":[],"default_left":[0,0,0,0,0,0,0],"id":21,"left_children":[1,3,-1,5,-1,-1,-1],"loss_changes":[1.3430238E0,5.572805E-1,0E0,1.182034E-1,0E0,0E0,0E0],"parents":[2147483647,0,0,1,1,3,3],"right_children":[2,4,-1,6,-1,-1,-1],"split_conditions":[9.7278E10,1.1468E10,4.2904864E8,8.8268E10,5.5865344E7,-9.877091E7,2.1069824E7],"split_indices":[2,9,0,1,0,0,0],"split_type":[0,0,0,0,0,0,0],"sum_hessian":[1.38E2,1.36E2,2E0,1.35E2,1E0,1.28E2,7E0],"tree_param":{"num_deleted":"0","num_feature":"33","num_nodes":"7","size_leaf_vector":"1"}},{"base_weights":[-4.9375024E-2,-6.688314E-2,3.4285712E-1,-8.510641E-2,1.2142855E-1,6.7499995E-2,-7.5000017E-3,-9.911506E-3,-2.7586229E-3,5.1999997E-2,-9.000002E-3],"categories":[],"categories_nodes":[],"categories_segments":[],"categories_sizes":[],"default_left":[0,0,0,0,0,0,0,0,0,0,0],"id":22,"left_children":[1,3,5,7,9,-1,-1,-1,-1,-1,-1],"loss_changes":[1.1216908E0,5.388091E-1,1.0221429E0,1.1088085E-1,1.2265714E0,0E0,0E0,0E0,0E0,0E0,0E0],"parents":[2147483647,0,0,1,1,2,2,3,3,4,4],"right_children":[2,4,6,8,10,-1,-1,-1,-1,-1,-1],"split_conditions":[9.0753E10,3.80088E11,2.70002E11,5.2857E10,2.0081E10,4.9016752E8,-2.1899674E7,-7.782374E8,-1.7065614E6,1.3943808E8,-8.990724E6],"split_indices":[2,17,20,1,5,0,0,0,0,0,0],"split_type":[0,0,0,0,0,0,0,0,0,0,0],"sum_hessian":[1.59E2,1.53E2,6E0,1.4E2,1.3E1,3E0,3E0,1.12E2,2.8E1,4E0,9E0],"tree_param":{"num_deleted":"0","num_feature":"33","num_nodes":"11","size_leaf_vector":"1"}},{"base_weights":[-3.221479E-2,-9.900993E-3,1.0612243E-1,5.833333E-1,3.863634E-2,7.2E-2,-5.0000013E-3,4.0999997E-2,-6.857145E-3],"categories":[0,1,2],"categories_nodes":[4],"categories_segments":[0],"categories_sizes":[3],"default_left":[0,0,0,0,1,0,0,0,0],"id":23,"left_children":[1,-1,3,5,7,-1,-1,-1,-1],"loss_changes":[1.3873048E0,0E0,1.5555117E0,5.553334E-1,1.7798896E0,0E0,0E0,0E0,0E0],"parents":[2147483647,0,0,2,2,3,3,4,4],"right_children":[2,-1,4,6,8,-1,-1,-1,-1],"split_conditions":[4.569875E10,-1.9652618E9,9.7822E10,5.6189E10,1E-45,1.8620334E8,-2.5967002E7,4.4115062E8,-8.419329E6],"split_indices":[4,0,21,2,32,0,0,0,0],"split_type":[0,0,0,0,1,0,0,0,0],"sum_hessian":[1.48E2,1E2,4.8E1,5E0,4.3E1,4E0,1E0,9E0,3.4E1],"tree_param":{"num_deleted":"0","num_feature":"33","num_nodes":"9","size_leaf_vector":"1"}},{"base_weights":[-5.1700704E-2,-9.0909116E-2,1.259259E-1,-9.913796E-3,8.333331E-2,4.8571426E-1,-2.2706532E-8,4.4999998E-2,-8.000002E-3,-5.0000013E-3,5.8333334E-2,-9.375002E-3,2.4999999E-2],"categories":[],"categories_nodes":[],"categories_segments":[],"categories_sizes":[],"default_left":[0,0,0,0,0,0,0,0,0,0,0,0,0],"id":24,"left_children":[1,3,5,-1,7,9,11,-1,-1,-1,-1,-1,-1],"loss_changes":[1.035223E0,1.8175292E-1,1.2232804E0,0E0,3.9533332E-1,3.9523816E-1,5.1562506E-1,0E0,0E0,0E0,0E0,0E0,0E0],"parents":[2147483647,0,0,1,1,2,2,4,4,5,5,6,6],"right_children":[2,4,6,-1,8,10,12,-1,-1,-1,-1,-1,-1],"split_conditions":[6.387E9,6.4727E10,5.6189E10,-6.419678E8,4.3076E10,3.8944E10,7.709E9,3.8288588E7,-4.0380828E7,-4.1102294E8,8.137892E7,-5.420648E6,2.930123E8],"split_indices":[9,2,2,0,0,1,12,0,0,0,0,0,0],"split_type":[0,0,0,0,0,0,0,0,0,0,0,0,0],"sum_hessian":[1.46E2,1.2E2,2.6E1,1.15E2,5E0,6E0,2E1,1E0,4E0,1E0,5E0,1.5E1,5E0],"tree_param":{"num_deleted":"0","num_feature":"33","num_nodes":"13","size_leaf_vector":"1"}},{"base_weights":[-1.148651E-2,-8.962266E-2,1.8139532E-1,4.4999998E-2,-9.904765E-3,4.166664E-2,7.875E-2,-4.7619073E-3,1.5624997E-2],"categories":[],"categories_nodes":[],"categories_segments":[],"categories_sizes":[],"default_left":[0,0,0,0,0,0,0,0,0],"id":25,"left_children":[1,3,5,-1,-1,7,-1,-1,-1],"loss_changes":[2.2467716E0,5.8368015E-1,3.6088665E0,0E0,0E0,3.7574404E-1,0E0,0E0,0E0],"parents":[2147483647,0,0,1,1,2,2,5,5],"right_children":[2,4,6,-1,-1,8,-1,-1,-1],"split_conditions":[2.69825E9,3.5666666E0,5.9333334E0,7.3240984E7,-5.2398547E8,1.8525E10,4.0107376E8,-5.556405E6,1.4751893E8],"split_indices":[16,30,29,0,0,5,0,0,0],"split_type":[0,0,0,0,0,0,0,0,0],"sum_hessian":[1.47E2,1.05E2,4.2E1,1E0,1.04E2,3.5E1,7E0,2E1,1.5E1],"tree_param":{"num_deleted":"0","num_feature":"33","num_nodes":"9","size_leaf_vector":"1"}},{"base_weights":[-5.2349016E-2,-9.90741E-3,6.904759E-2,3.4374997E-1,-9.629632E-3,5.7777774E-2,3.749998E-3],"categories":[],"categories_nodes":[],"categories_segments":[],"categories_sizes":[],"default_left":[0,0,0,0,0,0,0],"id":26,"left_children":[1,-1,3,5,-1,-1,-1],"loss_changes":[8.520085E-1,0E0,1.9407573E0,1.1250694E0,0E0,0E0,0E0],"parents":[2147483647,0,0,2,2,3,3],"right_children":[2,-1,4,6,-1,-1,-1],"split_conditions":[2.85E9,-7.1736704E8,6.5585E10,1.1519E10,-5.668689E7,3.6096656E8,3.2908084E7],"split_indices":[15,0,0,5,0,0,0],"split_type":[0,0,0,0,0,0,0],"sum_hessian":[1.48E2,1.07E2,4.1E1,1.5E1,2.6E1,8E0,7E0],"tree_param":{"num_deleted":"0","num_feature":"33","num_nodes":"7","size_leaf_vector":"1"}},{"base_weights":[-4.4304035E-3,-9.903848E-3,1.7454544E-1,5.7777755E-2,6.363636E-1,2.642857E-2,-3.4375023E-3,7.875E-2,1.7499998E-2],"categories":[0,2],"categories_nodes":[4],"categories_segments":[0],"categories_sizes":[2],"default_left":[0,0,0,0,1,0,0,0,0],"id":27,"left_children":[1,-1,3,5,7,-1,-1,-1,-1],"loss_changes":[2.6926312E0,0E0,2.9291315E0,8.654475E-1,6.2920475E-1,0E0,0E0,0E0,0E0],"parents":[2147483647,0,0,2,2,3,3,4,4],"right_children":[2,-1,4,6,8,-1,-1,-1,-1],"split_conditions":[4.6152E10,-7.85986E8,5.3333335E0,5.6898E10,1E-45,1.0339809E8,-1.2154677E7,3.2487014E8,9.946809E7],"split_indices":[2,0,29,2,32,0,0,0,0],"split_type":[0,0,0,0,1,0,0,0,0],"sum_hessian":[1.57E2,1.03E2,5.4E1,4.4E1,1E1,1.3E1,3.1E1,7E0,3E0],"tree_param":{"num_deleted":"0","num_feature":"33","num_nodes":"9","size_leaf_vector":"1"}},{"base_weights":[8.227824E-3,-8.990828E-2,2.2199997E-1,-9.90741E-3,4.4999998E-2,7.714286E-2,1.2954544E-1,-4.5454773E-4,2.521739E-2],"categories":[],"categories_nodes":[],"categories_segments":[],"categories_sizes":[],"default_left":[0,0,0,0,0,0,0,0,0],"id":28,"left_children":[1,3,5,-1,-1,-1,7,-1,-1],"loss_changes":[3.3346047E0,5.8399165E-1,2.4399228E0,0E0,0E0,0E0,7.246542E-1,0E0,0E0],"parents":[2147483647,0,0,1,1,2,2,6,6],"right_children":[2,4,6,-1,-1,-1,8,-1,-1],"split_conditions":[4.5646E10,6.628E9,4.3076E10,-1.01530746E9,2.6967286E8,9.129698E7,4E0,-1.0078153E7,2.3747787E8],"split_indices":[2,10,0,0,0,0,29,0,0],"split_type":[0,0,0,0,0,0,0,0,0],"sum_hessian":[1.57E2,1.08E2,4.9E1,1.07E2,1E0,6E0,4.3E1,2.1E1,2.2E1],"tree_param":{"num_deleted":"0","num_feature":"33","num_nodes":"9","size_leaf_vector":"1"}},{"base_weights":[-3.915665E-2,-8.396949E-2,1.2499998E-1,-9.1472894E-2,2.6666665E-1,3.225804E-2,5.833333E-1,-9.918702E-3,5.714284E-3,-5.0000013E-3,4.4999998E-2,-9.545457E-3,3.0999998E-2,-5.0000013E-3,7.2E-2],"categories":[],"categories_nodes":[],"categories_segments":[],"categories_sizes":[],"default_left":[0,0,0,0,0,0,0,0,0,0,0,0,0,0,0],"id":29,"left_children":[1,3,5,7,9,11,13,-1,-1,-1,-1,-1,-1,-1,-1],"loss_changes":[1.231646E0,3.69049E-1,1.5114248E0,1.5355861E-1,1.9666666E-1,1.1291964E0,5.553334E-1,0E0,0E0,0E0,0E0,0E0,0E0,0E0,0E0],"parents":[2147483647,0,0,1,1,2,2,3,3,4,4,5,5,6,6],"right_children":[2,4,6,8,10,12,14,-1,-1,-1,-1,-1,-1,-1,-1],"split_conditions":[1.3549E11,1.3E1,6E0,1.29684E11,3.8297E10,1.84226E11,3.8944E10,-2.2231307E8,3.949773E7,-9.243165E8,2.6863536E8,-5.2231548E7,1.283211E8,-1.5816213E8,2.4270562E8],"split_indices":[23,29,29,24,0,20,1,0,0,0,0,0,0,0,0],"split_type":[0,0,0,0,0,0,0,0,0,0,0,0,0,0,0],"sum_hessian":[1.65E2,1.3E2,3.5E1,1.28E2,2E0,3E1,5E0,1.22E2,6E0,1E0,1E0,2.1E1,9E0,1E0,4E0],"tree_param":{"num_deleted":"0","num_feature":"33","num_nodes":"15","size_leaf_vector":"1"}},{"base_weights":[-2.649009E-2,-9.903848E-3,1.3124998E-1,5.7777774E-1,2.7499977E-2,6.625E-2,-5.0000013E-3,-1.6216239E-3,4.25E-2],"categories":[],"categories_nodes":[],"categories_segments":[],"categories_sizes":[],"default_left":[0,0,0,0,0,0,0,0,0],"id":30,"left_children":[1,-1,3,5,7,-1,-1,-1,-1],"loss_changes":[1.7410109E0,0E0,2.2078192E0,5.118058E-1,7.0197976E-1,0E0,0E0,0E0,0E0],"parents":[2147483647,0,0,2,2,3,3,4,4],"right_children":[2,-1,4,6,8,-1,-1,-1,-1],"split_conditions":[4.5646E10,-7.2191334E8,3.21686E11,5.9685E10,6.52425E9,2.4177214E8,-1.1389088E9,-3.6414318E6,2.543272E8],"split_indices":[2,0,17,1,16,0,0,0,0],"split_type":[0,0,0,0,0,0,0,0,0],"sum_hessian":[1.5E2,1.03E2,4.7E1,8E0,3.9E1,7E0,1E0,3.6E1,3E0],"tree_param":{"num_deleted":"0","num_feature":"33","num_nodes":"9","size_leaf_vector":"1"}},{"base_weights":[-2.243592E-2,-9.89691E-3,1.01666644E-1,-6.818205E-3,3.7647057E-1,-6.9444473E-3,2.4444444E-2,-8.333336E-3,5.75E-2],"categories":[],"categories_nodes":[],"categories_segments":[],"categories_sizes":[],"default_left":[0,0,0,0,0,0,0,0,0],"id":31,"left_children":[1,-1,3,5,7,-1,-1,-1,-1],"loss_changes":[1.4917442E0,0E0,1.7912904E0,7.0934343E-1,1.5997548E0,0E0,0E0,0E0,0E0],"parents":[2147483647,0,0,2,2,3,3,4,4],"right_children":[2,-1,4,6,8,-1,-1,-1,-1],"split_conditions":[4.27275E10,-1.454191E9,5.9333334E0,4.06794E11,2.672E9,-4.8998028E7,8.242873E7,-7.015465E7,2.7119565E8],"split_indices":[4,0,30,17,15,0,0,0,0],"split_type":[0,0,0,0,0,0,0,0,0],"sum_hessian":[1.55E2,9.6E1,5.9E1,4.3E1,1.6E1,3.5E1,8E0,5E0,1.1E1],"tree_param":{"num_deleted":"0","num_feature":"33","num_nodes":"9","size_leaf_vector":"1"}},{"base_weights":[-5.9333358E-2,-6.577183E-2,4.4999998E-2,-7.2108865E-2,2.6666665E-1,-9.895836E-3,-2.115387E-3,4.4999998E-2,-5.0000013E-3],"categories":[],"categories_nodes":[],"categories_segments":[],"categories_sizes":[],"default_left":[0,0,0,0,0,0,0,0,0],"id":32,"left_children":[1,3,-1,5,7,-1,-1,-1,-1],"loss_changes":[5.214971E-1,3.331234E-1,0E0,1.9901967E-1,1.9666666E-1,0E0,0E0,0E0,0E0],"parents":[2147483647,0,0,1,1,3,3,4,4],"right_children":[2,4,-1,6,8,-1,-1,-1,-1],"split_conditions":[5.12163E11,1.11439E11,7.418594E7,1.958E9,8.1797E10,-5.690923E8,-4.1853018E6,1.6635331E8,-1.5320187E8],"split_indices":[17,2,0,14,0,0,0,0,0],"split_type":[0,0,0,0,0,0,0,0,0],"sum_hessian":[1.49E2,1.48E2,1E0,1.46E2,2E0,9.5E1,5.1E1,1E0,1E0],"tree_param":{"num_deleted":"0","num_feature":"33","num_nodes":"9","size_leaf_vector":"1"}},{"base_weights":[-4.1290347E-2,-9.904765E-3,7.8431346E-2,1.333331E-2,4.8571426E-1,2.7272725E-2,-6.857145E-3,-6.6666687E-3,7.2E-2],"categories":[],"categories_nodes":[],"categories_segments":[],"categories_sizes":[],"default_left":[0,0,0,0,0,0,0,0,0],"id":33,"left_children":[1,-1,3,5,7,-1,-1,-1,-1],"loss_changes":[1.0795627E0,0E0,1.3457031E0,9.747533E-1,9.539046E-1,0E0,0E0,0E0,0E0],"parents":[2147483647,0,0,2,2,3,3,4,4],"right_children":[2,-1,4,6,8,-1,-1,-1,-1],"split_conditions":[1.1249E10,-7.3788595E8,6.866667E0,1.915E9,3.5323E10,6.605406E7,-1.5828584E7,-5.5736525E8,2.2291333E8],"split_indices":[6,0,29,14,1,0,0,0,0],"split_type":[0,0,0,0,0,0,0,0,0],"sum_hessian":[1.54E2,1.04E2,5E1,4.4E1,6E0,1E1,3.4E1,2E0,4E0],"tree_param":{"num_deleted":"0","num_feature":"33","num_nodes":"9","size_leaf_vector":"1"}},{"base_weights":[-8.441582E-3,-9.894739E-3,1.3499998E-1,3.921566E-2,6.0999995E-1,-4.878051E-3,3.6363635E-2,1.7499998E-2,7.714286E-2],"categories":[],"categories_nodes":[],"categories_segments":[],"categories_sizes":[],"default_left":[0,0,0,0,0,0,0,0,0],"id":34,"left_children":[1,-1,3,5,7,-1,-1,-1,-1],"loss_changes":[2.0126312E0,0E0,2.7059317E0,1.4736751E0,5.672138E-1,0E0,0E0,0E0,0E0],"parents":[2147483647,0,0,2,2,3,3,4,4],"right_children":[2,-1,4,6,8,-1,-1,-1,-1],"split_conditions":[3.8033E10,-1.1971488E9,6E0,3.80088E11,3.8033E10,-1.5843994E7,1.1762121E8,1.191383E8,3.37714E8],"split_indices":[2,0,29,17,0,0,0,0,0],"split_type":[0,0,0,0,0,0,0,0,0],"sum_hessian":[1.53E2,9.4E1,5.9E1,5E1,9E0,4E1,1E1,3E0,6E0],"tree_param":{"num_deleted":"0","num_feature":"33","num_nodes":"9","size_leaf_vector":"1"}},{"base_weights":[-3.8095262E-2,-9.897961E-3,8.199998E-2,6.7499995E-2,2.978721E-2,1.4399998E-2,-9.56522E-3],"categories":[],"categories_nodes":[],"categories_segments":[],"categories_sizes":[],"default_left":[0,0,0,0,0,0,0],"id":35,"left_children":[1,-1,3,-1,5,-1,-1],"loss_changes":[1.0829687E0,0E0,1.5280021E0,0E0,6.871327E-1,0E0,0E0],"parents":[2147483647,0,0,2,2,4,4],"right_children":[2,-1,4,-1,6,-1,-1],"split_conditions":[4.2358E10,-8.666627E8,4.2123E10,5.4308044E7,1.793E10,1.08326456E8,-1.6664992E7],"split_indices":[2,0,1,0,7,0,0],"split_type":[0,0,0,0,0,0,0],"sum_hessian":[1.46E2,9.7E1,4.9E1,3E0,4.6E1,2.4E1,2.2E1],"tree_param":{"num_deleted":"0","num_feature":"33","num_nodes":"7","size_leaf_vector":"1"}},{"base_weights":[-1.9867573E-2,-9.901963E-3,1.4199997E-1,3.590909E-1,-2.758623E-2,1.5624997E-2,7.714286E-2,4.4999998E-2,-6.071431E-3],"categories":[],"categories_nodes":[],"categories_segments":[],"categories_sizes":[],"default_left":[0,0,0,0,0,0,0,0,0],"id":36,"left_children":[1,-1,3,5,7,-1,-1,-1,-1],"loss_changes":[1.9486954E0,0E0,1.850687E0,1.719521E0,4.8614535E-1,0E0,0E0,0E0,0E0],"parents":[2147483647,0,0,2,2,3,3,4,4],"right_children":[2,-1,4,6,8,-1,-1,-1,-1],"split_conditions":[4.1159E10,-7.9315795E8,6.188E10,5.772E9,1.7E9,9.416856E7,1.0015949E8,5.0066228E7,-1.1012507E7],"split_indices":[2,0,0,11,15,0,0,0,0],"split_type":[0,0,0,0,0,0,0,0,0],"sum_hessian":[1.5E2,1.01E2,4.9E1,2.1E1,2.8E1,1.5E1,6E0,1E0,2.7E1],"tree_param":{"num_deleted":"0","num_feature":"33","num_nodes":"9","size_leaf_vector":"1"}},{"base_weights":[-1.9333357E-2,-4.9645413E-2,4.0999997E-1,-8.8659815E-2,3.5555534E-2,6.285714E-1,-7.5000017E-3,-9.885061E-3,-2.1674418E-9,5.1999997E-2,-2.4390267E-3,7.5E-2,-5.0000013E-3],"categories":[],"categories_nodes":[],"categories_segments":[],"categories_sizes":[],"default_left":[0,0,0,0,0,0,0,0,0,0,0,0,0],"id":37,"left_children":[1,3,5,7,9,11,-1,-1,-1,-1,-1,-1,-1],"loss_changes":[1.972451E0,4.7184536E-1,1.1072145E0,8.764076E-2,1.3195014E0,6.142857E-1,0E0,0E0,0E0,0E0,0E0,0E0,0E0],"parents":[2147483647,0,0,1,1,2,2,3,3,4,4,5,5],"right_children":[2,4,6,8,10,12,-1,-1,-1,-1,-1,-1,-1],"split_conditions":[2.2036E10,4.2123E10,2.424875E10,1.86975E9,4.2123E10,8.631E10,-1.3194773E8,-1.2491649E9,4.707866E7,9.237668E7,-8.228457E6,2.550481E8,-4.620886E8],"split_indices":[6,2,8,16,1,0,0,0,0,0,0,0,0],"split_type":[0,0,0,0,0,0,0,0,0,0,0,0,0],"sum_hessian":[1.49E2,1.4E2,9E0,9.6E1,4.4E1,6E0,3E0,8.6E1,1E1,4E0,4E1,5E0,1E0],"tree_param":{"num_deleted":"0","num_feature":"33","num_nodes":"13","size_leaf_vector":"1"}},{"base_weights":[-2.3417745E-2,-4.0909115E-2,5.2E-1,-9.895836E-3,5.4237265E-2,6.7499995E-2,-5.0000013E-3,6.7499995E-2,8.9285476E-4],"categories":[],"categories_nodes":[],"categories_segments":[],"categories_sizes":[],"default_left":[0,0,0,0,0,0,0,0,0],"id":38,"left_children":[1,3,5,-1,7,-1,-1,-1,-1],"loss_changes":[1.5230817E0,8.559362E-1,4.755E-1,0E0,1.653405E0,0E0,0E0,0E0,0E0],"parents":[2147483647,0,0,1,1,2,2,4,4],"right_children":[2,4,6,-1,8,-1,-1,-1,-1],"split_conditions":[9.0753E10,1.006725E10,8.631E10,-7.855161E8,7.068E9,2.2954312E8,-4.1588E8,4.6521674E8,4.7059625E6],"split_indices":[2,8,0,0,7,0,0,0,0],"split_type":[0,0,0,0,0,0,0,0,0],"sum_hessian":[1.57E2,1.53E2,4E0,9.5E1,5.8E1,3E0,1E0,3E0,5.5E1],"tree_param":{"num_deleted":"0","num_feature":"33","num_nodes":"9","size_leaf_vector":"1"}},{"base_weights":[1.4388253E-3,-2.462689E-2,5.833333E-1,-8.77778E-2,1.022222E-1,7.2E-2,-5.0000013E-3,-9.870132E-3,-2.1428594E-3,4.9166664E-2,-3.8235318E-3],"categories":[],"categories_nodes":[],"categories_segments":[],"categories_sizes":[],"default_left":[0,0,0,0,0,0,0,0,0,0,0],"id":39,"left_children":[1,3,5,7,9,-1,-1,-1,-1,-1,-1],"loss_changes":[2.1226475E0,1.082398E0,5.553334E-1,6.311399E-2,2.480317E0,0E0,0E0,0E0,0E0,0E0,0E0],"parents":[2147483647,0,0,1,1,2,2,3,3,4,4],"right_children":[2,4,6,8,10,-1,-1,-1,-1,-1,-1],"split_conditions":[9.0146E10,1.0223E10,2.415875E10,9.066667E0,4.3603E10,2.0658914E8,-3.5313418E8,-4.9924822E8,-5.2716682E8,6.769327E7,-1.7299886E7],"split_indices":[2,6,8,29,0,0,0,0,0,0,0],"split_type":[0,0,0,0,0,0,0,0,0,0,0],"sum_hessian":[1.38E2,1.33E2,5E0,8.9E1,4.4E1,4E0,1E0,7.6E1,1.3E1,1.1E1,3.3E1],"tree_param":{"num_deleted":"0","num_feature":"33","num_nodes":"11","size_leaf_vector":"1"}},{"base_weights":[-3.175678E-2,-5.0000023E-2,3.4285712E-1,-5.6737613E-2,4.4999998E-2,6.7499995E-2,-7.5000017E-3,-9.880955E-3,5.1723904E-4],"categories":[],"categories_nodes":[],"categories_segments":[],"categories_sizes":[],"default_left":[0,0,0,0,0,0,0,0,0],"id":40,"left_children":[1,3,5,7,-1,-1,-1,-1,-1],"loss_changes":[1.0286005E0,5.0390065E-1,1.0221429E0,3.6777E-1,0E0,0E0,0E0,0E0,0E0],"parents":[2147483647,0,0,1,1,2,2,3,3],"right_children":[2,4,6,8,-1,-1,-1,-1,-1],"split_conditions":[9.0753E10,5.23013E11,8.2959E10,6.4805E9,2.0814234E7,7.748403E7,-1.063936E8,-1.4755517E9,7.5646295E6],"split_indices":[2,17,0,8,0,0,0,0,0],"split_type":[0,0,0,0,0,0,0,0,0],"sum_hessian":[1.47E2,1.41E2,6E0,1.4E2,1E0,3E0,3E0,8.3E1,5.7E1],"tree_param":{"num_deleted":"0","num_feature":"33","num_nodes":"9","size_leaf_vector":"1"}},{"base_weights":[-2.7451005E-2,-8.8659815E-2,7.719296E-2,-9.885061E-3,-2.1674417E-8,2.944444E-1,-2.2500023E-2,4.4999998E-2,-9.000002E-3,4.6666663E-2,1.0999998E-2,1.5833331E-2,-9.655175E-3],"categories":[],"categories_nodes":[],"categories_segments":[],"categories_sizes":[],"default_left":[0,0,0,0,0,0,0,0,0,0,0,0,0],"id":41,"left_children":[1,3,5,-1,7,9,11,-1,-1,-1,-1,-1,-1],"loss_changes":[9.8682916E-1,8.764076E-2,1.2411565E0,0E0,4.86E-1,5.204443E-1,5.509282E-1,0E0,0E0,0E0,0E0,0E0,0E0],"parents":[2147483647,0,0,1,1,2,2,4,4,5,5,6,6],"right_children":[2,4,6,-1,8,10,12,-1,-1,-1,-1,-1,-1],"split_conditions":[3.8033E10,1.86975E9,2.88E9,-9.3593005E8,2.8918E10,1.6436E10,2.0580912E4,1.8342421E8,-3.8077505E6,4.6786355E8,2.1745254E7,6.4757096E7,-8.825653E6],"split_indices":[2,16,14,0,0,6,26,0,0,0,0,0,0],"split_type":[0,0,0,0,0,0,0,0,0,0,0,0,0],"sum_hessian":[1.52E2,9.6E1,5.6E1,8.6E1,1E1,1.7E1,3.9E1,1E0,9E0,8E0,9E0,1.1E1,2.8E1],"tree_param":{"num_deleted":"0","num_feature":"33","num_nodes":"13","size_leaf_vector":"1"}},{"base_weights":[-5.32895E-2,-6.554057E-2,3.2E-1,-7.801421E-2,1.6249998E-1,6E-2,-6.6666687E-3,-8.489211E-3,2.6666665E-2,6E-2,-8.333336E-3],"categories":[],"categories_nodes":[],"categories_segments":[],"categories_sizes":[],"default_left":[0,0,0,0,0,0,0,0,0,0,0],"id":42,"left_children":[1,3,5,7,9,-1,-1,-1,-1,-1,-1],"loss_changes":[7.1609855E-1,4.3366283E-1,5.813333E-1,3.569039E-1,9.104167E-1,0E0,0E0,0E0,0E0,0E0,0E0],"parents":[2147483647,0,0,1,1,2,2,3,3,4,4],"right_children":[2,4,6,8,10,-1,-1,-1,-1,-1,-1],"split_conditions":[9.0753E10,4.06794E11,2.70002E11,1.3E1,6.1858E10,6.716949E7,-9.487155E7,-6.965304E7,5.115044E7,3.426263E7,-1.6887398E7],"split_indices":[2,17,20,30,0,0,0,0,0,0,0],"split_type":[0,0,0,0,0,0,0,0,0,0,0],"sum_hessian":[1.51E2,1.47E2,4E0,1.4E2,7E0,2E0,2E0,1.38E2,2E0,2E0,5E0],"tree_param":{"num_deleted":"0","num_feature":"33","num_nodes":"11","size_leaf_vector":"1"}},{"base_weights":[-3.129254E-2,-4.4137955E-2,6E-2,-8.189657E-2,1.0333331E-1,-9.888891E-3,-2.2222246E-3,4.8571426E-2,-1.2500023E-3],"categories":[],"categories_nodes":[],"categories_segments":[],"categories_sizes":[],"default_left":[0,0,0,0,0,0,0,0,0],"id":43,"left_children":[1,3,-1,5,7,-1,-1,-1,-1],"loss_changes":[1.2185372E0,8.158678E-1,0E0,1.15427196E-1,1.3348453E0,0E0,0E0,0E0,0E0],"parents":[2147483647,0,0,1,1,3,3,4,4],"right_children":[2,4,-1,6,8,-1,-1,-1,-1],"split_conditions":[1.3E1,1.83007E11,2.8114944E7,8.8E0,5.3265E10,-1.1090332E8,-1.7682574E8,9.310495E7,1.0460845E7],"split_indices":[29,22,0,30,2,0,0,0,0],"split_type":[0,0,0,0,0,0,0,0,0],"sum_hessian":[1.46E2,1.44E2,2E0,1.15E2,2.9E1,8.9E1,2.6E1,6E0,2.3E1],"tree_param":{"num_deleted":"0","num_feature":"33","num_nodes":"9","size_leaf_vector":"1"}},{"base_weights":[-2.127662E-2,-4.7014948E-2,4.1249996E-1,-6.771656E-2,2.8749996E-1,7.2E-2,-7.5000017E-3,-9.864868E-3,-2.40741E-3,5.1999997E-2,-7.5000017E-3],"categories":[],"categories_nodes":[],"categories_segments":[],"categories_sizes":[],"default_left":[0,0,0,0,0,0,0,0,0,0,0],"id":44,"left_children":[1,3,5,7,9,-1,-1,-1,-1,-1,-1],"loss_changes":[1.5936142E0,9.474182E-1,1.25325E0,1.6906923E-1,7.1325004E-1,0E0,0E0,0E0,0E0,0E0,0E0],"parents":[2147483647,0,0,1,1,2,2,3,3,4,4],"right_children":[2,4,6,8,10,-1,-1,-1,-1,-1,-1],"split_conditions":[8.9584E10,3.80088E11,2.74764E11,6.0666666E0,6.188E10,1.8968986E8,-8.643052E7,-9.032505E7,-5.1927475E6,4.2337896E7,-1.1739791E8],"split_indices":[2,17,20,30,3,0,0,0,0,0,0],"split_type":[0,0,0,0,0,0,0,0,0,0,0],"sum_hessian":[1.4E2,1.33E2,7E0,1.26E2,7E0,4E0,3E0,7.3E1,5.3E1,4E0,3E0],"tree_param":{"num_deleted":"0","num_feature":"33","num_nodes":"11","size_leaf_vector":"1"}},{"base_weights":[-1.4184421E-2,-2.7338153E-2,6E-2,-5.2343775E-2,2.4166664E-1,-5.984254E-3,4.4999998E-2,6.7499995E-2,2.2222202E-3],"categories":[],"categories_nodes":[],"categories_segments":[],"categories_sizes":[],"default_left":[0,0,0,0,0,0,0,0,0],"id":45,"left_children":[1,3,-1,5,7,-1,-1,-1,-1],"loss_changes":[1.1555161E0,9.476516E-1,0E0,5.0909996E-1,1.126111E0,0E0,0E0,0E0,0E0],"parents":[2147483647,0,0,1,1,3,3,4,4],"right_children":[2,4,-1,6,8,-1,-1,-1,-1],"split_conditions":[1.3E1,3.96711E11,3.4335948E7,1.23945E11,2.0505E10,-2.3300732E7,6.7682305E6,2.4016486E7,1.2967117E7],"split_indices":[29,17,0,0,5,0,0,0,0],"split_type":[0,0,0,0,0,0,0,0,0],"sum_hessian":[1.4E2,1.38E2,2E0,1.27E2,1.1E1,1.26E2,1E0,3E0,8E0],"tree_param":{"num_deleted":"0","num_feature":"33","num_nodes":"9","size_leaf_vector":"1"}},{"base_weights":[3.2051045E-3,-8.80435E-2,1.3230766E-1,-9.887643E-3,1.7499998E-1,7.1186416E-2,6.285714E-1,4.4999998E-2,-6.6666687E-3,4.1666668E-2,3.148146E-3,7.5E-2,-5.0000013E-3],"categories":[],"categories_nodes":[],"categories_segments":[],"categories_sizes":[],"default_left":[0,0,0,0,0,0,0,0,0,0,0,0,0],"id":46,"left_children":[1,3,5,-1,7,9,11,-1,-1,-1,-1,-1,-1],"loss_changes":[1.8493959E0,2.7946025E-1,1.9268513E0,0E0,2.9583335E-1,7.962022E-1,6.142857E-1,0E0,0E0,0E0,0E0,0E0,0E0],"parents":[2147483647,0,0,1,1,2,2,4,4,5,5,6,6],"right_children":[2,4,6,-1,8,10,12,-1,-1,-1,-1,-1,-1],"split_conditions":[1.81825E9,5.214E9,7.733333E0,-6.30968E8,4.2123E10,1.977E9,1.1649E10,8.664392E7,-3.431207E8,4.0434484E7,1.1370976E7,1.9257918E8,-8.912724E8],"split_indices":[16,9,29,0,0,15,5,0,0,0,0,0,0],"split_type":[0,0,0,0,0,0,0,0,0,0,0,0,0],"sum_hessian":[1.55E2,9.1E1,6.4E1,8.8E1,3E0,5.8E1,6E0,1E0,2E0,5E0,5.3E1,5E0,1E0],"tree_param":{"num_deleted":"0","num_feature":"33","num_nodes":"13","size_leaf_vector":"1"}},{"base_weights":[-1.3245056E-2,-8.910894E-2,1.3725488E-1,-9.885061E-3,-2.666669E-2,4.083333E-1,5.2499976E-2,4.4999998E-2,-9.285717E-3,5.7777774E-2,-7.5000017E-3,-3.2258087E-3,3.0999998E-2],"categories":[0,1,2],"categories_nodes":[2],"categories_segments":[0],"categories_sizes":[3],"default_left":[0,0,1,0,0,0,0,0,0,0,0,0,0],"id":47,"left_children":[1,3,5,-1,7,9,11,-1,-1,-1,-1,-1,-1],"loss_changes":[1.7362745E0,5.8801353E-2,1.1502993E0,0E0,5.1504767E-1,1.0261109E0,8.8300806E-1,0E0,0E0,0E0,0E0,0E0,0E0],"parents":[2147483647,0,0,1,1,2,2,4,4,5,5,6,6],"right_children":[2,4,6,-1,8,10,12,-1,-1,-1,-1,-1,-1],"split_conditions":[2.73403E11,1.86975E9,1E-45,-1.1205038E9,2.8918E10,2.3662E10,3.96711E11,1.7332142E8,-9.79986E7,1.7191403E8,-1.2038963E7,-4.5973315E6,2.0477542E7],"split_indices":[18,16,32,0,0,5,17,0,0,0,0,0,0],"split_type":[0,0,1,0,0,0,0,0,0,0,0,0,0],"sum_hessian":[1.5E2,1E2,5E1,8.6E1,1.4E1,1.1E1,3.9E1,1E0,1.3E1,8E0,3E0,3E1,9E0],"tree_param":{"num_deleted":"0","num_feature":"33","num_nodes":"13","size_leaf_vector":"1"}},{"base_weights":[-4.7297534E-3,-7.9000026E-2,1.4693876E-1,-8.888891E-2,4.4999998E-2,5.3749996E-1,6.904759E-2,-9.882356E-3,-2.666669E-3,-6.6666687E-3,7.5E-2,-3.0000024E-3,2.9230768E-2],"categories":[],"categories_nodes":[],"categories_segments":[],"categories_sizes":[],"default_left":[0,0,0,0,0,0,0,0,0,0,0,0,0],"id":48,"left_children":[1,3,5,7,-1,9,11,-1,-1,-1,-1,-1,-1],"loss_changes":[1.6787485E0,5.631222E-1,1.4535289E0,5.85621E-2,0E0,1.0770833E0,9.375311E-1,0E0,0E0,0E0,0E0,0E0,0E0],"parents":[2147483647,0,0,1,1,2,2,3,3,5,5,6,6],"right_children":[2,4,6,8,-1,10,12,-1,-1,-1,-1,-1,-1],"split_conditions":[1.1029E10,6.306E9,3.8297E10,1.86975E9,4.776919E7,3.1146E10,2.7530055E4,-7.9372915E8,3.3135326E7,-6.247629E6,7.8439224E7,-1.198902E6,1.1406545E8],"split_indices":[6,9,3,16,0,3,26,0,0,0,0,0,0],"split_type":[0,0,0,0,0,0,0,0,0,0,0,0,0],"sum_hessian":[1.47E2,9.9E1,4.8E1,9.8E1,1E0,7E0,4.1E1,8.4E1,1.4E1,2E0,5E0,2.9E1,1.2E1],"tree_param":{"num_deleted":"0","num_feature":"33","num_nodes":"13","size_leaf_vector":"1"}},{"base_weights":[-1.1875024E-2,-9.8780515E-3,7.848099E-2,3.0499998E-1,1.6666432E-3,-8.750002E-3,5.230769E-2,-9.722224E-3,1.4399998E-2],"categories":[],"categories_nodes":[],"categories_segments":[],"categories_sizes":[],"default_left":[0,0,0,0,0,0,0,0,0],"id":49,"left_children":[1,-1,3,5,7,-1,-1,-1,-1],"loss_changes":[1.2641417E0,0E0,1.3740845E0,1.7576731E0,8.585111E-1,0E0,0E0,0E0,0E0],"parents":[2147483647,0,0,2,2,3,3,4,4],"right_children":[2,-1,4,6,8,-1,-1,-1,-1],"split_conditions":[8.42E9,-8.789268E8,4.6075E10,3.9333334E0,3.53514E11,-3.339338E8,6.848172E7,-2.398323E7,1.6475536E7],"split_indices":[5,0,1,29,18,0,0,0,0],"split_type":[0,0,0,0,0,0,0,0,0],"sum_hessian":[1.59E2,8.1E1,7.8E1,1.9E1,5.9E1,7E0,1.2E1,3.5E1,2.4E1],"tree_param":{"num_deleted":"0","num_feature":"33","num_nodes":"9","size_leaf_vector":"1"}},{"base_weights":[-7.843161E-3,-8.77778E-2,1.04687475E-1,-9.8765455E-3,9.999978E-3,4.0624997E-1,4.081609E-3,4.4999998E-2,-8.888892E-3,-8.000002E-3,5.75E-2,-3.4042578E-3,6E-2],"categories":[],"categories_nodes":[],"categories_segments":[],"categories_sizes":[],"default_left":[0,0,0,0,0,0,0,0,0,0,0,0,0],"id":50,"left_children":[1,3,5,-1,7,9,11,-1,-1,-1,-1,-1,-1],"loss_changes":[1.3854389E0,9.767896E-2,1.9400351E0,0E0,4.7511113E-1,1.358875E0,1.1336517E0,0E0,0E0,0E0,0E0,0E0,0E0],"parents":[2147483647,0,0,1,1,2,2,4,4,5,5,6,6],"right_children":[2,4,6,-1,8,10,12,-1,-1,-1,-1,-1,-1],"split_conditions":[3.6906E10,1.912E9,4.5646E10,-7.1081754E8,2.475E10,6.9744E10,1.11439E11,2.4056832E8,-3.9156694E8,-7.497728E6,1.22625464E8,-4.961161E6,1.4166835E8],"split_indices":[2,14,1,0,1,21,2,0,0,0,0,0,0],"split_type":[0,0,0,0,0,0,0,0,0,0,0,0,0],"sum_hessian":[1.52E2,8.9E1,6.3E1,8E1,9E0,1.5E1,4.8E1,1E0,8E0,4E0,1.1E1,4.6E1,2E0],"tree_param":{"num_deleted":"0","num_feature":"33","num_nodes":"13","size_leaf_vector":"1"}},{"base_weights":[-5.03147E-3,-9.87342E-3,8.641973E-2,5.5128183E-2,6.7499995E-2,-9.473687E-3,1.0166665E-2],"categories":[],"categories_nodes":[],"categories_segments":[],"categories_sizes":[],"default_left":[0,0,0,0,0,0,0],"id":51,"left_children":[1,-1,3,5,-1,-1,-1],"loss_changes":[1.3710397E0,0E0,1.454613E0,5.5364174E-1,0E0,0E0,0E0],"parents":[2147483647,0,0,2,2,3,3],"right_children":[2,-1,4,6,-1,-1,-1],"split_conditions":[2.6064E10,-8.098576E8,9E0,3.6666667E0,2.1651128E8,-4.1486668E7,2.7718016E7],"split_indices":[2,0,29,29,0,0,0],"split_type":[0,0,0,0,0,0,0],"sum_hessian":[1.58E2,7.8E1,8E1,7.7E1,3E0,1.8E1,5.9E1],"tree_param":{"num_deleted":"0","num_feature":"33","num_nodes":"7","size_leaf_vector":"1"}},{"base_weights":[-3.129254E-2,-4.3750025E-2,4.2499998E-1,-8.018871E-2,5.6410234E-2,6E-2,-5.0000013E-3,-8.952383E-3,4.4999998E-2,-2.7586229E-3,2.7272725E-2],"categories":[],"categories_nodes":[],"categories_segments":[],"categories_sizes":[],"default_left":[0,0,0,0,0,0,0,0,0,0,0],"id":52,"left_children":[1,3,5,7,9,-1,-1,-1,-1,-1,-1],"loss_changes":[8.541795E-1,5.300814E-1,3.6249995E-1,5.6492E-1,7.1614826E-1,0E0,0E0,0E0,0E0,0E0,0E0],"parents":[2147483647,0,0,1,1,2,2,3,3,4,4],"right_children":[2,4,6,8,10,-1,-1,-1,-1,-1,-1],"split_conditions":[1.3E1,1.29684E11,3.8944E10,7.457E9,1.81416E11,4.365558E7,-2.375762E7,-1.2509932E8,1.2472975E8,1.1640295E7,4.633624E7],"split_indices":[29,23,0,11,22,0,0,0,0,0,0],"split_type":[0,0,0,0,0,0,0,0,0,0,0],"sum_hessian":[1.46E2,1.43E2,3E0,1.05E2,3.8E1,2E0,1E0,1.04E2,1E0,2.8E1,1E1],"tree_param":{"num_deleted":"0","num_feature":"33","num_nodes":"11","size_leaf_vector":"1"}},{"base_weights":[-1.208056E-2,-8.6419776E-2,7.5362295E-2,-9.866669E-3,5.7142835E-2,3.333333E-1,-3.673472E-2,4.4999998E-2,-8.333336E-3,6.153844E-3,6.888889E-2,-5.6250026E-3,4.4999998E-2],"categories":[],"categories_nodes":[],"categories_segments":[],"categories_sizes":[],"default_left":[0,0,0,0,0,0,0,0,0,0,0,0,0],"id":53,"left_children":[1,3,5,-1,7,9,11,-1,-1,-1,-1,-1,-1],"loss_changes":[9.7507745E-1,1.4805216E-1,2.0075717E0,0E0,4.2380953E-1,1.9870086E0,4.9075258E-1,0E0,0E0,0E0,0E0,0E0,0E0],"parents":[2147483647,0,0,1,1,2,2,4,4,5,5,6,6],"right_children":[2,4,6,-1,8,10,12,-1,-1,-1,-1,-1,-1],"split_conditions":[1.749E9,1.77609E11,4.6333E10,-4.3447114E8,4.3603E10,4.2926E10,1.243E11,3.000443E7,-2.5485312E6,1.8231339E8,4.4207843E8,-1.193158E7,6.6404355E6],"split_indices":[14,21,1,0,0,4,0,0,0,0,0,0,0],"split_type":[0,0,0,0,0,0,0,0,0,0,0,0,0],"sum_hessian":[1.48E2,8E1,6.8E1,7.4E1,6E0,2E1,4.8E1,1E0,5E0,1.2E1,8E0,4.7E1,1E0],"tree_param":{"num_deleted":"0","num_feature":"33","num_nodes":"13","size_leaf_vector":"1"}},{"base_weights":[-6.644739E-2,-7.284771E-2,4.4999998E-2,2.6666665E-1,-7.919466E-2,-5.0000013E-3,4.4999998E-2,-8.561647E-3,1.7499998E-2],"categories":[],"categories_nodes":[],"categories_segments":[],"categories_sizes":[],"default_left":[0,0,0,0,0,0,0,0,0],"id":54,"left_children":[1,3,-1,5,7,-1,-1,-1,-1],"loss_changes":[5.3520614E-1,3.4650546E-1,0E0,1.9666666E-1,2.5820893E-1,0E0,0E0,0E0,0E0],"parents":[2147483647,0,0,1,1,3,3,4,4],"right_children":[2,4,-1,6,8,-1,-1,-1,-1],"split_conditions":[1.243E11,-4.92E8,5.976064E6,2.4519E10,1.3E1,-1.4398829E9,1.05616184E8,-4.149422E7,7.047906E7],"split_indices":[0,6,0,0,30,0,0,0,0],"split_type":[0,0,0,0,0,0,0,0,0],"sum_hessian":[1.51E2,1.5E2,1E0,2E0,1.48E2,1E0,1E0,1.45E2,3E0],"tree_param":{"num_deleted":"0","num_feature":"33","num_nodes":"9","size_leaf_vector":"1"}},{"base_weights":[-4.7297534E-3,-8.018871E-2,1.8139532E-1,-8.952383E-2,4.4999998E-2,4.999998E-2,6.0999995E-1,-9.900003E-3,8.333332E-3,-9.411767E-3,1.833333E-2,7.875E-2,-6.6666687E-3],"categories":[],"categories_nodes":[],"categories_segments":[],"categories_sizes":[],"default_left":[0,0,0,0,0,0,0,0,0,0,0,0,0],"id":55,"left_children":[1,3,5,7,-1,9,11,-1,-1,-1,-1,-1,-1],"loss_changes":[2.0931766E0,5.6492E-1,2.3911164E0,1.802429E-1,0E0,6.7058825E-1,1.2535832E0,0E0,0E0,0E0,0E0,0E0,0E0],"parents":[2147483647,0,0,1,1,2,2,3,3,5,5,6,6],"right_children":[2,4,6,8,-1,10,12,-1,-1,-1,-1,-1,-1],"split_conditions":[4.316E9,8.4742E10,5.1E0,5.5314E10,5.1777535E6,6.849E9,6.628E9,-3.2267594E8,4.700365E7,-1.7491974E7,2.9341894E7,4.0201994E8,-5.706957E7],"split_indices":[11,1,29,3,0,11,11,0,0,0,0,0,0],"split_type":[0,0,0,0,0,0,0,0,0,0,0,0,0],"sum_hessian":[1.47E2,1.05E2,4.2E1,1.04E2,1E0,3.3E1,9E0,9.9E1,5E0,1.6E1,1.7E1,7E0,2E0],"tree_param":{"num_deleted":"0","num_feature":"33","num_nodes":"13","size_leaf_vector":"1"}},{"base_weights":[-3.3576667E-2,-4.740743E-2,6E-2,-9.882356E-3,3.921566E-2,7.2E-2,-3.4042578E-3],"categories":[],"categories_nodes":[],"categories_segments":[],"categories_sizes":[],"default_left":[0,0,0,0,0,0,0],"id":56,"left_children":[1,3,-1,-1,5,-1,-1],"loss_changes":[1.2289548E0,6.0514164E-1,0E0,0E0,2.5680366E0,0E0,0E0],"parents":[2147483647,0,0,1,1,4,4],"right_children":[2,4,-1,-1,6,-1,-1],"split_conditions":[6.449E9,3.6339E10,1.1466425E8,-4.5115024E8,4.3076E10,4.230349E7,-8.521935E6],"split_indices":[15,2,0,0,0,0,0],"split_type":[0,0,0,0,0,0,0],"sum_hessian":[1.36E2,1.34E2,2E0,8.4E1,5E1,4E0,4.6E1],"tree_param":{"num_deleted":"0","num_feature":"33","num_nodes":"7","size_leaf_vector":"1"}},{"base_weights":[-3.3132553E-2,-9.892476E-3,4.9999975E-2,2.7368417E-1,-2.6785737E-2,6.285714E-2,6.153844E-3,-9.736844E-3,1.1578945E-2],"categories":[],"categories_nodes":[],"categories_segments":[],"categories_sizes":[],"default_left":[0,0,0,0,0,0,0,0,0],"id":57,"left_children":[1,-1,3,5,7,-1,-1,-1,-1],"loss_changes":[9.1287863E-1,0E0,1.2783365E0,1.3917873E0,5.748214E-1,0E0,0E0,0E0,0E0],"parents":[2147483647,0,0,2,2,3,3,4,4],"right_children":[2,-1,4,6,8,-1,-1,-1,-1],"split_conditions":[8.467E9,-3.619156E8,2.079873E4,4.3076E10,6.849E9,1.724371E8,4.941619E6,-2.5135688E7,2.301055E7],"split_indices":[5,0,26,0,10,0,0,0,0],"split_type":[0,0,0,0,0,0,0,0,0],"sum_hessian":[1.65E2,9.2E1,7.3E1,1.8E1,5.5E1,6E0,1.2E1,3.7E1,1.8E1],"tree_param":{"num_deleted":"0","num_feature":"33","num_nodes":"9","size_leaf_vector":"1"}},{"base_weights":[-2.7338153E-2,-7.717393E-2,6.874998E-2,-8.791211E-2,4.4999998E-2,5.2E-1,1.5909068E-2,-9.870132E-3,-2.666669E-3,-5.0000013E-3,6.7499995E-2,-2.4390267E-3,4.25E-2],"categories":[],"categories_nodes":[],"categories_segments":[],"categories_sizes":[],"default_left":[0,0,0,0,0,0,0,0,0,0,0,0,0],"id":58,"left_children":[1,3,5,7,-1,9,11,-1,-1,-1,-1,-1,-1],"loss_changes":[6.709249E-1,5.60362E-1,1.1362613E0,5.7499766E-2,0E0,4.755E-1,7.357539E-1,0E0,0E0,0E0,0E0,0E0,0E0],"parents":[2147483647,0,0,1,1,2,2,3,3,5,5,6,6],"right_children":[2,4,6,8,-1,10,12,-1,-1,-1,-1,-1,-1],"split_conditions":[1.20179E11,1.17154E11,1.23549E11,9.033334E0,1.0089677E8,3.5966E10,4.15E9,-1.11617464E8,1.4323966E8,-6.6052755E8,7.426458E7,-5.82472E6,5.0184195E6],"split_indices":[24,2,24,29,0,2,14,0,0,0,0,0,0],"split_type":[0,0,0,0,0,0,0,0,0,0,0,0,0],"sum_hessian":[1.38E2,9.1E1,4.7E1,9E1,1E0,4E0,4.3E1,7.6E1,1.4E1,1E0,3E0,4E1,3E0],"tree_param":{"num_deleted":"0","num_feature":"33","num_nodes":"13","size_leaf_vector":"1"}},{"base_weights":[-3.7267104E-2,-7.520002E-2,9.189187E-2,-8.306454E-2,4.4999998E-2,4.5714263E-2,6E-2,-2.2706532E-9,-9.903848E-3,-2.3072766E-9,3.2E-2],"categories":[],"categories_nodes":[],"categories_segments":[],"categories_sizes":[],"default_left":[0,0,0,0,0,0,0,0,0,0,0],"id":59,"left_children":[1,3,5,7,-1,9,-1,-1,-1,-1,-1],"loss_changes":[7.9570997E-1,5.536845E-1,8.407104E-1,1.6453171E-1,0E0,4.388572E-1,0E0,0E0,0E0,0E0,0E0],"parents":[2147483647,0,0,1,1,2,2,3,3,5,5],"right_children":[2,4,6,8,-1,10,-1,-1,-1,-1,-1],"split_conditions":[1.29684E11,7.485E9,6E0,6.30783E8,9.080668E7,4.14E9,3.609518E8,-2.3709966E7,-3.4235356E7,2.5248128E6,4.5166595E6],"split_indices":[25,12,29,10,0,14,0,0,0,0,0],"split_type":[0,0,0,0,0,0,0,0,0,0,0],"sum_hessian":[1.6E2,1.24E2,3.6E1,1.23E2,1E0,3.4E1,2E0,2E1,1.03E2,3E1,4E0],"tree_param":{"num_deleted":"0","num_feature":"33","num_nodes":"11","size_leaf_vector":"1"}},{"base_weights":[-5.5345934E-2,-6.70968E-2,3.2E-1,2.6666665E-1,-7.320264E-2,6E-2,-6.6666687E-3,-5.0000013E-3,4.4999998E-2,-9.090912E-3,-6.0606294E-4],"categories":[],"categories_nodes":[],"categories_segments":[],"categories_sizes":[],"default_left":[0,0,0,0,0,0,0,0,0,0,0],"id":60,"left_children":[1,3,5,7,9,-1,-1,-1,-1,-1,-1],"loss_changes":[7.2276247E-1,3.3539617E-1,5.813333E-1,1.9666666E-1,1.8134278E-1,0E0,0E0,0E0,0E0,0E0,0E0],"parents":[2147483647,0,0,1,1,2,2,3,3,4,4],"right_children":[2,4,6,8,10,-1,-1,-1,-1,-1,-1],"split_conditions":[1.11439E11,-4.92E8,9.1819E10,2.4519E10,1.40199E11,8.172585E7,-1.3561856E7,-1.167735E9,1.5552349E8,-3.1368238E7,-8.567964E6],"split_indices":[2,6,1,0,23,0,0,0,0,0,0],"split_type":[0,0,0,0,0,0,0,0,0,0,0],"sum_hessian":[1.58E2,1.54E2,4E0,2E0,1.52E2,2E0,2E0,1E0,1E0,1.2E2,3.2E1],"tree_param":{"num_deleted":"0","num_feature":"33","num_nodes":"11","size_leaf_vector":"1"}},{"base_weights":[-1.3815813E-2,-6.525426E-2,1.5999998E-1,-7.35043E-2,4.4999998E-2,4.3999997E-1,-4.761907E-2,-9.885061E-3,-2.3072766E-9,-7.5000017E-3,5.75E-2,2.6666665E-2,-9.473687E-3],"categories":[],"categories_nodes":[],"categories_segments":[],"categories_sizes":[],"default_left":[0,0,0,0,0,0,0,0,0,0,0,0,0],"id":61,"left_children":[1,3,5,7,-1,9,11,-1,-1,-1,-1,-1,-1],"loss_changes":[1.3694445E0,5.3467906E-1,2.055619E0,2.1797824E-1,0E0,1.0860002E0,3.362406E-1,0E0,0E0,0E0,0E0,0E0,0E0],"parents":[2147483647,0,0,1,1,2,2,3,3,5,5,6,6],"right_children":[2,4,6,8,-1,10,12,-1,-1,-1,-1,-1,-1],"split_conditions":[4.565E9,8.4742E10,3.38516E11,1.912E9,4.9217535E6,3.6666667E0,5.0557E10,-2.7530272E8,9.527815E6,-1.0693591E8,2.7528144E8,1.2986778E7,-3.4224388E7],"split_indices":[11,1,17,14,0,30,3,0,0,0,0,0,0],"split_type":[0,0,0,0,0,0,0,0,0,0,0,0,0],"sum_hessian":[1.51E2,1.17E2,3.4E1,1.16E2,1E0,1.4E1,2E1,8.6E1,3E1,3E0,1.1E1,2E0,1.8E1],"tree_param":{"num_deleted":"0","num_feature":"33","num_nodes":"13","size_leaf_vector":"1"}},{"base_weights":[-4.335667E-2,-5.0000023E-2,4.4999998E-2,-9.868423E-3,5.9701256E-3,-3.3870991E-3,4.1666668E-2],"categories":[],"categories_nodes":[],"categories_segments":[],"categories_sizes":[],"default_left":[0,0,0,0,0,0,0],"id":62,"left_children":[1,3,-1,-1,5,-1,-1],"loss_changes":[4.9118888E-1,3.8751963E-1,0E0,0E0,1.1104077E0,0E0,0E0],"parents":[2147483647,0,0,1,1,4,4],"right_children":[2,4,-1,-1,6,-1,-1],"split_conditions":[1.243E11,1.02498E11,9.821389E6,-1.4029722E8,8.2E0,-1.4092701E7,1.044521E7],"split_indices":[0,23,0,0,29,0,0],"split_type":[0,0,0,0,0,0,0],"sum_hessian":[1.42E2,1.41E2,1E0,7.5E1,6.6E1,6.1E1,5E0],"tree_param":{"num_deleted":"0","num_feature":"33","num_nodes":"7","size_leaf_vector":"1"}},{"base_weights":[-3.5915516E-2,-6.821708E-2,2.6428568E-1,-7.578127E-2,4.4999998E-2,4.6666664E-1,-8.333336E-3,2.6666665E-2,-8.333336E-3,6.285714E-2,-6.6666687E-3],"categories":[],"categories_nodes":[],"categories_segments":[],"categories_sizes":[],"default_left":[0,0,0,0,0,0,0,0,0,0,0],"id":63,"left_children":[1,3,5,7,-1,9,-1,-1,-1,-1,-1],"loss_changes":[1.3949982E0,5.3976804E-1,1.0238093E0,3.5325527E-1,0E0,8.190478E-1,0E0,0E0,0E0,0E0,0E0],"parents":[2147483647,0,0,1,1,2,2,3,3,5,5],"right_children":[2,4,6,8,-1,10,-1,-1,-1,-1,-1],"split_conditions":[2.7530055E4,1.3E1,3.96711E11,-4.92E8,1.910784E6,2.490825E10,-2.72384E6,1.6891085E8,-2.5405936E7,6.0054732E7,-1.5229747E7],"split_indices":[26,29,18,6,0,8,0,0,0,0,0],"split_type":[0,0,0,0,0,0,0,0,0,0,0],"sum_hessian":[1.41E2,1.28E2,1.3E1,1.27E2,1E0,8E0,5E0,2E0,1.25E2,6E0,2E0],"tree_param":{"num_deleted":"0","num_feature":"33","num_nodes":"11","size_leaf_vector":"1"}},{"base_weights":[-8.391632E-3,-8.791211E-2,1.2830186E-1,2.6666665E-1,-9.887643E-3,5.7777774E-1,3.5555534E-2,-5.0000013E-3,4.4999998E-2,7.714286E-2,-6.6666687E-3,-6.333336E-3,2.1874998E-2],"categories":[],"categories_nodes":[],"categories_segments":[],"categories_sizes":[],"default_left":[0,0,0,0,0,0,0,0,0,0,0,0,0],"id":64,"left_children":[1,3,5,7,-1,9,11,-1,-1,-1,-1,-1,-1],"loss_changes":[1.5656797E0,3.80149E-1,2.1888804E0,1.9666666E-1,0E0,1.174603E0,8.2906944E-1,0E0,0E0,0E0,0E0,0E0,0E0],"parents":[2147483647,0,0,1,1,2,2,3,3,5,5,6,6],"right_children":[2,4,6,8,-1,10,12,-1,-1,-1,-1,-1,-1],"split_conditions":[1.11155E10,-4.92E8,3.05602E11,3.0571E10,-2.6328338E8,5.1501E10,2.7530055E4,-2.5767403E8,1.5201976E8,3.021357E8,-5.173166E7,-1.5260059E7,2.5874742E7],"split_indices":[8,6,17,0,0,1,26,0,0,0,0,0,0],"split_type":[0,0,0,0,0,0,0,0,0,0,0,0,0],"sum_hessian":[1.42E2,9E1,5.2E1,2E0,8.8E1,8E0,4.4E1,1E0,1E0,6E0,2E0,2.9E1,1.5E1],"tree_param":{"num_deleted":"0","num_feature":"33","num_nodes":"13","size_leaf_vector":"1"}},{"base_weights":[-4.635764E-2,-9.888891E-3,3.0645138E-2,1.7931032E-1,-9.705885E-3,7.2E-2,6.399998E-3],"categories":[0,1,2],"categories_nodes":[3],"categories_segments":[0],"categories_sizes":[3],"default_left":[0,0,0,1,0,0,0],"id":65,"left_children":[1,-1,3,5,-1,-1,-1],"loss_changes":[6.1383355E-1,0E0,1.1944821E0,1.761986E0,0E0,0E0,0E0],"parents":[2147483647,0,0,2,2,3,3],"right_children":[2,-1,4,6,-1,-1,-1],"split_conditions":[1.764E9,-1.8191525E8,5.2857E10,1E-45,-1.3526962E7,3.3999178E8,1.790975E7],"split_indices":[14,0,2,32,0,0,0],"split_type":[0,0,0,1,0,0,0],"sum_hessian":[1.5E2,8.9E1,6.1E1,2.8E1,3.3E1,4E0,2.4E1],"tree_param":{"num_deleted":"0","num_feature":"33","num_nodes":"7","size_leaf_vector":"1"}},{"base_weights":[-1.9867573E-2,-9.880955E-3,7.794115E-2,5.833333E-1,2.8571405E-2,7.2E-2,-5.0000013E-3,1.6666432E-4,4.25E-2],"categories":[],"categories_nodes":[],"categories_segments":[],"categories_sizes":[],"default_left":[0,0,0,0,0,0,0,0,0],"id":66,"left_children":[1,-1,3,5,7,-1,-1,-1,-1],"loss_changes":[1.1736046E0,0E0,1.6800071E0,5.553334E-1,6.712381E-1,0E0,0E0,0E0,0E0],"parents":[2147483647,0,0,2,2,3,3,4,4],"right_children":[2,-1,4,6,8,-1,-1,-1,-1],"split_conditions":[3.2323E10,-3.754572E8,3.5966E10,1.1649E10,8.266666E0,1.02818616E8,-1.6239166E8,3.882971E5,2.4122982E7],"split_indices":[2,0,0,5,30,0,0,0,0],"split_type":[0,0,0,0,0,0,0,0,0],"sum_hessian":[1.5E2,8.3E1,6.7E1,5E0,6.2E1,4E0,1E0,5.9E1,3E0],"tree_param":{"num_deleted":"0","num_feature":"33","num_nodes":"9","size_leaf_vector":"1"}},{"base_weights":[-1.4379108E-2,-9.863016E-3,6.1728373E-2,2.1333309E-2,4.8571426E-1,2.4166664E-2,-2.0312525E-3,5.8333334E-2,-5.0000013E-3],"categories":[],"categories_nodes":[],"categories_segments":[],"categories_sizes":[],"default_left":[0,0,0,0,0,0,0,0,0],"id":67,"left_children":[1,-1,3,5,7,-1,-1,-1,-1],"loss_changes":[9.8714495E-1,0E0,1.37692E0,6.931063E-1,3.9523816E-1,0E0,0E0,0E0,0E0],"parents":[2147483647,0,0,2,2,3,3,4,4],"right_children":[2,-1,4,6,8,-1,-1,-1,-1],"split_conditions":[2.6741E10,-5.9107226E8,8.8E0,2.2461E11,6.4727E10,7.674271E7,-2.8444285E6,3.4353808E8,-1.2917146E7],"split_indices":[2,0,30,17,0,0,0,0,0],"split_type":[0,0,0,0,0,0,0,0,0],"sum_hessian":[1.52E2,7.2E1,8E1,7.4E1,6E0,1.1E1,6.3E1,5E0,1E0],"tree_param":{"num_deleted":"0","num_feature":"33","num_nodes":"9","size_leaf_vector":"1"}},{"base_weights":[-3.5668813E-2,-5.3594794E-2,5.2E-1,3.4210503E-2,-8.189657E-2,6.7499995E-2,-5.0000013E-3,-9.444447E-3,1.42857125E-2,-9.90741E-3,1.3333331E-2],"categories":[0,1,2],"categories_nodes":[1],"categories_segments":[0],"categories_sizes":[3],"default_left":[0,1,0,0,0,0,0,0,0,0,0],"id":68,"left_children":[1,3,5,7,9,-1,-1,-1,-1,-1,-1],"loss_changes":[1.5917319E0,3.8301384E-1,4.755E-1,5.446533E-1,4.420753E-1,0E0,0E0,0E0,0E0,0E0,0E0],"parents":[2147483647,0,0,1,1,2,2,3,3,4,4],"right_children":[2,4,6,8,10,-1,-1,-1,-1,-1,-1],"split_conditions":[6.151E9,1E-45,9.7278E10,2.3796E10,7.222E9,5.3059584E7,-1.1123098E8,-4.83268E8,7.7480024E7,-5.943265E7,2.333651E8],"split_indices":[15,32,1,0,10,0,0,0,0,0,0],"split_type":[0,1,0,0,0,0,0,0,0,0,0],"sum_hessian":[1.56E2,1.52E2,4E0,3.7E1,1.15E2,3E0,1E0,1.7E1,2E1,1.07E2,8E0],"tree_param":{"num_deleted":"0","num_feature":"33","num_nodes":"11","size_leaf_vector":"1"}},{"base_weights":[-5.8219202E-2,-7.7536255E-2,2.4444443E-1,-3.636366E-2,-8.962266E-2,6.7499995E-2,-8.333336E-3,-6.5625026E-3,4.4999998E-2,-4.210529E-3,-9.886366E-3],"categories":[],"categories_nodes":[],"categories_segments":[],"categories_sizes":[],"default_left":[0,0,0,0,0,0,0,0,0,0,0],"id":69,"left_children":[1,3,5,7,9,-1,-1,-1,-1,-1,-1],"loss_changes":[8.725525E-1,6.541377E-2,1.3263888E0,4.9917617E-1,4.2382777E-2,0E0,0E0,0E0,0E0,0E0,0E0],"parents":[2147483647,0,0,1,1,2,2,3,3,4,4],"right_children":[2,4,6,8,10,-1,-1,-1,-1,-1,-1],"split_conditions":[4.06794E11,1.178E9,6.761E9,5.5314E10,3.6666667E0,2.4093492E7,-9.331835E7,-1.4657824E8,3.10272E6,-2.2141514E7,-2.0381206E7],"split_indices":[17,10,12,3,29,0,0,0,0,0,0],"split_type":[0,0,0,0,0,0,0,0,0,0,0],"sum_hessian":[1.45E2,1.37E2,8E0,3.2E1,1.05E2,3E0,5E0,3.1E1,1E0,1.8E1,8.7E1],"tree_param":{"num_deleted":"0","num_feature":"33","num_nodes":"11","size_leaf_vector":"1"}},{"base_weights":[-5.9868444E-2,-7.266669E-2,6E-2,-7.876715E-2,1.1999998E-1,-9.875002E-3,-5.3731366E-3,4.4999998E-2,-7.5000017E-3],"categories":[],"categories_nodes":[],"categories_segments":[],"categories_sizes":[],"default_left":[0,0,0,0,0,0,0,0,0],"id":70,"left_children":[1,3,-1,5,7,-1,-1,-1,-1],"loss_changes":[1.3272641E0,1.8575525E-1,0E0,6.773591E-2,3.5549998E-1,0E0,0E0,0E0,0E0],"parents":[2147483647,0,0,1,1,3,3,4,4],"right_children":[2,4,-1,6,8,-1,-1,-1,-1],"split_conditions":[1.17154E11,4.02392E11,4.9791796E7,6.2105E9,6.1858E10,-4.6914698E8,-5.9610755E6,1.1894375E7,-1.3437912E8],"split_indices":[2,17,0,8,0,0,0,0,0],"split_type":[0,0,0,0,0,0,0,0,0],"sum_hessian":[1.51E2,1.49E2,2E0,1.45E2,4E0,7.9E1,6.6E1,1E0,3E0],"tree_param":{"num_deleted":"0","num_feature":"33","num_nodes":"9","size_leaf_vector":"1"}},{"base_weights":[-5.9060425E-2,-6.554057E-2,4.4999998E-2,-7.7697866E-2,1.0999998E-1,-8.823552E-4,-9.905662E-3,6E-2,-8.750002E-3],"categories":[0,1,2],"categories_nodes":[3],"categories_segments":[0],"categories_sizes":[3],"default_left":[0,0,0,1,0,0,0,0,0],"id":71,"left_children":[1,3,-1,5,7,-1,-1,-1,-1],"loss_changes":[5.210116E-1,3.2439345E-1,0E0,2.036047E-1,1.02025E0,0E0,0E0,0E0,0E0],"parents":[2147483647,0,0,1,1,3,3,4,4],"right_children":[2,4,-1,6,8,-1,-1,-1,-1],"split_conditions":[1.19575E11,4.06794E11,4.48127E7,1E-45,6.1858E10,3.6562485E6,-5.605894E7,2.0494746E7,-1.7006592E7],"split_indices":[2,17,0,32,0,0,0,0,0],"split_type":[0,0,0,1,0,0,0,0,0],"sum_hessian":[1.48E2,1.47E2,1E0,1.38E2,9E0,3.3E1,1.05E2,2E0,7E0],"tree_param":{"num_deleted":"0","num_feature":"33","num_nodes":"9","size_leaf_vector":"1"}},{"base_weights":[-4.0131602E-2,-5.266669E-2,6E-2,-9.870132E-3,-4.0540774E-3,4.1666668E-2,-4.057973E-3],"categories":[],"categories_nodes":[],"categories_segments":[],"categories_sizes":[],"default_left":[0,0,0,0,0,0,0],"id":72,"left_children":[1,3,-1,-1,5,-1,-1],"loss_changes":[1.251264E0,3.3527943E-1,0E0,0E0,1.1540737E0,0E0,0E0],"parents":[2147483647,0,0,1,1,4,4],"right_children":[2,4,-1,-1,6,-1,-1],"split_conditions":[6.43125E9,2.6741E10,4.0331676E7,-4.0699232E8,3.2323E10,3.1632426E8,-2.4575628E6],"split_indices":[16,2,0,0,1,0,0],"split_type":[0,0,0,0,0,0,0],"sum_hessian":[1.51E2,1.49E2,2E0,7.6E1,7.3E1,5E0,6.8E1],"tree_param":{"num_deleted":"0","num_feature":"33","num_nodes":"7","size_leaf_vector":"1"}},{"base_weights":[-2.7922101E-2,-6.1068725E-2,1.5416664E-1,-9.880955E-3,6.249977E-3,5.833333E-1,1.0526293E-2,4.1666668E-2,-5.1162816E-3,7.2E-2,-5.0000013E-3,-9.411767E-3,6E-2],"categories":[],"categories_nodes":[],"categories_segments":[],"categories_sizes":[],"default_left":[0,0,0,0,0,0,0,0,0,0,0,0,0],"id":73,"left_children":[1,3,5,-1,7,9,11,-1,-1,-1,-1,-1,-1],"loss_changes":[9.3890136E-1,3.3344433E-1,1.4733553E0,0E0,1.1523498E0,5.553334E-1,1.228483E0,0E0,0E0,0E0,0E0,0E0,0E0],"parents":[2147483647,0,0,1,1,2,2,4,4,5,5,6,6],"right_children":[2,4,6,-1,8,10,12,-1,-1,-1,-1,-1,-1],"split_conditions":[6.82E9,1.763E9,6.761E9,-1.188939E8,1.977E9,6.9685E10,8.9584E10,2.8469168E8,-1.9799309E6,2.1851422E8,-2.1847163E8,-9.861123E6,3.629875E7],"split_indices":[9,14,12,0,14,0,1,0,0,0,0,0,0],"split_type":[0,0,0,0,0,0,0,0,0,0,0,0,0],"sum_hessian":[1.53E2,1.3E2,2.3E1,8.3E1,4.7E1,5E0,1.8E1,5E0,4.2E1,4E0,1E0,1.6E1,2E0],"tree_param":{"num_deleted":"0","num_feature":"33","num_nodes":"13","size_leaf_vector":"1"}},{"base_weights":[-4.740262E-2,-9.90741E-3,7.23404E-2,3.4374997E-1,-6.562503E-2,-7.5000017E-3,4.4615384E-2,4.4999998E-2,-9.677421E-3],"categories":[],"categories_nodes":[],"categories_segments":[],"categories_sizes":[],"default_left":[0,0,0,0,0,0,0,0,0],"id":74,"left_children":[1,-1,3,5,7,-1,-1,-1,-1],"loss_changes":[9.60011E-1,0E0,1.7824801E0,7.195673E-1,5.575101E-1,0E0,0E0,0E0,0E0],"parents":[2147483647,0,0,2,2,3,3,4,4],"right_children":[2,-1,4,6,8,-1,-1,-1,-1],"split_conditions":[1.27346E11,-5.7177564E7,8.809E9,2.827E10,1.32225E9,-4.8272796E7,1.5734395E8,4.682957E6,-7.059789E6],"split_indices":[24,0,7,0,16,0,0,0,0],"split_type":[0,0,0,0,0,0,0,0,0],"sum_hessian":[1.53E2,1.07E2,4.6E1,1.5E1,3.1E1,3E0,1.2E1,1E0,3E1],"tree_param":{"num_deleted":"0","num_feature":"33","num_nodes":"9","size_leaf_vector":"1"}},{"base_weights":[-5.6172863E-2,-6.7721546E-2,3.2E-1,-7.3885374E-2,4.4999998E-2,6E-2,-6.6666687E-3,2.6666665E-2,-8.000002E-3],"categories":[],"categories_nodes":[],"categories_segments":[],"categories_sizes":[],"default_left":[0,0,0,0,0,0,0,0,0],"id":75,"left_children":[1,3,5,7,-1,-1,-1,-1,-1],"loss_changes":[7.254474E-1,5.374499E-1,5.813333E-1,3.4826332E-1,0E0,0E0,0E0,0E0,0E0],"parents":[2147483647,0,0,1,1,2,2,3,3],"right_children":[2,4,6,8,-1,-1,-1,-1,-1],"split_conditions":[1.11439E11,2.90437E11,9.1819E10,-4.92E8,3.248128E6,8.720384E6,-4.811981E6,4.9865524E7,-1.4588117E7],"split_indices":[0,22,3,6,0,0,0,0,0],"split_type":[0,0,0,0,0,0,0,0,0],"sum_hessian":[1.61E2,1.57E2,4E0,1.56E2,1E0,2E0,2E0,2E0,1.54E2],"tree_param":{"num_deleted":"0","num_feature":"33","num_nodes":"9","size_leaf_vector":"1"}},{"base_weights":[-4.7058847E-2,-5.9602674E-2,6E-2,-7.2108865E-2,3.2E-1,-7.847225E-3,1.7499998E-2,6E-2,-6.6666687E-3],"categories":[],"categories_nodes":[],"categories_segments":[],"categories_sizes":[],"default_left":[0,0,0,0,0,0,0,0,0],"id":76,"left_children":[1,3,-1,5,7,-1,-1,-1,-1],"loss_changes":[1.2776002E0,7.399301E-1,0E0,2.4488229E-1,5.813333E-1,0E0,0E0,0E0,0E0],"parents":[2147483647,0,0,1,1,3,3,4,4],"right_children":[2,4,-1,6,8,-1,-1,-1,-1],"split_conditions":[1.11439E11,1.11439E11,3.806167E7,1.3E1,1.5051E10,-1.6489042E7,3.7748738E6,7.847936E6,-2.6783334E8],"split_indices":[2,0,0,29,5,0,0,0,0],"split_type":[0,0,0,0,0,0,0,0,0],"sum_hessian":[1.52E2,1.5E2,2E0,1.46E2,4E0,1.43E2,3E0,2E0,2E0],"tree_param":{"num_deleted":"0","num_feature":"33","num_nodes":"9","size_leaf_vector":"1"}},{"base_weights":[-6.0645185E-2,-9.908259E-3,2.978721E-2,3.5555553E-1,-4.615387E-2,-7.5000017E-3,5.8333334E-2,2.6666665E-2,-7.0270295E-3],"categories":[],"categories_nodes":[],"categories_segments":[],"categories_sizes":[],"default_left":[0,0,0,0,0,0,0,0,0],"id":77,"left_children":[1,-1,3,5,7,-1,-1,-1,-1],"loss_changes":[5.417293E-1,0E0,1.1791526E0,9.2638886E-1,3.1295913E-1,0E0,0E0,0E0,0E0],"parents":[2147483647,0,0,2,2,3,3,4,4],"right_children":[2,-1,4,6,8,-1,-1,-1,-1],"split_conditions":[1.1029E10,-5.0039812E7,4.5646E10,3.7432E10,1.1519E10,-2.5182618E7,7.322829E6,7.0631425E6,-7.2226465E6],"split_indices":[6,0,1,1,6,0,0,0,0],"split_type":[0,0,0,0,0,0,0,0,0],"sum_hessian":[1.54E2,1.08E2,4.6E1,8E0,3.8E1,3E0,5E0,2E0,3.6E1],"tree_param":{"num_deleted":"0","num_feature":"33","num_nodes":"9","size_leaf_vector":"1"}},{"base_weights":[-2.8368818E-2,-9.8765455E-3,6.5573744E-2,2.681818E-1,-4.750002E-2,-8.333336E-3,3.7647057E-2,-9.722224E-3,3.2E-2],"categories":[],"categories_nodes":[],"categories_segments":[],"categories_sizes":[],"default_left":[0,0,0,0,0,0,0,0,0],"id":78,"left_children":[1,-1,3,5,7,-1,-1,-1,-1],"loss_changes":[9.389433E-1,0E0,1.4102277E0,8.6880577E-1,7.620278E-1,0E0,0E0,0E0,0E0],"parents":[2147483647,0,0,2,2,3,3,4,4],"right_children":[2,-1,4,6,8,-1,-1,-1,-1],"split_conditions":[3.2471E10,-3.574174E8,4.6333E10,1.288E9,1.11439E11,-6.974669E6,6.085293E7,-8.615363E6,2.317435E7],"split_indices":[1,0,1,14,0,0,0,0,0],"split_type":[0,0,0,0,0,0,0,0,0],"sum_hessian":[1.4E2,8E1,6E1,2.1E1,3.9E1,5E0,1.6E1,3.5E1,4E0],"tree_param":{"num_deleted":"0","num_feature":"33","num_nodes":"9","size_leaf_vector":"1"}},{"base_weights":[-2.649009E-2,-8.764047E-2,6.0317438E-2,-9.864868E-3,-3.1250022E-2,-4.4736866E-2,2.1153843E-1,-9.333336E-3,4.4999998E-2,-7.0270295E-3,4.4999998E-2,7.2E-2,8.636362E-3],"categories":[],"categories_nodes":[],"categories_segments":[],"categories_sizes":[],"default_left":[0,0,0,0,0,0,0,0,0,0,0,0,0],"id":79,"left_children":[1,3,5,-1,7,9,11,-1,-1,-1,-1,-1,-1],"loss_changes":[8.068417E-1,5.2164555E-2,1.0103078E0,0E0,5.200417E-1,5.116501E-1,1.5926293E0,0E0,0E0,0E0,0E0,0E0,0E0],"parents":[2147483647,0,0,1,1,2,2,4,4,5,5,6,6],"right_children":[2,4,6,-1,8,10,12,-1,-1,-1,-1,-1,-1],"split_conditions":[2.0328553E4,9.033334E0,3.9333334E0,-1.4058549E7,2.8571E10,1.19575E11,9.9766E10,-1.6319558E8,3.0579386E8,-2.0103758E7,2.0856832E7,1.8295522E8,3.6991788E6],"split_indices":[26,30,29,0,0,0,20,0,0,0,0,0,0],"split_type":[0,0,0,0,0,0,0,0,0,0,0,0,0],"sum_hessian":[1.5E2,8.8E1,6.2E1,7.3E1,1.5E1,3.7E1,2.5E1,1.4E1,1E0,3.6E1,1E0,4E0,2.1E1],"tree_param":{"num_deleted":"0","num_feature":"33","num_nodes":"13","size_leaf_vector":"1"}},{"base_weights":[-2.6973708E-2,-3.933336E-2,6E-2,6.0526293E-2,-7.25664E-2,-5.6000026E-3,2.642857E-2,-8.921571E-3,7.499998E-3],"categories":[0,1,2],"categories_nodes":[1],"categories_segments":[0],"categories_sizes":[3],"default_left":[0,1,0,0,0,0,0,0,0],"id":80,"left_children":[1,3,-1,5,7,-1,-1,-1,-1],"loss_changes":[1.2014747E0,5.021881E-1,0E0,9.170466E-1,2.843185E-1,0E0,0E0,0E0,0E0],"parents":[2147483647,0,0,1,1,3,3,4,4],"right_children":[2,4,-1,6,8,-1,-1,-1,-1],"split_conditions":[2.90437E11,1E-45,3.5469724E7,3.504E9,2.58549E11,-3.6253708E6,5.6416E7,-3.8130516E7,3.3289828E6],"split_indices":[22,32,0,12,20,0,0,0,0],"split_type":[0,1,0,0,0,0,0,0,0],"sum_hessian":[1.51E2,1.49E2,2E0,3.7E1,1.12E2,2.4E1,1.3E1,1.01E2,1.1E1],"tree_param":{"num_deleted":"0","num_feature":"33","num_nodes":"9","size_leaf_vector":"1"}},{"base_weights":[-4.166669E-2,-5.8503427E-2,2.0999998E-1,-9.875002E-3,-1.0294141E-2,5.2E-1,-8.333336E-3,1.6521737E-2,-9.782611E-3,-5.0000013E-3,6.7499995E-2],"categories":[],"categories_nodes":[],"categories_segments":[],"categories_sizes":[],"default_left":[0,0,0,0,0,0,0,0,0,0,0],"id":81,"left_children":[1,3,5,-1,7,9,-1,-1,-1,-1,-1],"loss_changes":[6.73296E-1,2.8420162E-1,9.5266664E-1,0E0,1.0608375E0,4.755E-1,0E0,0E0,0E0,0E0,0E0],"parents":[2147483647,0,0,1,1,2,2,4,4,5,5],"right_children":[2,4,6,-1,8,10,-1,-1,-1,-1,-1],"split_conditions":[2.1939E10,9.1879E10,8.631E10,-1.116697E8,9.547E9,5.6898E10,-1.1214849E6,2.819919E7,-5.066016E6,-3.3781514E8,3.1922586E7],"split_indices":[7,24,0,0,5,3,0,0,0,0,0],"split_type":[0,0,0,0,0,0,0,0,0,0,0],"sum_hessian":[1.55E2,1.46E2,9E0,7.9E1,6.7E1,4E0,5E0,2.2E1,4.5E1,1E0,3E0],"tree_param":{"num_deleted":"0","num_feature":"33","num_nodes":"11","size_leaf_vector":"1"}},{"base_weights":[-3.0821942E-2,-4.335667E-2,4.2499998E-1,-9.87342E-3,2.461536E-2,6E-2,-5.0000013E-3,3.2631576E-2,-9.787236E-3],"categories":[],"categories_nodes":[],"categories_segments":[],"categories_sizes":[],"default_left":[0,0,0,0,0,0,0,0,0],"id":82,"left_children":[1,3,5,-1,7,-1,-1,-1,-1],"loss_changes":[8.526126E-1,5.407001E-1,3.6249995E-1,0E0,2.433986E0,0E0,0E0,0E0,0E0],"parents":[2147483647,0,0,1,1,2,2,4,4],"right_children":[2,4,6,-1,8,-1,-1,-1,-1],"split_conditions":[6.3445E9,2.827E10,9.1819E10,-5.1124656E8,8.873E9,2.8730164E7,-7.62749E7,1.8075565E8,-1.6501149E6],"split_indices":[16,0,1,0,7,0,0,0,0],"split_type":[0,0,0,0,0,0,0,0,0],"sum_hessian":[1.45E2,1.42E2,3E0,7.8E1,6.4E1,2E0,1E0,1.8E1,4.6E1],"tree_param":{"num_deleted":"0","num_feature":"33","num_nodes":"9","size_leaf_vector":"1"}},{"base_weights":[-4.0909115E-2,-5.9602674E-2,6.7499995E-2,-7.132869E-2,1.3333331E-1,2.6666665E-2,-7.801421E-3,6E-2,-8.57143E-3],"categories":[],"categories_nodes":[],"categories_segments":[],"categories_sizes":[],"default_left":[0,0,0,0,0,0,0,0,0],"id":83,"left_children":[1,3,-1,5,7,-1,-1,-1,-1],"loss_changes":[2.1011965E0,3.511287E-1,0E0,3.4393686E-1,9.714285E-1,0E0,0E0,0E0,0E0],"parents":[2147483647,0,0,1,1,3,3,4,4],"right_children":[2,4,-1,6,8,-1,-1,-1,-1],"split_conditions":[6.3445E9,5.631E9,2.585723E7,-4.92E8,9.598325E10,4.2441116E7,-1.8000206E7,1.4668595E7,-2.9186458E7],"split_indices":[16,14,0,6,4,0,0,0,0],"split_type":[0,0,0,0,0,0,0,0,0],"sum_hessian":[1.53E2,1.5E2,3E0,1.42E2,8E0,2E0,1.4E2,2E0,6E0],"tree_param":{"num_deleted":"0","num_feature":"33","num_nodes":"9","size_leaf_vector":"1"}},{"base_weights":[6.6664297E-4,-3.4057993E-2,3.6923075E-1,-7.87879E-2,7.749998E-2,5.7142835E-2,6.285714E-1,-8.877553E-3,4.4999998E-2,4.6666663E-2,-3.4375023E-3,4.4999998E-2,-8.333336E-3,7.5E-2,-5.0000013E-3],"categories":[],"categories_nodes":[],"categories_segments":[],"categories_sizes":[],"default_left":[0,0,0,0,0,0,0,0,0,0,0,0,0,0,0],"id":84,"left_children":[1,3,5,7,9,11,13,-1,-1,-1,-1,-1,-1,-1,-1],"loss_changes":[1.9323136E0,6.94723E-1,1.0162638E0,5.628015E-1,1.7575624E0,4.2380953E-1,6.142857E-1,0E0,0E0,0E0,0E0,0E0,0E0,0E0,0E0],"parents":[2147483647,0,0,1,1,2,2,3,3,4,4,5,5,6,6],"right_children":[2,4,6,8,10,12,14,-1,-1,-1,-1,-1,-1,-1,-1],"split_conditions":[2.0687E10,1.2094E11,6.797E9,9.4836E10,1.749E9,6.4727E10,9.7278E10,-8.849036E7,1.3201408E7,4.627702E7,-1.4813679E7,2.506752E5,-1.29231256E8,2.3271834E7,-1.3685555E7],"split_indices":[7,24,10,0,14,0,3,0,0,0,0,0,0,0,0],"split_type":[0,0,0,0,0,0,0,0,0,0,0,0,0,0,0],"sum_hessian":[1.49E2,1.37E2,1.2E1,9.8E1,3.9E1,6E0,6E0,9.7E1,1E0,8E0,3.1E1,1E0,5E0,5E0,1E0],"tree_param":{"num_deleted":"0","num_feature":"33","num_nodes":"15","size_leaf_vector":"1"}},{"base_weights":[-3.6764944E-3,-8.705885E-2,1.3269228E-1,-9.868423E-3,9.999978E-3,3.863634E-2,5.7777774E-1,4.4999998E-2,-8.888892E-3,-2.3809758E-4,6E-2,-5.0000013E-3,6.625E-2],"categories":[],"categories_nodes":[],"categories_segments":[],"categories_sizes":[],"default_left":[0,0,0,0,0,0,0,0,0,0,0,0,0],"id":85,"left_children":[1,3,5,-1,7,9,11,-1,-1,-1,-1,-1,-1],"loss_changes":[1.557974E0,9.689629E-2,2.1545491E0,0E0,4.7511113E-1,1.0145563E0,5.118058E-1,0E0,0E0,0E0,0E0,0E0,0E0],"parents":[2147483647,0,0,1,1,2,2,4,4,5,5,6,6],"right_children":[2,4,6,-1,8,10,12,-1,-1,-1,-1,-1,-1],"split_conditions":[1.02735E10,1.82275E9,6E0,-2.4098782E8,2.8918E10,1.19575E11,3.5323E10,2.793173E8,-1.8487296E7,1.3375868E6,1.0765107E7,-2.0753573E8,1.5418533E8],"split_indices":[8,16,29,0,0,0,1,0,0,0,0,0,0],"split_type":[0,0,0,0,0,0,0,0,0,0,0,0,0],"sum_hessian":[1.35E2,8.4E1,5.1E1,7.5E1,9E0,4.3E1,8E0,1E0,8E0,4.1E1,2E0,1E0,7E0],"tree_param":{"num_deleted":"0","num_feature":"33","num_nodes":"13","size_leaf_vector":"1"}},{"base_weights":[-1.3496956E-2,1.0735292E-1,-9.895836E-3,2.1190473E-1,-5.925928E-2,1.0285712E-2,6.625E-2,-9.615387E-3,4.4999998E-2],"categories":[],"categories_nodes":[],"categories_segments":[],"categories_sizes":[],"default_left":[0,0,0,0,0,0,0,0,0],"id":86,"left_children":[1,3,-1,5,7,-1,-1,-1,-1],"loss_changes":[1.6940875E0,1.1970907E0,0E0,1.9955833E0,5.505698E-1,0E0,0E0,0E0,0E0],"parents":[2147483647,0,0,1,1,3,3,4,4],"right_children":[2,4,-1,6,8,-1,-1,-1,-1],"split_conditions":[4.6666665E0,1.62924E11,-2.6202618E7,1.34082E11,5.197E9,2.1180826E7,6.5748172E7,-2.3808414E7,1.810432E6],"split_indices":[30,23,0,24,14,0,0,0,0],"split_type":[0,0,0,0,0,0,0,0,0],"sum_hessian":[1.62E2,6.7E1,9.5E1,4.1E1,2.6E1,3.4E1,7E0,2.5E1,1E0],"tree_param":{"num_deleted":"0","num_feature":"33","num_nodes":"9","size_leaf_vector":"1"}},{"base_weights":[-2.838712E-2,-4.671055E-2,6.7499995E-2,-7.5000025E-2,7.586204E-2,-8.292685E-3,4.4999998E-2,6.7499995E-2,-1.9230793E-3],"categories":[],"categories_nodes":[],"categories_segments":[],"categories_sizes":[],"default_left":[0,0,0,0,0,0,0,0,0],"id":87,"left_children":[1,3,-1,5,7,-1,-1,-1,-1],"loss_changes":[2.0292416E0,5.327518E-1,0E0,5.533537E-1,1.6652188E0,0E0,0E0,0E0,0E0],"parents":[2147483647,0,0,1,1,3,3,4,4],"right_children":[2,4,-1,6,8,-1,-1,-1,-1],"split_conditions":[9.7278E10,1.44949E11,1.8692506E7,7.709E9,6.9E9,-1.4669293E7,7.5702275E6,1.4138696E8,-3.9429792E6],"split_indices":[2,23,0,10,7,0,0,0,0],"split_type":[0,0,0,0,0,0,0,0,0],"sum_hessian":[1.54E2,1.51E2,3E0,1.23E2,2.8E1,1.22E2,1E0,3E0,2.5E1],"tree_param":{"num_deleted":"0","num_feature":"33","num_nodes":"9","size_leaf_vector":"1"}},{"base_weights":[-1.9480756E-3,-4.6616565E-2,2.681818E-1,4.4999998E-2,-5.3787902E-2,3.7647057E-1,-8.333336E-3,-9.8611135E-3,-2.3451008E-9,5.454545E-2,5.714284E-3],"categories":[],"categories_nodes":[],"categories_segments":[],"categories_sizes":[],"default_left":[0,0,0,0,0,0,0,0,0,0,0],"id":88,"left_children":[1,3,5,-1,7,9,-1,-1,-1,-1,-1],"loss_changes":[1.8707107E0,4.978714E-1,8.6880577E-1,0E0,3.1824493E-1,8.861728E-1,0E0,0E0,0E0,0E0,0E0],"parents":[2147483647,0,0,1,1,2,2,4,4,5,5],"right_children":[2,4,6,-1,8,10,-1,-1,-1,-1,-1],"split_conditions":[1.900825E10,-4.92E8,2.501E10,4.3063708E7,2.7772E10,3.73719E11,-2.1540046E7,-4.3971773E8,5.0069615E6,1.599541E7,1.5532032E6],"split_indices":[8,6,5,0,0,19,0,0,0,0,0],"split_type":[0,0,0,0,0,0,0,0,0,0,0],"sum_hessian":[1.53E2,1.32E2,2.1E1,1E0,1.31E2,1.6E1,5E0,7.1E1,6E1,1E1,6E0],"tree_param":{"num_deleted":"0","num_feature":"33","num_nodes":"11","size_leaf_vector":"1"}},{"base_weights":[-2.1428594E-2,-8.764047E-2,6.81818E-2,-3.1250022E-2,-9.864868E-3,6E-2,4.2187475E-2,-9.333336E-3,4.4999998E-2,1.4545453E-2,-6.5625026E-3],"categories":[0,2],"categories_nodes":[6],"categories_segments":[0],"categories_sizes":[2],"default_left":[0,0,0,0,0,0,1,0,0,0,0],"id":89,"left_children":[1,3,5,7,-1,-1,9,-1,-1,-1,-1],"loss_changes":[9.1969943E-1,5.2164555E-2,8.8708806E-1,5.200417E-1,0E0,0E0,7.220881E-1,0E0,0E0,0E0,0E0],"parents":[2147483647,0,0,1,1,2,2,3,3,6,6],"right_children":[2,4,6,8,-1,-1,10,-1,-1,-1,-1],"split_conditions":[2.962E9,5.32106E8,1.80098E11,2.475E10,-3.805646E7,8.900629E7,1E-45,-2.7128342E8,2.549719E8,1.8846184E7,-4.99729E6],"split_indices":[13,9,17,0,0,0,32,0,0,0,0],"split_type":[0,0,0,0,0,0,1,0,0,0,0],"sum_hessian":[1.53E2,8.8E1,6.5E1,1.5E1,7.3E1,2E0,6.3E1,1.4E1,1E0,3.2E1,3.1E1],"tree_param":{"num_deleted":"0","num_feature":"33","num_nodes":"11","size_leaf_vector":"1"}},{"base_weights":[-3.7241403E-2,5.2830167E-2,-8.817206E-2,3.5555553E-1,-8.888912E-3,-3.1250022E-2,-9.871798E-3,-7.5000017E-3,5.8333334E-2,-4.878051E-3,3.2E-2,-9.333336E-3,4.4999998E-2],"categories":[],"categories_nodes":[],"categories_segments":[],"categories_sizes":[],"default_left":[0,0,0,0,0,0,0,0,0,0,0,0,0],"id":90,"left_children":[1,3,5,7,9,11,-1,-1,-1,-1,-1,-1,-1],"loss_changes":[6.698319E-1,9.934088E-1,5.274242E-2,9.2638886E-1,6.0600543E-1,5.200417E-1,0E0,0E0,0E0,0E0,0E0,0E0,0E0],"parents":[2147483647,0,0,1,1,2,2,3,3,4,4,5,5],"right_children":[2,4,6,8,10,12,-1,-1,-1,-1,-1,-1,-1],"split_conditions":[4.4333334E0,3.2323E10,5.32106E8,8.2989E10,6.3445E9,2.475E10,-1.0733981E7,-9.67166E7,3.6872604E7,-9.6010294E5,1.3338215E7,-1.2397414E8,2.2947472E8],"split_indices":[30,1,9,24,16,0,0,0,0,0,0,0,0],"split_type":[0,0,0,0,0,0,0,0,0,0,0,0,0],"sum_hessian":[1.44E2,5.2E1,9.2E1,8E0,4.4E1,1.5E1,7.7E1,3E0,5E0,4E1,4E0,1.4E1,1E0],"tree_param":{"num_deleted":"0","num_feature":"33","num_nodes":"13","size_leaf_vector":"1"}},{"base_weights":[-3.9735124E-2,-5.202705E-2,4.2499998E-1,4.4999998E-2,-5.8503427E-2,6E-2,-5.0000013E-3,2.42424E-3,-8.173916E-3],"categories":[0,1,2],"categories_nodes":[4],"categories_segments":[0],"categories_sizes":[3],"default_left":[0,0,0,0,1,0,0,0,0],"id":91,"left_children":[1,3,5,-1,7,-1,-1,-1,-1],"loss_changes":[8.846975E-1,5.0752115E-1,3.6249995E-1,0E0,2.8461254E-1,0E0,0E0,0E0,0E0],"parents":[2147483647,0,0,1,1,2,2,4,4],"right_children":[2,4,6,-1,8,-1,-1,-1,-1],"split_conditions":[6.3445E9,-3.195E9,1.23945E11,3.111383E7,1E-45,1.2004557E7,-4.840653E6,1.1971618E7,-2.2854362E7],"split_indices":[16,5,0,0,32,0,0,0,0],"split_type":[0,0,0,0,1,0,0,0,0],"sum_hessian":[1.5E2,1.47E2,3E0,1E0,1.46E2,2E0,1E0,3.2E1,1.14E2],"tree_param":{"num_deleted":"0","num_feature":"33","num_nodes":"9","size_leaf_vector":"1"}},{"base_weights":[-2.550338E-2,9.821426E-2,-9.893619E-3,4.5454544E-1,1.0869542E-2,5.7777774E-2,-6.6666687E-3,-6.5625026E-3,1.7333332E-2],"categories":[],"categories_nodes":[],"categories_segments":[],"categories_sizes":[],"default_left":[0,0,0,0,0,0,0,0,0],"id":92,"left_children":[1,3,-1,5,7,-1,-1,-1,-1],"loss_changes":[1.3633722E0,1.7379835E0,0E0,7.4505043E-1,5.830444E-1,0E0,0E0,0E0,0E0],"parents":[2147483647,0,0,1,1,3,3,4,4],"right_children":[2,4,-1,6,8,-1,-1,-1,-1],"split_conditions":[4.4333334E0,2.079873E4,-1.7711774E7,5.2747E10,7.222E9,3.1988122E7,-7.750861E6,-1.2471591E7,6.3492065E6],"split_indices":[30,26,0,0,9,0,0,0,0],"split_type":[0,0,0,0,0,0,0,0,0],"sum_hessian":[1.48E2,5.5E1,9.3E1,1E1,4.5E1,8E0,2E0,3.1E1,1.4E1],"tree_param":{"num_deleted":"0","num_feature":"33","num_nodes":"9","size_leaf_vector":"1"}},{"base_weights":[-9.655196E-3,-9.87342E-3,9.552237E-2,7.2E-2,4.444442E-2,-8.9285953E-4,4.1249998E-2],"categories":[],"categories_nodes":[],"categories_segments":[],"categories_sizes":[],"default_left":[0,0,0,0,0,0,0],"id":93,"left_children":[1,-1,3,-1,5,-1,-1],"loss_changes":[1.3679527E0,0E0,2.105101E0,0E0,1.2412697E0,0E0,0E0],"parents":[2147483647,0,0,2,2,4,4],"right_children":[2,-1,4,-1,6,-1,-1],"split_conditions":[1.9438643E4,-1.8911774E8,2.9084E10,2.6207028E7,6.6666665E0,-3.6929666E5,1.2999353E8],"split_indices":[26,0,0,0,29,0,0],"split_type":[0,0,0,0,0,0,0],"sum_hessian":[1.44E2,7.8E1,6.6E1,4E0,6.2E1,5.5E1,7E0],"tree_param":{"num_deleted":"0","num_feature":"33","num_nodes":"7","size_leaf_vector":"1"}},{"base_weights":[-3.205152E-3,-9.848488E-3,6.593404E-2,4.0624997E-1,-6.5789707E-3,-6.6666687E-3,4.7857143E-2,1.5499997E-2,-6.3157915E-3],"categories":[],"categories_nodes":[],"categories_segments":[],"categories_sizes":[],"default_left":[0,0,0,0,0,0,0,0,0],"id":94,"left_children":[1,-1,3,5,7,-1,-1,-1,-1],"loss_changes":[1.0341533E0,0E0,2.24831E0,5.7913685E-1,7.0457894E-1,0E0,0E0,0E0,0E0],"parents":[2147483647,0,0,2,2,3,3,4,4],"right_children":[2,-1,4,6,8,-1,-1,-1,-1],"split_conditions":[2.3317E10,-4.6682E8,6.9E9,2.1928E10,1.0671E10,-1.717715E8,1.8240525E8,1.4913944E7,-4.791092E6],"split_indices":[2,0,7,1,5,0,0,0,0],"split_type":[0,0,0,0,0,0,0,0,0],"sum_hessian":[1.55E2,6.5E1,9E1,1.5E1,7.5E1,2E0,1.3E1,1.9E1,5.6E1],"tree_param":{"num_deleted":"0","num_feature":"33","num_nodes":"9","size_leaf_vector":"1"}},{"base_weights":[-3.221479E-2,-9.855076E-3,2.4691334E-2,4.2499998E-1,3.8461303E-3,6E-2,-5.0000013E-3,-4.655175E-3,1.42857125E-2],"categories":[],"categories_nodes":[],"categories_segments":[],"categories_sizes":[],"default_left":[0,0,0,0,0,0,0,0,0],"id":95,"left_children":[1,-1,3,5,7,-1,-1,-1,-1],"loss_changes":[5.6489676E-1,0E0,6.7427117E-1,3.6249995E-1,5.5310726E-1,0E0,0E0,0E0,0E0],"parents":[2147483647,0,0,2,2,3,3,4,4],"right_children":[2,-1,4,6,8,-1,-1,-1,-1],"split_conditions":[1.78621E11,-1.5202424E8,3.574E9,2.827E10,5.7E0,5.3458945E6,-2.7242906E7,-2.4214755E6,2.998689E7],"split_indices":[17,0,5,0,29,0,0,0,0],"split_type":[0,0,0,0,0,0,0,0,0],"sum_hessian":[1.48E2,6.8E1,8E1,3E0,7.7E1,2E0,1E0,5.7E1,2E1],"tree_param":{"num_deleted":"0","num_feature":"33","num_nodes":"9","size_leaf_vector":"1"}},{"base_weights":[-2.2023832E-2,-4.740262E-2,2.3999998E-1,4.4999998E-2,-5.3594794E-2,5.2E-1,9.090907E-2,3.076921E-3,-8.173916E-3,-5.0000013E-3,6.7499995E-2,-8.333336E-3,2.4999999E-2],"categories":[0,1,2],"categories_nodes":[4],"categories_segments":[0],"categories_sizes":[3],"default_left":[0,0,0,0,1,0,0,0,0,0,0,0,0],"id":96,"left_children":[1,3,5,-1,7,9,11,-1,-1,-1,-1,-1,-1],"loss_changes":[1.1285509E0,4.9843815E-1,5.789091E-1,0E0,3.6579376E-1,4.755E-1,3.2575762E-1,0E0,0E0,0E0,0E0,0E0,0E0],"parents":[2147483647,0,0,1,1,2,2,4,4,5,5,6,6],"right_children":[2,4,6,-1,8,10,12,-1,-1,-1,-1,-1,-1],"split_conditions":[2.8074846E4,-3.195E9,1.9965E10,3.4080768E6,1E-45,1.8525E10,2.2956E10,5.4146195E6,-2.300683E7,-1.1374756E8,1.1833344E7,-4.2328065E6,1.0928128E7],"split_indices":[26,5,6,0,32,5,5,0,0,0,0,0,0],"split_type":[0,0,0,0,1,0,0,0,0,0,0,0,0],"sum_hessian":[1.67E2,1.53E2,1.4E1,1E0,1.52E2,4E0,1E1,3.8E1,1.14E2,1E0,3E0,5E0,5E0],"tree_param":{"num_deleted":"0","num_feature":"33","num_nodes":"13","size_leaf_vector":"1"}},{"base_weights":[-3.8036834E-2,-7.459019E-2,6.904759E-2,-8.264465E-2,4.4999998E-2,3.5555553E-1,-8.823552E-3,-9.075633E-3,2.6666665E-2,5.8333334E-2,-7.5000017E-3,-6.206899E-3,2.4999999E-2],"categories":[],"categories_nodes":[],"categories_segments":[],"categories_sizes":[],"default_left":[0,0,0,0,0,0,0,0,0,0,0,0,0],"id":97,"left_children":[1,3,5,7,-1,9,11,-1,-1,-1,-1,-1,-1],"loss_changes":[6.431804E-1,5.5267584E-1,9.4018674E-1,3.6705518E-1,0E0,9.2638886E-1,4.8407713E-1,0E0,0E0,0E0,0E0,0E0,0E0],"parents":[2147483647,0,0,1,1,2,2,3,3,5,5,6,6],"right_children":[2,4,6,8,-1,10,12,-1,-1,-1,-1,-1,-1],"split_conditions":[1.30457E11,7.485E9,3.378E9,1.3E1,9.835315E6,4.3076E10,1.98751E11,-1.8894038E7,4.2717185E6,7.555277E7,-3.9170048E6,-1.7059842E5,1.065001E7],"split_indices":[23,12,11,29,0,0,20,0,0,0,0,0,0],"split_type":[0,0,0,0,0,0,0,0,0,0,0,0,0],"sum_hessian":[1.62E2,1.21E2,4.1E1,1.2E2,1E0,8E0,3.3E1,1.18E2,2E0,5E0,3E0,2.8E1,5E0],"tree_param":{"num_deleted":"0","num_feature":"33","num_nodes":"13","size_leaf_vector":"1"}},{"base_weights":[-2.9370653E-2,-4.214288E-2,4.2499998E-1,4.4999998E-2,-4.892089E-2,6E-2,-5.0000013E-3,4.4999998E-2,-5.579713E-3],"categories":[],"categories_nodes":[],"categories_segments":[],"categories_sizes":[],"default_left":[0,0,0,0,0,0,0,0,0],"id":98,"left_children":[1,3,5,-1,7,-1,-1,-1,-1],"loss_changes":[8.477863E-1,4.8901904E-1,3.6249995E-1,0E0,5.019758E-1,0E0,0E0,0E0,0E0],"parents":[2147483647,0,0,1,1,2,2,4,4],"right_children":[2,4,6,-1,8,-1,-1,-1,-1],"split_conditions":[1.11439E11,-3.195E9,9.493E10,4.9567745E6,-4.92E8,8.851456E6,-1.9019366E7,1.0303079E7,-7.724484E6],"split_indices":[2,5,1,0,6,0,0,0,0],"split_type":[0,0,0,0,0,0,0,0,0],"sum_hessian":[1.42E2,1.39E2,3E0,1E0,1.38E2,2E0,1E0,1E0,1.37E2],"tree_param":{"num_deleted":"0","num_feature":"33","num_nodes":"9","size_leaf_vector":"1"}},{"base_weights":[-2.5806688E-3,-9.863016E-3,8.192769E-2,7.2E-2,4.0506307E-2,1.8181795E-3,6E-2],"categories":[],"categories_nodes":[],"categories_segments":[],"categories_sizes":[],"default_left":[0,0,0,0,0,0,0],"id":99,"left_children":[1,-1,3,-1,5,-1,-1],"loss_changes":[1.2662132E0,0E0,2.1645117E0,0E0,9.7583437E-1,0E0,0E0],"parents":[2147483647,0,0,2,2,4,4],"right_children":[2,-1,4,-1,6,-1,-1],"split_conditions":[2.6741E10,-3.446941E8,2.87265E10,2.2509486E8,1.17154E11,2.4179918E6,7.965901E6],"split_indices":[0,0,4,0,2,0,0],"split_type":[0,0,0,0,0,0,0],"sum_hessian":[1.54E2,7.2E1,8.2E1,4E0,7.8E1,7.6E1,2E0],"tree_param":{"num_deleted":"0","num_feature":"33","num_nodes":"7","size_leaf_vector":"1"}},{"base_weights":[6.6664297E-4,-9.855076E-3,8.414632E-2,7.2E-2,4.2307667E-2,-1.6393466E-3,2.3888886E-2],"categories":[],"categories_nodes":[],"categories_segments":[],"categories_sizes":[],"default_left":[0,0,0,0,0,0,0],"id":100,"left_children":[1,-1,3,-1,5,-1,-1],"loss_changes":[1.250688E0,0E0,2.1510057E0,0E0,9.0400034E-1,0E0,0E0],"parents":[2147483647,0,0,2,2,4,4],"right_children":[2,-1,4,-1,6,-1,-1],"split_conditions":[2.422325E10,-4.2502397E8,2.3201E10,2.025853E8,6.856E9,-3.7515322E5,2.5456356E7],"split_indices":[4,0,3,0,10,0,0],"split_type":[0,0,0,0,0,0,0],"sum_hessian":[1.49E2,6.8E1,8.1E1,4E0,7.7E1,6E1,1.7E1],"tree_param":{"num_deleted":"0","num_feature":"33","num_nodes":"7","size_leaf_vector":"1"}},{"base_weights":[-2.7922101E-2,-9.871798E-3,4.415582E-2,5.1999997E-2,1.095888E-2,1.4482756E-2,-7.555558E-3],"categories":[],"categories_nodes":[],"categories_segments":[],"categories_sizes":[],"default_left":[0,0,0,0,0,0,0],"id":101,"left_children":[1,-1,3,-1,5,-1,-1],"loss_changes":[7.9019314E-1,0E0,1.2106373E0,0E0,8.563976E-1,0E0,0E0],"parents":[2147483647,0,0,2,2,4,4],"right_children":[2,-1,4,-1,6,-1,-1],"split_conditions":[1.425E9,-9.1538824E7,1.477E9,4.13311E7,4.5646E10,1.3344068E7,-2.1454848E6],"split_indices":[14,0,14,0,1,0,0],"split_type":[0,0,0,0,0,0,0],"sum_hessian":[1.53E2,7.7E1,7.6E1,4E0,7.2E1,2.8E1,4.4E1],"tree_param":{"num_deleted":"0","num_feature":"33","num_nodes":"7","size_leaf_vector":"1"}},{"base_weights":[-2.4375023E-2,-8.571431E-2,3.2142833E-2,-9.8611135E-3,8.333331E-2,2.6399997E-1,-6.500002E-2,-8.000002E-3,4.4999998E-2,8.2352925E-3,5.7777774E-2,3.1249977E-3,-9.77778E-3],"categories":[1,2,3],"categories_nodes":[6],"categories_segments":[0],"categories_sizes":[3],"default_left":[0,0,0,0,0,0,1,0,0,0,0,0,0],"id":102,"left_children":[1,3,5,-1,7,9,11,-1,-1,-1,-1,-1,-1],"loss_changes":[5.5743754E-1,1.7609125E-1,1.9091144E0,0E0,3.9533332E-1,1.3773384E0,1.9234726E-1,0E0,0E0,0E0,0E0,0E0,0E0],"parents":[2147483647,0,0,1,1,2,2,4,4,5,5,6,6],"right_children":[2,4,6,-1,8,10,12,-1,-1,-1,-1,-1,-1],"split_conditions":[2.5826E10,9.833333E0,3.8944E10,-1.409545E8,1.261E9,1.006725E10,1E-45,-6.159518E8,3.7198028E7,6.18219E7,9.627238E7,2.9652562E6,-1.9900419E6],"split_indices":[2,30,2,0,14,8,32,0,0,0,0,0,0],"split_type":[0,0,0,0,0,0,1,0,0,0,0,0,0],"sum_hessian":[1.59E2,7.6E1,8.3E1,7.1E1,5E0,2.4E1,5.9E1,4E0,1E0,1.6E1,8E0,1.5E1,4.4E1],"tree_param":{"num_deleted":"0","num_feature":"33","num_nodes":"13","size_leaf_vector":"1"}},{"base_weights":[7.33331E-3,-8.4285736E-2,8.641973E-2,-9.848488E-3,1.1999998E-1,3.7647057E-1,9.230746E-3,-7.5000017E-3,4.4999998E-2,8.333332E-3,4.9166664E-2,-1.9047642E-3,6E-2],"categories":[],"categories_nodes":[],"categories_segments":[],"categories_sizes":[],"default_left":[0,0,0,0,0,0,0,0,0,0,0,0,0],"id":103,"left_children":[1,3,5,-1,7,9,11,-1,-1,-1,-1,-1,-1],"loss_changes":[1.0941573E0,2.1486577E-1,1.8100119E0,0E0,3.5549998E-1,5.3308845E-1,1.0973186E0,0E0,0E0,0E0,0E0,0E0,0E0],"parents":[2147483647,0,0,1,1,2,2,4,4,5,5,6,6],"right_children":[2,4,6,-1,8,10,12,-1,-1,-1,-1,-1,-1],"split_conditions":[2.4538E10,9.833333E0,8.467E9,-2.957602E8,1.5061E10,5.486E9,1.17154E11,-5.5435654E8,3.3478246E7,7.5464296E7,7.377836E7,-1.6249654E6,5.03808E6],"split_indices":[2,30,6,0,0,7,2,0,0,0,0,0,0],"split_type":[0,0,0,0,0,0,0,0,0,0,0,0,0],"sum_hessian":[1.49E2,6.9E1,8E1,6.5E1,4E0,1.6E1,6.4E1,3E0,1E0,5E0,1.1E1,6.2E1,2E0],"tree_param":{"num_deleted":"0","num_feature":"33","num_nodes":"13","size_leaf_vector":"1"}},{"base_weights":[-2.2377646E-2,1.4117645E-1,-4.409451E-2,-9.230772E-3,7.2E-2,-8.589746E-2,2.1999978E-2,-4.5000026E-3,-9.830511E-3,6.7499995E-2,-3.4042578E-3],"categories":[],"categories_nodes":[],"categories_segments":[],"categories_sizes":[],"default_left":[0,0,0,0,0,0,0,0,0,0,0],"id":104,"left_children":[1,3,5,-1,-1,7,9,-1,-1,-1,-1],"loss_changes":[5.141443E-1,2.3639455E0,3.5278374E-1,0E0,0E0,3.5156608E-2,1.8527681E0,0E0,0E0,0E0,0E0],"parents":[2147483647,0,0,1,1,2,2,5,5,6,6],"right_children":[2,4,6,-1,-1,8,10,-1,-1,-1,-1],"split_conditions":[5.32106E8,3.346E9,1.20179E11,-6.3967496E7,1.6726386E8,4.2E0,1.23328E11,-3.8666322E5,-2.4314934E7,1.6543744E7,-1.6485582E6],"split_indices":[10,6,24,0,0,29,24,0,0,0,0],"split_type":[0,0,0,0,0,0,0,0,0,0,0],"sum_hessian":[1.42E2,1.6E1,1.26E2,1.2E1,4E0,7.7E1,4.9E1,1.9E1,5.8E1,3E0,4.6E1],"tree_param":{"num_deleted":"0","num_feature":"33","num_nodes":"11","size_leaf_vector":"1"}},{"base_weights":[-2.9746858E-2,-4.1290347E-2,4.2499998E-1,-8.8297896E-2,3.0645138E-2,6E-2,-5.0000013E-3,-9.886366E-3,5.714284E-3,2.9230768E-2,-3.8000026E-3],"categories":[],"categories_nodes":[],"categories_segments":[],"categories_sizes":[],"default_left":[0,0,0,0,0,0,0,0,0,0,0],"id":105,"left_children":[1,3,5,7,9,-1,-1,-1,-1,-1,-1],"loss_changes":[8.46948E-1,5.2684003E-1,3.6249995E-1,1.5009844E-1,1.1247433E0,0E0,0E0,0E0,0E0,0E0,0E0],"parents":[2147483647,0,0,1,1,2,2,3,3,4,4],"right_children":[2,4,6,8,10,-1,-1,-1,-1,-1,-1],"split_conditions":[1.11439E11,1.763E9,9.1819E10,9.833333E0,1.977E9,4.5727745E6,-1.7927374E7,-1.9954982E7,1.3403955E7,1.2580098E8,-1.5138821E6],"split_indices":[2,15,1,30,14,0,0,0,0,0,0],"split_type":[0,0,0,0,0,0,0,0,0,0,0],"sum_hessian":[1.57E2,1.54E2,3E0,9.3E1,6.1E1,2E0,1E0,8.7E1,6E0,1.2E1,4.9E1],"tree_param":{"num_deleted":"0","num_feature":"33","num_nodes":"11","size_leaf_vector":"1"}},{"base_weights":[-3.266669E-2,-4.5270294E-2,6E-2,4.5714263E-2,-7.2807044E-2,2.8749997E-2,-2.5000023E-3,-9.875002E-3,-1.1428595E-3],"categories":[0,1,2],"categories_nodes":[1],"categories_segments":[0],"categories_sizes":[3],"default_left":[0,1,0,0,0,0,0,0,0],"id":106,"left_children":[1,3,-1,5,7,-1,-1,-1,-1],"loss_changes":[1.2232442E0,3.741303E-1,0E0,6.0560715E-1,1.8039817E-1,0E0,0E0,0E0,0E0],"parents":[2147483647,0,0,1,1,3,3,4,4],"right_children":[2,4,-1,6,8,-1,-1,-1,-1],"split_conditions":[1.11439E11,1E-45,1.4442496E6,6.73069E8,2.73625E9,1.3795738E8,-1.2440805E6,-3.5124024E7,2.672606E5],"split_indices":[2,32,0,9,16,0,0,0,0],"split_type":[0,1,0,0,0,0,0,0,0],"sum_hessian":[1.49E2,1.47E2,2E0,3.4E1,1.13E2,7E0,2.7E1,7.9E1,3.4E1],"tree_param":{"num_deleted":"0","num_feature":"33","num_nodes":"9","size_leaf_vector":"1"}},{"base_weights":[-1.9333357E-2,-3.8095262E-2,6.7499995E-2,4.4999998E-2,-4.452057E-2,-5.1034507E-3,4.4999998E-2],"categories":[],"categories_nodes":[],"categories_segments":[],"categories_sizes":[],"default_left":[0,0,0,0,0,0,0],"id":107,"left_children":[1,3,-1,-1,5,-1,-1],"loss_changes":[1.9797666E0,4.8105025E-1,0E0,0E0,4.932716E-1,0E0,0E0],"parents":[2147483647,0,0,1,1,4,4],"right_children":[2,4,-1,-1,6,-1,-1],"split_conditions":[9.4836E10,-3.195E9,3.9714818E6,3.4070528E6,5.12163E11,-2.6060828E6,4.0943618E6],"split_indices":[2,5,0,0,17,0,0],"split_type":[0,0,0,0,0,0,0],"sum_hessian":[1.49E2,1.46E2,3E0,1E0,1.45E2,1.44E2,1E0],"tree_param":{"num_deleted":"0","num_feature":"33","num_nodes":"7","size_leaf_vector":"1"}},{"base_weights":[-2.550338E-2,-3.8095262E-2,6E-2,4.4999998E-2,-4.452057E-2,-9.8765455E-3,2.2727249E-3],"categories":[],"categories_nodes":[],"categories_segments":[],"categories_sizes":[],"default_left":[0,0,0,0,0,0,0],"id":108,"left_children":[1,3,-1,-1,5,-1,-1],"loss_changes":[1.1964206E0,4.8105025E-1,0E0,0E0,5.3483075E-1,0E0,0E0],"parents":[2147483647,0,0,1,1,4,4],"right_children":[2,4,-1,-1,6,-1,-1],"split_conditions":[1.11439E11,-3.195E9,3.5741698E6,3.0662658E6,1.63325E9,-3.4309864E7,4.911832E6],"split_indices":[2,5,0,0,16,0,0],"split_type":[0,0,0,0,0,0,0],"sum_hessian":[1.48E2,1.46E2,2E0,1E0,1.45E2,8E1,6.5E1],"tree_param":{"num_deleted":"0","num_feature":"33","num_nodes":"7","size_leaf_vector":"1"}},{"base_weights":[-6.1730767E-4,1.16666645E-1,-4.132234E-2,-9.230772E-3,2.033333E-1,-9.875002E-3,6.904759E-2,4.9166664E-2,1.0526293E-3,3.0999998E-2,-6.0606294E-4],"categories":[0,1,2],"categories_nodes":[0],"categories_segments":[0],"categories_sizes":[3],"default_left":[1,0,0,0,0,0,0,0,0,0,0],"id":109,"left_children":[1,3,5,-1,7,-1,9,-1,-1,-1,-1],"loss_changes":[7.782165E-1,7.7943593E-1,7.7375156E-1,0E0,1.6626053E0,0E0,7.61974E-1,0E0,0E0,0E0,0E0],"parents":[2147483647,0,0,1,1,2,2,4,4,6,6],"right_children":[2,4,6,-1,8,-1,10,-1,-1,-1,-1],"split_conditions":[1E-45,1.327E9,1.20292E11,-8.5391416E7,3.3717E10,-4.2123268E7,8.809E9,1.1022412E8,8.127271E5,3.995422E7,-6.488112E4],"split_indices":[32,14,20,0,3,0,5,0,0,0,0],"split_type":[1,0,0,0,0,0,0,0,0,0,0],"sum_hessian":[1.61E2,4.1E1,1.2E2,1.2E1,2.9E1,7.9E1,4.1E1,1.1E1,1.8E1,9E0,3.2E1],"tree_param":{"num_deleted":"0","num_feature":"33","num_nodes":"11","size_leaf_vector":"1"}},{"base_weights":[-2.6973708E-2,-3.89262E-2,4.2499998E-1,-9.871798E-3,2.6388865E-2,6E-2,-5.0000013E-3,7.2E-2,-2.5000023E-3],"categories":[],"categories_nodes":[],"categories_segments":[],"categories_sizes":[],"default_left":[0,0,0,0,0,0,0,0,0],"id":110,"left_children":[1,3,5,-1,7,-1,-1,-1,-1],"loss_changes":[8.3767974E-1,5.8449525E-1,3.6249995E-1,0E0,2.584361E0,0E0,0E0,0E0,0E0],"parents":[2147483647,0,0,1,1,2,2,4,4],"right_children":[2,4,6,-1,8,-1,-1,-1,-1],"split_conditions":[1.17154E11,2.50805E10,9.493E10,-1.5114181E8,2.6819E10,3.1358978E6,-1.7114726E7,1.12908696E8,-4.7169547E5],"split_indices":[2,4,1,0,1,0,0,0,0],"split_type":[0,0,0,0,0,0,0,0,0],"sum_hessian":[1.51E2,1.48E2,3E0,7.7E1,7.1E1,2E0,1E0,4E0,6.7E1],"tree_param":{"num_deleted":"0","num_feature":"33",